1.764151344948023947e-01,-5.758167477598088446e-01
2.638655032626449071e-01,-6.178209431407266639e-02
3.471699351350071572e-01,3.540936708086145912e-01
7.553009270385036000e-01,3.884274419146411805e-01
3.457145828525209907e-02,1.491663675445114023e-01
7.392069033367529851e-01,-7.076349990601328299e-01
6.592281688594768818e-01,-3.543988557758835367e-01
6.661565749995497221e-01,8.250429259275129379e-01
9.418880135948326515e-01,-9.994707621872844783e-01
-1.937314671497581964e-01,-3.119287378953982670e-01
-3.545032115890223157e-01,-7.836130469728023185e-01
1.899895119430632384e+00,-1.259679348562749546e+00
6.514039249352323591e-01,-1.030423751597149273e-01
6.158571741429983426e-01,1.380765244353368004e-01
-2.687981944078089991e-01,-3.200981511043671790e-01
9.855772349908014096e-01,-3.877591743242275735e-01
-6.689948616644524337e-01,3.374083699632888234e-01
1.142632925048887582e+00,-6.606040817374803087e-02
2.228036546546425800e-01,-8.193955702564315047e-03
4.240915673721120660e-01,4.583782933720665365e-01
-4.315638206231764418e-01,-7.785296034811994836e-02
-4.203548384547437511e-01,-7.785686186625433436e-01
4.726038782941279215e-01,-6.469436757944773131e-01
1.406729997911059904e+00,-6.757943530540315713e-01
-1.873066399040346219e-02,-7.936547418130357467e-01
4.590776243826329428e-01,7.021226672743963171e-03
1.678479735075064871e+00,-6.406618854414477537e-01
5.391128603182671064e-01,2.718295404454121877e-01
5.063010325170505532e-02,3.499121762115873779e-01
7.136380140898300750e-01,-7.730354781363499850e-01
6.810010734519617026e-01,-3.959289473622550348e-01
-3.884051959825244316e-01,-1.865526231878446017e-01
-1.742588152302526339e-01,-1.310421072687614208e-01
1.889226979632161463e-01,-4.372473288368667887e-01
9.468022505954659662e-01,3.248299288214869796e-01
2.124450086682094785e-01,9.230446836011556577e-01
9.441822969656731290e-01,5.477511748062117158e-01
-5.315999074846632366e-01,-7.168814568312589230e-01
5.718029712998555780e-01,-3.253180925451185090e-01
-8.203877068182331422e-01,7.889878545987526470e-01
3.832016347199194151e-01,-9.486293800640774321e-02
-1.798064505130403390e-02,2.099290235363324708e-01
-2.741087695600925578e-01,-4.047444663763047346e-01
7.283241052225809531e-01,1.624583208398204248e-01
4.870378314612142656e-01,6.852663159844836205e-01
9.765729300252379286e-01,1.230947495040815853e-01
1.680265173641526111e-01,3.823309795110069187e-01
-2.226968230409939742e-02,2.847112394526983906e-02
1.032678008615177223e+00,-1.408292327226411955e-01
1.472955170059627505e+00,-5.701758422790443870e-01
9.345713508604163167e-01,7.289142722784898165e-01
4.305144159298989193e-01,-3.701414065882718818e-01
9.792884254114262443e-01,3.179692380702077159e-01
-6.127328140536842938e-01,-1.416778705404623806e-01
9.241805683905098823e-01,-1.874565238895251340e-01
1.469810323900665738e-01,-5.737162146161594034e-01
1.475573077310372350e+00,-5.880949026061218499e-01
6.509691974547575644e-01,-2.176796654538835640e-01
1.006802063581683448e+00,-6.625623312785078323e-02
7.987803172960538101e-01,1.490970458852417524e-01
-1.620619352416915182e-01,-6.473937486776659700e-02
6.371319099702338340e-01,5.331165942928536294e-01
5.443893288278150999e-01,-6.269222133484160242e-01
5.790529262963173274e-01,-5.904747517345065866e-01
-2.266996843647293147e-01,-2.782379849084970491e-01
1.263376012212494626e+00,-6.317770929764455756e-01
1.724106899740184717e+00,-8.653572430236642354e-01
8.987069199629320604e-01,-1.076111574557219175e-01
3.678596634944142352e-01,-5.455894636740179354e-02
1.311791467157014113e-01,3.938744735615112846e-01
9.217852506720097816e-01,-3.034065201790912547e-01
4.628234810160945789e-02,4.109728824132332092e-01
-4.833844455489021419e-01,2.990375761657503850e-01
8.867803848201349926e-01,-5.898017544028014703e-01
7.806870775294894038e-01,3.930553393559397257e-01
-1.132869721904228300e-02,-7.912063366169039824e-01
4.736959038531780575e-01,1.311254746778445224e-02
5.301661032383835348e-01,5.224051753891398864e-01
-4.738197076402026475e-01,-2.684078495480519688e-01
-4.543280896335672586e-03,-2.784631903597259983e-01
4.377724757937435651e-01,-6.924784682374314215e-01
6.643261319228082051e-01,-4.366438872493443313e-01
3.695143092437176424e-01,3.695835080454381028e-01
7.389265729505098967e-01,4.480260604740886610e-01
8.250193721705040284e-01,-3.929343605878750090e-01
-4.775388203625606787e-01,1.817913535336861675e-01
2.377851279662797634e-01,-4.679969110399744281e-01
-3.853868582546617350e-01,2.278396804294519074e-01
8.259706704392806298e-01,7.490053861228136434e-01
7.936083631835815222e-01,-1.661606787287104314e-01
8.610798609380568847e-01,-5.347271515002436360e-01
1.309584672563655072e+00,-5.071287789180134453e-01
6.209079515662399018e-01,1.177538548222705206e-01
3.980055525087518031e-01,4.220830991409960653e-01
7.917472221592869452e-02,-8.272134543590554667e-01
3.684870341732655596e-01,-9.969202473777678819e-02
1.801833375824108685e-01,1.375297073028595163e-01
1.022472883309607949e+00,-9.531578218831536775e-01
3.351056885366629490e-01,5.638366558175809951e-02
3.912220453798106456e-01,-1.625534652840035788e-01
2.395206496229956850e-01,3.817996265245102855e-02
-2.389892159207263056e-03,-6.767239951807152432e-02
-5.917682832155894690e-02,-5.530141692881668236e-01
5.531156916029156267e-01,1.225475162322214179e-01
8.576052492361775359e-01,-7.147391911357615923e-02
7.792322001310090229e-01,9.352622047958625284e-02
-8.378241741840716794e-02,1.201799303717357020e-01
1.348181098695304003e+00,-1.099434616561563161e-01
6.035764358900652660e-01,-2.052331184498080441e-01
1.678580592749238376e-01,-9.252641385855868705e-01
-9.043045092690722431e-01,-6.978159885804284812e-01
1.197799353282357870e+00,-7.794578866097943148e-01
1.805135382141079964e-02,-4.265400216841973013e-01
-8.678932768414799881e-01,-5.229682200433916073e-01
4.250664407208697426e-01,-1.577874060385190402e-01
-2.259154523599910536e-01,-3.836953937407988624e-01
1.894995759254642032e+00,-1.309839769553948763e+00
5.427725542655947866e-01,1.604738505001931936e-01
-4.389080831961731377e-01,6.306044542067641423e-01
-5.019970427314335293e-02,7.246145105456520685e-01
1.540747694442755056e-01,-2.464714283538637085e-01
1.706862649295424861e+00,-4.975833703295129973e-01
1.237751453614985842e-01,-2.567361833736909738e-01
-8.739629323354547452e-01,-5.270286143000195711e-01
6.928864754574739493e-01,-4.097018982206070969e-01
-2.936514154240508767e-01,3.232402364724170640e-01
-5.808421202207277867e-01,7.731973139227801273e-01
6.545082510251032382e-01,-6.968613413962341241e-01
5.227908551102747881e-01,4.227996235245506385e-01
5.980961742587442842e-01,-2.361390525060031165e-01
9.180223234829232304e-02,-2.042775003832704162e-01
6.767814925268944570e-01,-8.041325206818019655e-01
1.687020123454817389e-02,-1.581991795625730113e-01
4.819314828269041229e-01,-4.761500059861073497e-01
4.163045281618200089e-01,2.324228102940689156e-01
-9.507100385845815294e-02,-2.018526890110690086e-01
5.061228250621503388e-01,6.517345565703782651e-01
1.147805033402774288e+00,-1.001366591152403063e-01
8.025356601947286617e-01,5.539175522926886863e-01
-3.018429309950148437e-02,2.631964130235244226e-01
3.360117260425863894e-01,3.239931693054019513e-01
5.013436663252046621e-04,2.977895487397517749e-01
6.195901727850596785e-01,-4.524309030639750429e-02
2.661193986974262904e-01,-6.311015162243713839e-01
-2.610483832144046001e-01,-4.162249540597603992e-01
6.687129252512296063e-01,-7.235260470771822661e-01
9.088035498105766496e-01,-7.581693999660290562e-01
1.301658421870364180e+00,-6.861656242587924615e-01
5.335322683257652798e-01,1.525982831187731315e-01
-3.095893294686922204e-01,8.504015465516379102e-01
6.088122734884087173e-01,-6.134453865705337128e-01
5.992316260643713033e-01,2.462844270402254343e-01
1.445892556069888757e-01,-2.564942536686584118e-01
-1.638361790351088587e-01,3.345623392862984158e-01
-8.978518388370348990e-01,6.120152692515745674e-01
5.515947329110575392e-01,-1.514412944816216355e-01
1.056099044996090530e-01,-4.182025490612701901e-01
-6.077531249002583458e-01,2.392009012905906840e-01
-4.113042199218474027e-01,-5.714651119674404312e-01
9.723550554913167332e-01,-4.001271064125249133e-01
2.606783036885325089e-01,-5.405928831551749525e-01
-3.935221498475840463e-01,4.796569970631670565e-01
1.150640355190598152e+00,-7.188205868482524519e-01
7.840197571188223247e-01,-2.896720621265559403e-01
3.670733053269032986e-01,-2.432206906460174234e-01
6.284862327485505329e-01,-1.215201123103461789e-01
-2.687595368995868705e-01,2.291428904162588764e-01
6.174383519525169506e-01,-2.469405642189650418e-01
4.442338720132060770e-01,-5.179419211450645433e-01
1.427963801754508655e+00,-5.086229120001649617e-01
4.998218557024487474e-01,-2.885629223915499031e-01
1.836819960001440100e+00,-8.677468352293834508e-01
4.683151306051440699e-01,-9.926857848561829178e-02
6.749186496739237873e-01,6.277933097147938568e-01
-1.577855306347003550e-01,-6.833051865063843877e-01
1.523345202740199467e+00,-7.184064392494804441e-01
2.624614264511160866e-01,4.165805077290583025e-01
-3.033447299593418078e-01,-7.538250355991527041e-02
1.409624793810460242e+00,-5.075886535543613354e-01
-1.110647554237945700e-01,-9.229685183055870434e-02
1.191357478758934052e+00,-3.098358264545747476e-01
-3.041232782729179629e-01,-3.201809477528316794e-02
6.356065708614049292e-01,-7.466231970123552442e-01
9.859920464959193165e-01,-7.521418390612593097e-01
1.274063038955588700e+00,-1.283414385316313799e-01
-1.266527763596368983e-01,-1.158479143344762902e-01
3.790124062857115339e-01,-5.460764618913187540e-01
-9.587848992079331945e-01,2.386994576997510942e-01
-6.176161685661329948e-02,2.140135448714231003e-02
6.361778105274944473e-01,-4.092928178105822434e-01
-2.237550765116625706e-01,-2.631778210875172497e-01
7.063130798987652392e-01,1.661824890821191891e-01
-4.074225553287582624e-01,6.642566171595531976e-01
6.821834134743238742e-01,-2.605664716589781715e-01
2.566131984824850942e-01,-2.494828079322630732e-01
-4.945664367777751758e-01,-6.337050527209076023e-01
-6.128128282618117151e-01,4.830150831601468520e-01
1.994744456225006346e-01,-5.196119333761000103e-01
1.745615057873341813e+00,-6.852863995981228751e-01
-3.725304174501604670e-01,-9.899899102235912851e-01
-1.393734603007001915e-01,-5.497062142627269221e-01
5.913684740386807581e-01,-5.509432058926461151e-02
5.743300359843848124e-01,3.668008820821869881e-02
8.675472519517043457e-01,-4.898087816717572318e-01
9.576750218875849097e-01,6.546411686614117542e-01
1.276515802544708755e+00,-7.210413428546581516e-01
-7.696559953111912211e-01,2.206779829770503243e-01
2.423990831711124283e+00,-8.187416505671674116e-01
8.482492485669329563e-01,-3.353132702169133728e-01
9.821037517740363043e-01,-2.976939167967376232e-01
5.249202744726799708e-01,-4.196668667675363396e-01
7.802663747928817450e-01,-1.767845548003626754e-01
-8.375252838459494864e-01,3.999583503720396394e-01
1.153116324645931279e+00,1.402425415993305557e-01
-2.693618227437625245e-01,-4.141727274281433724e-01
6.180906449986450779e-01,-5.324540816572285173e-01
3.968017347460860433e-01,1.328612669610856889e-02
3.451133644511083509e-01,5.411145725713967236e-01
-2.527821112925867642e-01,6.352473251383736752e-01
6.756657763705734565e-01,1.505784691102386164e-01
4.092405178383000663e-01,-1.468157437670801202e-01
1.933435298497738486e-01,-7.162019057845663284e-01
-4.564446156412221844e-01,6.682878116662906987e-01
1.214251220884064786e+00,-5.311944230278737855e-01
1.291203167868438806e+00,-1.227090975880852808e+00
-2.731825718683118520e-01,-8.873763484287183756e-01
-7.543799197462466855e-02,-1.788852927605844023e-01
6.528157905157625507e-01,-6.537586200416196647e-01
-3.940241033764679823e-01,3.868418359188136590e-01
9.751322134582798284e-01,-4.103090719491046534e-01
6.233930308583192081e-01,6.235304314158207628e-01
9.895510542179624114e-01,-1.032371568619920854e-01
1.569741457448782684e+00,-3.245720576739171137e-01
3.212459933510952714e-01,2.005429685939817130e-01
-7.739696951236563205e-01,-5.934447564951981224e-01
-5.273877543165730319e-01,2.564553735523020239e-01
2.255001089175978635e-02,-8.827616281526431408e-01
5.560788821916936575e-01,1.476524197443784825e-01
2.123289373113318168e-01,-3.181845997741333254e-01
5.119188524351099279e-01,6.521625522591136814e-01
1.991755704028876472e+00,-1.308790706757319455e+00
-6.925948951721263569e-01,5.899040882694628340e-01
7.058854602402719891e-01,-3.008373117849949541e-01
-7.116019785281981758e-01,6.606306982838183739e-01
-1.815711425881136876e-01,3.478316757228421263e-01
4.001167483336787872e-02,-1.765550982909212807e-01
-6.794280279119566668e-01,5.113163127512041634e-02
-2.247744780992453340e-01,7.950212542286499984e-02
7.580257938907299931e-01,4.560042908256308203e-01
9.609563696829288570e-01,-8.190754599542571235e-02
6.023099086040076822e-01,2.092361822409644911e-01
8.913918839716777898e-01,-1.654947594844969339e-01
9.542485702087205590e-01,-7.758897663250289289e-01
5.795402351648403227e-01,-2.715549849432686846e-01
3.753487123683368898e-01,-5.565615568333031060e-01
-3.218080388901797817e-01,-3.910222454827503302e-01
9.784216017707676460e-01,-2.871206434481771153e-03
-3.688947832935581261e-01,1.112309933445167209e-01
-1.019641957097707774e-01,-3.459703940639780040e-01
-4.283025107118838548e-01,6.637095146913561949e-01
-3.971836544382597450e-02,1.753915648587333620e-01
-9.326940024983294553e-01,9.820373121850597617e-03
3.682613084540762305e-01,3.170036297291944916e-01
-2.883978930091187776e-01,2.618869540259362028e-01
5.099924525206033232e-01,-3.282902766590918842e-01
9.972805604788158584e-01,-1.313704643605198563e-02
-3.828261686206680392e-01,9.493536992368549476e-02
-4.101940993242838007e-01,8.336753042593629814e-01
-8.068473331626008216e-01,-6.214241772935936714e-01
5.943209045122801459e-01,8.525007252560592996e-02
8.848668456408932403e-01,-5.174947135797549613e-01
-5.079500147356060813e-01,3.703835700860783064e-01
6.405344127655432374e-01,2.831880296708247924e-01
-1.810752151660510179e-01,7.273878051177361526e-01
-8.074798146537991161e-03,4.854064313807811004e-01
3.987980466985516781e-01,1.401807341273657859e-01
-4.745422167985885453e-01,-7.148197549276583684e-01
-1.701527475254644983e-01,-2.236166565690850261e-01
6.556934753356158385e-01,-2.478116940531288961e-02
-7.847285483247045113e-01,-3.142979498210120015e-01
7.872218325448180343e-01,-3.201274307012240139e-01
4.867566170179971063e-01,-4.984827341930965772e-01
-1.443570797186728427e-01,-7.572870048851403357e-01
-2.712693175385202937e-01,6.144800307121469629e-01
6.868433330867009801e-01,5.574237210698493872e-01
-7.914578014539659367e-01,-3.267962069039864748e-01
8.495290531409663837e-01,2.890522521418469881e-01
-2.583201143773534714e-01,6.643805802633275803e-01
8.152459818785249279e-01,-4.383787614984767100e-01
6.170236456993263285e-01,-2.806308914639883412e-01
-7.669163362270886575e-02,-6.498050546933787919e-01
8.085167570608220444e-01,-5.326647084907847329e-01
9.200274236180918663e-01,-2.996756344795584726e-01
1.187265840789266891e+00,-5.056603385549724994e-01
5.612652850749539901e-01,5.723789119391305968e-01
7.641135741510641788e-01,-5.040053168754319302e-01
-7.335027836826996106e-01,-1.312866874399786776e-01
-7.229751468609034726e-01,7.546405114007623816e-01
-4.015339579821572968e-01,-2.738231212456787023e-01
-1.626609743143581088e-01,-5.249526900240414351e-01
9.410430931073825445e-01,-6.743295419053324524e-01
1.773808169985408245e+00,-2.332963265461328595e-01
6.793737428299047032e-01,-1.678932352983405346e-02
-4.423928776240155791e-01,2.094080787981711725e-02
-7.800451252642549571e-01,2.901324403459252799e-01
2.003185767587415955e-01,-3.587414150771177646e-01
1.325879042021474552e+00,-6.197091673415983104e-01
4.022375166626099285e-01,-3.039320147252118631e-01
1.198974002440723607e+00,-5.626957291883812884e-01
2.649735459969273510e-01,-3.161115507890647769e-01
-3.288110379368303637e-01,-7.118846784552856910e-01
-3.065192895726872591e-01,-3.025260580989674875e-01
-4.265783875157198590e-01,4.528629541516893675e-01
4.285929699765755885e-02,5.421549748713434536e-01
-1.069962115996016816e-01,-8.055179656205552208e-01
2.573545027458358225e-01,8.692903426970269298e-02
-7.050067744336201425e-01,-4.563699448156293137e-01
9.555659602690884658e-01,1.803225398187182082e-01
1.341310088445423654e+00,-6.146653365538417013e-01
1.468480659062603610e+00,-7.173199134740142480e-01
4.724015809049014747e-01,-6.627091823292139416e-01
6.541615185049195480e-01,4.173467145423441771e-01
6.901920602883970801e-01,-3.893138415211880310e-01
7.625199648884672943e-02,3.758269939046624680e-02
7.025973848552126144e-01,4.468483637210136639e-01
2.564439662332491654e-01,-4.823598784900615666e-01
7.470700019633618183e-01,4.681295333335588338e-01
6.584884419359526841e-01,-5.446468376563531333e-01
3.637798599412776501e-01,7.216443507773798172e-02
5.823650955860808498e-01,7.726777647707414598e-01
7.131976103324497718e-01,-5.989351026127607419e-02
1.953674733500230520e-01,2.424110835153598098e-01
-8.597915393004383899e-01,-7.155669233263424189e-01
-4.300069855569869925e-02,3.635579651806504775e-01
8.522794705215838706e-02,2.639374232885066118e-01
1.345815357123499423e+00,-6.822187935913434087e-01
-4.025484361208261364e-01,3.662368734122939395e-01
8.560781998459047193e-01,-8.490302959926476767e-01
3.093692195404663114e-01,3.293103510057836941e-02
1.799214397249702779e+00,-9.047081243676926565e-01
-5.923107511719363227e-01,-7.620221863619887070e-01
-6.690089618242859304e-01,-6.315041772757313820e-01
-8.034723639442127308e-01,-6.207090450510734936e-01
-1.647662774459541790e-01,8.508465039455128665e-01
5.591767077928327945e-01,1.384762206984427590e-01
3.223530550345458656e-01,-6.690906504233548047e-01
-6.530472965016320686e-02,-6.986453616312744419e-01
5.436815118288471638e-01,-7.390610175991670916e-01
7.147420627500131740e-01,-4.175866793464428905e-01
-5.926723492704853991e-01,-5.379713873917176675e-02
1.678445611774607604e+00,-7.789426081239386734e-01
-4.685614264979160448e-01,5.000553358192108000e-01
2.151696065224058541e-01,-1.846592956587140011e-01
5.424022237770943500e-01,-6.700518211237724842e-01
8.925714495735306842e-02,8.006113987418722600e-01
8.943895587199088837e-01,-7.585073316926460585e-01
-4.709713610207747481e-01,5.418337176195945348e-01
2.707776933622940696e-01,-8.552643790235151533e-01
6.824963285903065668e-02,4.445521673682916730e-01
-2.809669152775160494e-01,-2.134385618493400139e-01
7.326111193422759627e-01,-5.553679521737835412e-01
-1.978196814289554240e-01,-3.685555864068117138e-02
1.545255382832498414e+00,-8.907689653665115115e-01
-2.614586414627966260e-01,4.884181350300826896e-01
9.763047127220390031e-01,-1.142799719121226909e-01
5.974215579350274918e-01,5.633479634797204927e-01
5.788341929095637273e-01,-5.189939454632902516e-01
3.451735848989381794e-01,2.500622660393160834e-01
-3.931764706650605068e-01,-4.915737933405207594e-01
1.024814181578933114e+00,-4.197800545046500020e-01
1.150204041304383917e+00,-1.677950156910871238e-01
-5.859414000416871549e-01,-1.144478027407294096e-01
-9.924555817711733230e-01,2.944218041930499741e-01
1.755120426620278673e+00,-9.500436472366534657e-01
9.926879793015541686e-02,6.371501913984851662e-01
1.449365814614447689e+00,-5.936192488948839330e-01
7.722926886270742308e-03,2.549793646477754860e-01
1.807844944675875531e+00,-9.375914613796034747e-01
7.433556269885049916e-01,-2.372078659601325468e-01
2.007413828238825193e+00,-7.529347927491682191e-02
7.715852695580105447e-01,-5.505277161430817134e-01
-5.998138374766139036e-02,-5.642219354196934544e-01
1.247162655391484520e+00,-5.816777695583723595e-01
4.796159830518272882e-01,-4.794987273181625653e-01
1.640299839127903891e-01,-8.143482973648699108e-01
-4.839523777404433069e-01,4.859038378659732427e-01
1.253086455949310896e+00,-5.597735646145797217e-01
3.556634134189560204e-01,2.330561378631726965e-01
5.529675980876292973e-01,4.044009756121363930e-01
-6.232906981812829095e-01,1.224169612556120779e-01
6.528839055180619688e-01,6.033577159390188793e-01
-7.321847761651936182e-01,8.116572729049011947e-01
-5.472194411814470527e-01,1.443305051377989992e-02
3.857273047190077353e-01,-4.348601592393441795e-01
2.860176012914784072e-01,-3.537595267730691551e-01
1.025635043752416653e+00,-3.563826322312585448e-01
4.532169752939701479e-01,1.041053812819900393e-02
-5.999544217949663860e-01,-8.944692567567622543e-01
-3.179941122463219028e-01,6.380229588671271213e-01
-9.299476539806201814e-01,4.226160504899164061e-01
1.376372108040865572e-01,-3.322311653070647575e-03
1.571544826580862919e+00,-5.976765936884950170e-01
8.773988918890165967e-02,2.085563144333227314e-01
-8.180502319226703456e-01,8.849284767814760144e-01
-5.834879839023263681e-01,5.159232873825879695e-01
-5.222672802112922064e-01,-4.395973077720094491e-01
-8.975923842908768435e-01,5.665877133496060036e-01
9.305289770975908592e-01,3.508543128948362622e-01
-3.067882942365038890e-01,3.851065087270830745e-01
6.427177636031277119e-01,3.688408330360238296e-01
-8.614989244671769075e-01,4.633384056817836660e-02
6.521544232951741460e-01,-9.765526722695525019e-02
2.531457036779807823e-02,-1.665859704436603583e-02
1.376407340322608475e-01,-1.555489331750964932e-01
5.450499630152363384e-01,-1.700719610695075046e-01
3.470620423163973123e-01,5.456119784443583809e-01
-5.744853863251220272e-01,1.111713444341754509e-01
6.058427474150880343e-01,3.115010508011041845e-01
-6.286798708102608879e-01,-1.058979225050950546e-01
9.321145770352898818e-01,8.424912554714913959e-01
6.005415578085945283e-01,5.842383008062389527e-01
5.660123469425893949e-01,5.815646033335919451e-01
6.481788937166810260e-01,-9.645375975533154733e-02
-8.659002948442581227e-01,-8.578868471600262779e-01
5.273235614382389969e-01,3.956700235990290304e-02
-5.665918111352394870e-01,-7.242181332848385278e-01
9.491125959591699690e-01,-7.135299363022165053e-01
1.352863517422546291e+00,-7.470367470018407507e-01
1.977048004454467489e-01,-6.065030363628031163e-01
2.587655040002889706e-01,1.285204357962382860e-01
4.583736215783906776e-01,-8.521717509857211770e-01
-6.530051293998868633e-01,-3.284566569836937511e-01
-1.806971465457161974e-01,-7.682182221239486353e-02
1.378670635992115034e+00,-6.562406721111982977e-01
7.013773918155494780e-01,-1.447048044891648400e-01
-3.204670405294134938e-01,-4.301835938515706226e-01
-5.472155686822373077e-01,-8.217415721360015191e-01
1.072850252228538803e-01,-3.835569529498397134e-01
6.116833602442030005e-01,-1.011815324535115579e+00
1.903172204707291648e+00,-5.293542537230477851e-01
9.708089628639335888e-01,-1.956577705809126044e-02
-6.713059827375073008e-02,1.809879002319610131e-01
2.398533548445316299e-01,-6.362392104241820778e-01
1.688342743735825824e+00,-7.954842880157093621e-01
2.441123670041638327e-01,1.581985453427275923e-01
-7.030206408601105683e-02,2.407215344606611629e-01
-3.502245838452971993e-01,-8.997185634155963063e-02
-4.101044948178059757e-01,6.395007278089706038e-01
1.291201214141454390e+00,-7.689506700944468420e-01
3.046171363104552832e-01,-5.841304321741476180e-01
9.016514156431032490e-01,2.281547615866644230e-01
1.075249679440929418e+00,-5.195159377246924004e-01
5.405178221120402471e-01,-3.095102264062059017e-01
8.001311102590993318e-01,-5.093376857819342796e-01
-3.846643753642142172e-01,-1.912916738537318861e-01
-1.751532596709395317e-01,-3.515673173821260988e-01
9.667005316412355942e-01,1.193180652218883697e-01
-2.153432781829587028e-01,1.149757201771677562e-01
-4.284057483076684214e-01,-9.661841983306085346e-02
-5.901355028130628178e-01,-2.841917563113367518e-01
-8.428456720066477281e-01,8.584371401630388476e-01
1.241960008630493384e+00,-3.732668687061392598e-02
-1.404030012004816030e-01,-3.176859982838219909e-01
1.443445916036682375e+00,-3.541707162670844067e-01
1.371508181739589993e+00,-6.643078677595835035e-01
6.158545692949165540e-01,-8.945302545339542388e-02
-8.462486566885160100e-01,-7.994707221676232711e-01
1.653388566515153757e+00,-5.375503077774607119e-01
5.176293924228427823e-01,-1.689513541435364863e-01
1.655032906311179719e+00,8.829377964775020349e-02
5.668307124862822372e-02,3.034028537675005910e-01
7.160896766216264808e-01,3.134562827210647384e-01
5.379338680878975598e-01,-9.999529573860821419e-01
3.485207257350706467e-01,-7.689916816279087630e-01
1.111657262780106015e+00,-4.801117548401420132e-01
8.232766338569587061e-01,7.900065347539018956e-02
-3.339291171801665459e-01,2.351771542567855366e-01
1.885582462433414985e-01,-7.494633157223103970e-01
-6.591680033173439313e-01,-5.649496999083303272e-02
2.831985401525660695e-02,-9.571134927703039974e-02
-3.249259588490814865e-01,-9.488950035701304575e-01
5.501186526390792197e-01,-3.026228040969710098e-01
4.149064136319768892e-03,8.935084363614276270e-01
3.263537830139964790e-01,-5.508514039081837677e-01
9.595213198874286142e-01,-3.339736122501256177e-01
1.226675768722386151e+00,-5.697125996081217059e-01
-4.571496338642615509e-01,-4.367158311128451764e-01
4.353746417780365308e-01,-2.110332536009546997e-02
-9.822058516119724914e-02,-8.829250892143352125e-01
4.344702394367209730e-01,5.931738133305274330e-01
7.981442320792856426e-01,-1.302999278826103557e-01
-6.587273396875870102e-01,9.297519784085017669e-02
-5.571530723286501896e-01,-1.503527308354901115e-01
7.680338155507440145e-01,-3.431251501545101168e-01
-2.749309687849765815e-02,-8.952395568554583072e-01
-7.245169463423434264e-02,-1.339483311411317490e-01
-2.096499991640936034e-01,5.502349145341494108e-01
-4.508999441165073563e-01,-6.947633035555198511e-01
-5.388458512713347748e-01,6.733985637382877698e-02
1.827981652896789599e+00,-2.384226949792577488e-01
1.558054798594225687e+00,-7.560087034963115515e-01
1.302491611037860098e-01,-3.858832965345411758e-01
1.013006032254601951e-01,3.234710516377430900e-01
1.575654774546524639e-01,2.698840747499113568e-02
4.397777143785138176e-01,3.887326240396685728e-01
5.620622556267984571e-01,-2.571982500525311632e-01
3.900718036897323771e-01,4.420344249222366018e-01
7.872249500779310294e-01,-2.315549613361565229e-01
-7.035261346848177277e-01,5.961124146031004933e-01
6.720467277502962800e-01,-2.405258919919143479e-01
-9.470958878921420521e-01,-7.545072242499111237e-01
5.977077687109028092e-02,-5.041668276416648720e-01
9.591118699123534208e-01,-3.753216805476309315e-01
7.618818633113345618e-01,-8.450988149799188998e-01
-1.603959151359357904e-01,3.872074392876837523e-01
1.293712749626850789e+00,-6.449987804796435409e-01
-3.694869811931422166e-01,-7.855729377199289765e-01
8.711596216427411887e-01,-9.072856015854605660e-01
1.495113436142826213e+00,-7.111282496959400179e-01
8.848284843437413949e-01,-3.049164314384706920e-01
4.936441553841348640e-01,-2.307254106476235855e-01
1.220521481597671709e+00,4.756185874957198356e-01
-7.930602148303147469e-01,1.768924356897770001e-01
1.010317575599988027e+00,-5.922337421906467281e-01
7.898847283039684974e-01,2.982208479030130643e-01
-3.958756177579312863e-01,-6.586775821389817542e-01
1.086567787540373420e+00,1.867331471520125019e-01
-2.002603870040009504e-02,-7.033381927587583071e-01
3.062044066613387461e-01,5.149573898239547809e-01
8.960093224758794994e-01,-7.199224931396562832e-01
6.924644678409458409e-02,6.286492265015064529e-01
5.787362279505973151e-01,-4.822672694250640935e-01
-1.993971764028949767e-01,6.306588046635740463e-01
8.705899953723366114e-01,4.188228416413446453e-01
1.436584045929166109e+00,-6.647158201886440576e-01
6.299515637118147104e-01,-6.170813564242276783e-01
1.005382077374232574e+00,1.885421779389746533e-01
1.643159303120616810e-01,2.151684720836188058e-01
1.591386712887705723e-01,4.380967925611956026e-02
-5.784030903245390709e-01,-6.565190815758258358e-01
6.108364805845197809e-01,-3.375689433354266411e-01
-7.496915135030952637e-01,-6.427783080725264497e-01
1.363073692769700695e+00,-6.032080122698307845e-02
1.463046035205448403e+00,-5.536168209978857835e-01
-2.511501809178134370e-01,-6.627365061529292278e-01
2.180096555456917606e+00,-9.572816621081216004e-01
-7.942384070348604830e-01,-2.328187899210743816e-01
6.582534529294729042e-01,-8.996149361316299053e-01
-1.792677023379499190e-03,-4.883186296991436359e-01
1.621327159393498363e+00,-7.708190701321944172e-01
1.486472327907053748e+00,-7.188907207642035724e-01
-3.094542778228643876e-01,6.085718048619550569e-01
1.364872772882639973e+00,-1.436777949472832328e+00
6.456157618169874324e-01,2.039237846271514942e-01
4.648064347847210565e-01,2.241338790336468711e-01
-2.582629037795317606e-01,-1.898356026415199405e-01
-8.787642327211004911e-01,6.136565514625280660e-01
2.954366353616432739e-01,3.201535616401155471e-01
7.842019027207786097e-02,5.551599202282659906e-01
-3.062232522964405401e-01,6.276932346853141276e-01
7.586526001657425411e-01,-5.748751971282040074e-01
1.086626691678522105e+00,-3.589571940279140394e-01
1.555109582350393094e+00,-9.995492998955451958e-01
6.421396746551406576e-01,3.018371900479228653e-01
1.026797196789085209e+00,-2.866902547052796457e-01
6.340877909382203192e-01,-1.427409101369320477e-01
-3.625846804368806908e-01,-1.759012112826478236e-01
6.771278947657570768e-01,9.048968739113966153e-01
1.844582201224384266e-01,3.621129006734734590e-01
8.016503746056844459e-01,-5.457960718823056112e-01
2.165960360553751407e-01,-2.030729900962326140e-01
-9.208795129647107114e-01,-2.380666959062369692e-01
3.715141100292736476e-01,4.921438503639841144e-01
2.123822830067220391e+00,-9.469885527245495149e-01
1.485646801161243813e+00,-5.753897979711737332e-01
-5.325447054352678844e-01,-8.705055850544303198e-01
3.113401318695829256e-01,2.444115017081967822e-01
1.459994489829596898e-01,-3.977036459294072124e-01
6.676384658616593692e-02,6.328174163657201978e-01
-2.183065502579475958e-03,-4.386896640412640824e-01
8.471894484827335869e-01,-6.067210013168470306e-01
-8.338346170676076419e-01,8.086238773898601906e-01
6.261919436306241371e-01,-4.236506373177933438e-01
1.777044961701462755e-02,7.655709969329427267e-02
-4.151032962855127906e-02,2.746015102492798121e-01
8.567785128663605310e-01,-7.492179503457147005e-01
2.299884328458768473e-02,6.231645178708940247e-02
-9.673958120493900137e-02,-1.627154743330505304e-01
-1.088094147555942678e-02,-4.993969138863572632e-01
-3.318554865905142259e-01,-9.717448574941760508e-01
7.849452655087862940e-01,-5.487206587040527328e-01
1.294188407440187927e+00,-5.516446545142834612e-01
-5.050086587668184412e-01,-9.946275291051959178e-02
-4.565302267558295490e-01,-2.837395597886653853e-01
2.942717052037015502e-01,3.172009348887622759e-01
1.461322693060060240e+00,-7.034251271475435718e-01
-9.031367934175407730e-02,2.653042944039614714e-01
-7.344645348619496250e-01,9.404014673754645948e-02
-1.196576950896772670e-02,-8.838553773780747358e-01
-3.549065598509315578e-01,-5.924002108850319193e-01
1.253615973165870923e+00,-3.063426656307955964e-01
-1.496193644513243715e-01,-4.077445366184724307e-01
-6.300650895436955556e-01,8.531567142949136873e-01
1.104152185656568225e-01,2.101853225533049929e-01
-2.349579313372057165e-01,-6.123822709522350888e-02
-3.998321910245519195e-01,5.655320535470325094e-01
-4.201220262689372986e-02,-2.389945344776963077e-01
2.099276942020952941e+00,-8.377948590855478495e-01
1.839100454384861028e+00,-9.238844699898701718e-01
-1.296853045730692600e-01,2.630068162471363991e-01
1.264844417344072047e+00,-5.765540690095620757e-01
1.388361429772593247e-01,-9.898929598928152274e-02
9.689502609811641021e-01,2.684237720276740347e-01
3.367368751214883105e-01,1.540167811622841221e-01
-6.135065717687127052e-01,-9.899390685621156649e-02
3.778447883634874493e-01,-2.273309934433200841e-01
1.879097498387913290e-01,6.289136327623430223e-01
2.368788501969271709e-01,-6.370167694349400112e-01
3.152373221660325492e-02,-1.799846582703754083e-01
9.401929747145555405e-01,-4.068975487110558786e-01
1.547761242828892270e+00,-6.653301941937885822e-01
9.364685543807133028e-02,-3.860195099257647811e-01
1.728790978021037317e+00,-6.048906934699149751e-01
-2.563500660777944251e-01,-5.227847130236977780e-01
7.099269533838651336e-01,-7.305183501982446259e-01
3.128230651313566035e-01,-9.524801911251521425e-01
1.977831280919904455e-01,-3.444176378648601267e-01
3.567866829356107217e-01,-5.918603178895165406e-01
7.163790887787601092e-01,-5.598256597649095001e-01
-1.744115235239202533e-01,-5.895761068964960883e-01
4.968607124514454743e-01,-2.572874887858807025e-01
5.683977882408333682e-02,-1.012298683063638516e-01
2.248193656620276204e-01,-3.821075332433881422e-01
8.835268474360964408e-01,1.595297864728155712e-01
-2.075526496293588763e-01,7.268095275984566284e-01
1.074761718834475799e+00,-5.574745114943110424e-01
9.891321401396757640e-03,-4.104191564255160185e-01
1.905710684509903663e-01,4.760628784949547110e-02
-6.471024795016331321e-01,-7.206875031806447840e-01
-1.944449968627470771e-01,9.832950417922703412e-01
-8.883652461691952940e-02,-1.982343889438558659e-01
-9.785776007559735534e-01,-6.312212475671488132e-01
5.393054664717751301e-01,5.741830598648594020e-01
-5.885018414454797897e-01,-9.111846367522944412e-01
-4.952294154728643649e-01,7.687757771280615549e-01
-8.338276912196931345e-01,4.303055190340272507e-01
2.386642768748978849e-01,2.747673976865072643e-01
-4.992001792886295863e-01,-6.785561277897407262e-01
-2.055371423639846748e-02,-9.433491032720059399e-02
-3.929487034922867217e-01,-9.332957754781032733e-01
6.042247527364041915e-02,-4.667933347075521322e-01
-6.309414223773790464e-02,1.789453057126048630e-01
1.103229137239837510e+00,-5.638900177975358918e-01
-1.282685707956699173e-01,6.767517102084223968e-01
4.843687258340022561e-01,2.487855995458310848e-02
-9.003600970734837450e-01,-5.688022988980583339e-01
1.569488385453238488e-01,-1.558987033945431200e-01
-4.773309677282497887e-01,-2.400115218376545900e-01
-1.158759799420781000e-01,-2.741022127806090336e-01
7.976942894682785834e-01,2.683307308595603291e-01
1.116636699662040044e+00,-6.264944109233000491e-01
7.927021479147282612e-01,2.989318828777215442e-01
-2.922690966156659131e-01,3.322409379518228567e-01
-5.938221671242285282e-01,-3.703989795911304117e-02
7.219570944859048378e-01,-6.300076522038287052e-01
-2.899440684760204445e-01,-4.202102495726039444e-01
8.309466598347841071e-01,-4.362311659697757915e-01
-8.351811058590292713e-01,-5.734742473711913480e-01
1.333113825443810629e+00,-7.858503859676775338e-01
6.134433829547387695e-01,-4.014739057279681500e-01
-3.378729398933781880e-01,-4.891882132032308039e-01
3.753891202477321887e-01,8.526541194209829033e-01
6.447196415393766644e-01,-2.156255187032483922e-01
1.730520254361476162e-01,6.406657813749454533e-01
-3.693320387786344083e-01,7.253098887752341684e-01
6.347436183788257580e-01,-3.788706355357723127e-02
6.748403378145290121e-01,-7.685976017104270142e-01
-1.618180167986164042e-01,2.912132567045538911e-01
3.688745359339685725e-01,-5.580436553324974458e-01
1.400377122637066485e+00,-6.024439936716111665e-01
4.738739762133616917e-01,-6.765478829506705871e-01
1.924993127149416949e-01,-3.821654014750728301e-01
2.595998022466036170e-01,-5.672693967353461542e-01
1.315830266230848977e+00,-3.783344324768101452e-01
8.171185811224074280e-01,-4.899936202013740472e-01
4.476337801899634705e-01,-3.502956066557400550e-01
1.465004732038575508e+00,-7.097239717498445843e-01
2.031288925166570003e-01,6.064519043741891519e-02
5.523615089161894032e-01,1.433988254223954317e-01
-7.204323011940787502e-01,-6.178232089815209882e-01
5.944838735403197294e-01,-2.515788327943878633e-01
-2.416239381943663389e-02,1.833910261250311091e-01
-2.990619398356270109e-02,-2.310727200266662201e-02
-2.289944694486789611e-02,3.288723004567707664e-02
4.377779419912625758e-01,-3.446508226459318869e-01
1.415529387858610155e+00,-4.800979693509609403e-01
5.054135051971402337e-01,4.579940059388221130e-04
1.148078974104724814e-01,6.342414684701225269e-02
1.957912343478463990e+00,-8.359770718008585622e-01
5.921968761651126290e-01,-4.800025133388708398e-01
4.451971930874543126e-01,3.739626631904638399e-01
2.820383245264398986e-01,3.401127238811905706e-01
2.084733150384752154e-01,-2.443937531929338547e-01
-1.921229386134888917e-01,-5.011588536673212690e-01
3.261394681479187208e-01,-3.535166049693950763e-01
8.386834688656747971e-01,6.978013924713856175e-01
-4.286098873685320609e-02,4.365012294887899991e-01
1.557753566122157540e+00,-7.038970812353328999e-01
2.480090083362059827e-01,-7.467908045841901155e-01
3.992056022387600045e-01,1.963729393974154303e-01
2.449239253548615713e-02,-8.030833296088580875e-01
6.066104574243581515e-01,2.444943081968375953e-01
1.526426641998701150e+00,-7.042830975805483007e-01
2.647700268141128799e-01,-7.872770078176622999e-01
6.752550914230620593e-01,2.953687355075116927e-01
5.857743680465201663e-01,-2.058378516808780923e-01
2.568764399087004602e-01,-8.437808037553189422e-01
1.177205120694005958e+00,-9.001365890323164143e-01
1.347827269096527392e+00,-5.914381904783476696e-01
-8.917185898400009636e-02,-4.899017452236528736e-01
-2.189119164314321797e-01,5.278682350078973684e-01
1.051288902325457686e+00,-5.278437522548139471e-01
6.578403983092999674e-01,7.218232739712922008e-01
5.783062019223819128e-01,6.516575353625767009e-02
-4.227725778549262792e-02,7.833087962042593055e-01
8.475531760405510262e-01,-6.051219789015025441e-01
-2.233033081869881809e-01,7.515201996383864547e-01
-6.450206919355325752e-01,7.621596586523777805e-01
7.313060819969878779e-01,-6.008320940817947209e-01
9.941851565187553863e-01,-4.013234183389615684e-01
1.525059873346108041e+00,-6.992031057011889317e-01
1.578772450955017170e-01,1.066070829278656928e-01
9.623936255746965429e-01,-3.064108856205191023e-01
-9.893212918801286282e-02,-5.793322254312256447e-01
-8.933850959899697353e-01,5.652769494186387078e-01
2.965933108679903452e-01,2.883531123272045082e-01
-4.940599006498029855e-01,1.105139609487968411e-01
7.770862502653531623e-01,2.853526447224823959e-01
-6.212851699326965571e-01,1.955502942925516074e-01
-7.802676565747980186e-01,7.306981902921194649e-01
3.524936199246343493e-01,-1.463837080666974266e-01
3.355316012562740147e-01,-9.200907163871515637e-01
6.473188818086820229e-01,3.139117704650581375e-01
1.716979540267531412e+00,-7.670891746543364587e-01
-3.319802545361980051e-02,5.414801983675534558e-01
-4.270031289335816105e-01,2.677751216808769152e-01
1.101486939623548267e-01,-3.931137881971394910e-01
1.871602632423109702e-01,-3.193285723079140603e-01
7.558118073685335947e-01,8.780631446603797130e-01
2.250755574899732103e-02,-3.392216097931206598e-01
-1.443765301581880767e-01,8.809124399537916483e-01
9.704282088449300847e-01,6.730589807790599011e-01
3.988375018891767709e-01,-2.626157607904008873e-01
-1.200245409313290823e-01,4.982392186647433691e-02
-7.292837867115002926e-01,4.361640023314743431e-01
-3.353181411868128015e-02,-3.230358876491689069e-01
-2.948652042573201015e-01,-8.044378114483385911e-01
1.594698722750155451e+00,-7.556773969795890222e-01
8.293744658334760433e-02,-8.708342062257286020e-01
4.631869633571552014e-01,4.796814168732094208e-02
1.172699137981554340e+00,-3.393466568198662547e-01
1.125396179320428160e-02,3.446796139957509220e-01
-3.076494276327326194e-01,3.774820686650397494e-01
6.443801270247970781e-01,-2.903138718276082053e-01
-6.713532268817843374e-01,-5.795953227905412675e-01
-3.691462572846593293e-01,4.881520322019816671e-01
-5.501686889832764216e-01,3.553429499769065747e-01
8.769901374462033550e-01,-3.533071462504450144e-02
-2.779463960377468457e-01,-5.222995408670749740e-02
4.137883956066399360e-01,6.515903758268096202e-02
3.143142739232923644e-01,-1.157971163499237899e-01
5.611368837718824221e-01,1.293734737804060619e-01
5.171607548931459464e-01,9.588297299064201251e-01
-3.492745458802128944e-01,-3.738179483681565163e-01
1.149792292986965725e+00,-4.407894332128181047e-01
6.252908444981275515e-01,-9.166398592712535764e-01
1.030183882865433609e-01,-2.180713138734868273e-01
1.571526645716653459e+00,-7.668434694321221157e-01
-6.740489428195405031e-02,-4.345034468032194647e-02
-7.539798865394244931e-01,-1.217459426032056341e-01
7.092070848846635522e-01,-7.447329788747267809e-01
1.242222165706509340e+00,-2.713619274626863920e-01
2.296977327751137388e-02,-6.816308674193767292e-01
2.911982522777832941e-02,3.256271224244752238e-01
2.829398870358568185e-01,2.344784245040212323e-01
-3.377012186806745975e-01,-4.291530266852717213e-01
8.640789406587463528e-01,3.332655993376758552e-01
-5.414740372717080641e-02,2.916931746392203983e-02
1.021985805938462111e+00,-5.767080347650226368e-01
4.400446458411635953e-01,2.195245097563449654e-01
-6.385087022760711495e-01,-2.770625946946476126e-01
-5.777696071980119585e-01,4.675958759057643466e-01
3.253725958072459790e-01,-7.396239929857005846e-01
3.722137047231903473e-02,-5.943514550813447928e-01
-7.499918323396459474e-01,7.962711604842498403e-02
7.206257119002696943e-01,-2.694043637145480674e-01
9.322188810246337942e-01,-3.322722789055264081e-01
4.318533302544932950e-02,-5.523352080523844521e-01
-8.638586183789631612e-02,3.370265577846973115e-02
-8.805759378459676601e-02,5.876728863015064919e-01
2.331749651222498054e-01,-3.520646895536016507e-01
4.965056309654214406e-01,8.143361819857539707e-01
8.816062541875361314e-01,8.026356568349484188e-01
5.310790125951503349e-02,-6.474987689703992633e-01
5.005386538512481831e-01,-3.975285355262156983e-01
1.754161749149154348e+00,-8.213739801030081056e-01
1.993148644446226747e+00,-9.509664187937985069e-01
1.530099046013598141e+00,-1.125126646600467017e+00
9.447099237456140219e-01,6.523226852339865101e-01
1.432005987009641768e+00,-1.057340616470042072e+00
3.087065365929462235e-01,-4.115146930960573712e-01
-2.294161155429475518e-01,2.230610943728049689e-01
-5.662161717244753589e-01,-9.208987349528741095e-01
3.671718064456666042e-01,4.520318459376322928e-01
-6.874253024193872630e-01,6.593425093097438072e-02
-4.521736222128713151e-02,-4.101806264234932886e-01
6.124748139682766324e-01,6.849729598763509841e-02
2.053751816441553302e-01,-1.635431903799334508e-01
-1.124437155079596184e-01,-4.635317252513688757e-01
1.624305863489887924e+00,-8.052892022551804141e-01
2.851922385697314155e-01,7.009169351685078375e-01
8.691321871298087753e-01,-1.294519511949373758e+00
-5.356672790405090367e-01,5.593889673598655410e-01
1.252209954801705716e-02,-3.105989409184933270e-01
3.761272685393725057e-01,-9.315314185886518494e-01
2.172304659994901410e-01,-2.415100774320632637e-01
-1.469022345089023296e-01,7.045188775175024176e-01
2.327950301212622919e-01,-4.174810741932654667e-01
7.000558279089660330e-01,-6.205402249350542299e-01
1.574672848682734383e+00,-7.827082075297346897e-01
-3.355663635736467754e-01,-8.644395928659798223e-01
1.951311711525809400e-01,8.630540779502733351e-01
-6.280438364990162947e-01,-7.844864021888968697e-01
-6.149497509874709555e-01,7.712867768888052034e-01
1.007366098430624968e+00,-2.678370581785722848e-01
-1.388705434895762814e-01,-1.760606970599998822e-01
-2.366716141155985609e-01,-5.774697848907589526e-01
-3.045701654148519344e-01,-3.291457964471170561e-01
-2.768837423884975557e-01,6.624495880638537892e-01
8.787099495405246152e-01,-7.398846800673618551e-01
4.905539646004474230e-01,9.338967965558080120e-02
6.156985144650141129e-01,-3.863691724556660434e-01
-1.121314999100403026e-01,6.987182127907558549e-01
-1.156662166157037264e-01,-7.209447729460194410e-01
4.979908015433294755e-01,4.598302382650736875e-01
3.763241862216639699e-01,-8.216361733453539373e-02
-2.515290239081121593e-01,-8.966263853577831622e-01
1.414775817541668701e+00,-6.169936478400608326e-01
-6.595444566561005084e-01,3.592028554884859615e-01
3.121768727113158337e-01,1.843422538241183128e-01
-4.584255488060298145e-01,6.578393262062631752e-01
7.882410257176767354e-01,4.736458918671734297e-01
1.335730992756220648e+00,-8.192720318231281329e-01
4.494786774483897074e-01,-4.824125105877682396e-01
-4.184106675003290698e-02,-2.396666797460743070e-01
1.332312494889398735e+00,-6.868022844711810793e-01
-5.653839187225306873e-01,-1.904733286456263830e-01
-6.095208020122055981e-01,-6.126447447844386440e-01
-3.567160521675550311e-01,-7.837977233054208570e-01
4.795415038851847944e-01,-6.315375048808478109e-01
1.100690941317059135e+00,-6.863406477159562646e-01
6.896128025987755539e-01,3.416723642824967544e-01
3.650273793360174768e-01,8.095622585104974567e-01
1.037219063040371481e+00,-5.426306116662014123e-01
-3.198593915330095183e-01,-3.352161863206550851e-01
3.202222329904391707e-01,6.591443424254572747e-02
-8.008897299105581791e-01,6.683810884096994531e-01
-5.756878310930970688e-01,1.978099275512957000e-01
2.509897645588358150e-01,3.476012063931557816e-01
6.423929870771512007e-01,3.931526727827401313e-01
-5.608177163624854522e-01,2.466758502587600432e-01
9.985791084769508608e-01,1.069842438384025068e-01
2.570191330227535875e-01,-3.857026605583792622e-01
1.138808194363849502e-01,8.981735220238271644e-01
-5.738681578845262754e-01,3.062684399029040327e-01
4.228308671921703066e-02,4.220639668080369278e-01
-4.369679525570981937e-01,8.452937947965483145e-01
-2.241081202825356833e-01,6.644670020469021221e-01
8.461884287118695003e-01,4.541315991577734579e-01
5.729276335026982636e-01,5.561349468601108903e-01
1.983526691801238417e+00,-1.190009918285261481e+00
1.076440611765143024e-01,-4.297486109737176374e-01
6.757339689276609107e-01,-1.494073266249660303e-01
1.531541379606918829e+00,-7.766763772183064019e-01
7.090532516972904986e-01,6.287760592670025295e-01
-6.406982412970529950e-01,9.932919133578224646e-02
1.164850290708967062e+00,-6.499599357172590741e-01
1.116529734699846399e+00,-7.724117268017149929e-01
8.082340769322948759e-01,2.017507815322177600e-01
-2.984385792482380784e-01,4.644879450800875054e-01
-2.407600413626757169e-02,6.530262620208563407e-01
1.122802334624025677e+00,-5.108563790804452331e-01
6.216743968832376677e-01,1.480142943976266445e-01
5.298267081165988213e-01,-3.848554280070232703e-01
-1.292474718861796323e-01,-6.609847511096417216e-03
-1.074309293574481350e-01,-2.875844946776760086e-04
1.069582278398299779e+00,-3.190291116075461009e-01
7.227673953656181816e-01,4.666430820866606516e-03
5.442547147045567746e-01,-2.936894504280309071e-01
-8.084585764592244761e-02,1.476348069474124891e-01
-1.716158464059013289e-01,-1.187569558714300227e-01
4.750531531294422960e-01,-1.217410227526444927e-01
2.294089709791839737e-01,3.421681960408233802e-01
8.620496112432627367e-01,-3.181102861963880923e-01
-5.330625784729707828e-01,1.770246591280878468e-01
2.885478227331076395e-01,4.234599035376624965e-01
4.426322360393740718e-01,-1.575791366456745779e-01
-5.826335031542100307e-01,-6.255460645268678954e-01
7.164038165165234617e-02,-3.814378536399894992e-01
-9.708686693444028570e-01,-4.912653099127148870e-01
3.266724554621774357e-01,-8.251835168646592944e-01
6.179351288447150203e-01,7.949092372212017699e-01
1.121590481097182318e-01,-2.226083850283264165e-01
2.275248986371567472e-01,-8.612774884578693335e-01
9.507501006210145045e-01,-1.949247394137161582e-01
2.249523041347351870e-01,-1.120861557346547466e-02
-1.375744437945435883e-01,-1.793171501428613701e-01
-3.280129006892888999e-01,-4.619099385166003380e-01
-4.922675682191197666e-01,6.253611450917120340e-01
3.777000067580092713e-02,6.789654070629619342e-01
8.404935453597632833e-01,-6.878162685447762881e-01
1.364163724761070062e+00,-5.859730966989047385e-01
4.222285966248252587e-01,-4.581557769573318395e-01
1.049917831739240359e+00,5.286059019129930592e-01
7.115605256695876069e-01,-3.438621952073058763e-01
1.142787481996172971e+00,-5.910773590626388074e-01
2.143133501266545615e-01,-8.308492798140924840e-02
9.632925174320192685e-01,3.665927052308501910e-01
8.072881337869775020e-01,-7.846732958569121452e-01
6.483568338265698339e-01,-6.367677936069912059e-01
-4.223744675099522228e-01,-1.186974628716820912e-01
1.207587463126521821e-01,-5.121904112491088013e-01
-1.405360258782619165e-01,7.309727983464084367e-02
-7.153907588700173514e-01,-8.418030735677752840e-01
1.782812390262791813e-01,-3.692551292867218837e-01
-5.449879563838788687e-01,2.980799221902421525e-01
3.674435028646816370e-01,-6.108737051050736611e-01
-1.741825754796968717e-01,1.204954247464018330e-01
8.436997010083417958e-01,-2.117927428991802641e-01
6.971603708658713483e-01,-1.538935877405815389e-01
8.405593119446769235e-01,-3.539061697057846456e-01
-4.217239031653813308e-01,5.850549957508699439e-01
-3.866417172293945548e-01,-4.025613615458631944e-01
6.371040423943570286e-01,6.776549006713936674e-01
-2.316410249758182882e-01,-1.748025786017648464e-02
8.988651744987027348e-01,-4.772719789283914049e-01
-2.787445879571031071e-01,6.111904134096218799e-01
-5.994303141219102793e-01,1.146510872817498583e-01
5.338227719591673859e-01,-7.102141046465282326e-02
-5.754173087502261197e-01,3.738698756473964879e-01
-7.477622451717129692e-01,-1.356902949561765714e-01
1.041972394203649177e+00,3.602242378259518096e-01
2.062217674742662599e+00,-1.126988139773972275e+00
6.996791883676749535e-01,4.525981267925006102e-01
9.007322853041090926e-01,3.874871539068438508e-01
2.156840893490238109e+00,-1.021962196998607908e+00
1.321967645235428757e+00,-5.194518261465413955e-01
9.182971251061443629e-01,-5.507599931628973655e-01
-3.305425901598575411e-01,1.422562278005051195e-01
6.106560075316687097e-01,-4.495989123527338593e-01
6.103261119937197776e-01,-5.458912264210453724e-01
6.749441307821187896e-01,-8.453633047735028549e-01
-7.089425150944754783e-01,8.642067701251183731e-01
-4.403347881903427741e-01,2.097144558648156853e-01
6.506286322941484679e-01,8.373341078723939290e-01
1.193801507068718681e+00,-6.942721367341523342e-01
7.185385693093246928e-01,1.959873042731041792e-03
-1.967523711194837099e-01,8.758384364721581994e-01
2.020093094139834289e-01,-1.695350088121476417e-01
4.446780224383073965e-01,5.776062264595052675e-03
1.567659655807837060e-01,-4.627795140738476531e-01
-6.899461616481927795e-01,8.199383799872914658e-01
1.793462824436056202e-01,-2.989074141545122743e-01
7.120817225581493881e-01,-4.686240591120328647e-01
-1.138590478456220634e-01,-1.041266664274709264e-02
1.451153517141507976e-01,-2.526609044011784988e-01
5.305233271335166867e-01,5.857154310799072006e-01
6.261788657975272399e-01,-2.702717382180075401e-02
1.072775700707291335e+00,-3.057615029409998519e-01
2.787910445288724892e-01,2.533146129964998217e-01
1.793928437894897476e-01,5.290336978494938336e-01
1.171935846733084124e-01,-4.806061296275498940e-01
-7.828813269272785202e-01,3.912512961596901206e-01
-2.710138845432459309e-01,4.627926539399638273e-01
9.568673122067176129e-01,-5.827521752415669720e-01
1.735862494032622827e-01,6.421742033570667640e-01
-1.012258926919962776e-01,-2.520320362004017656e-01
-2.901510460397985769e-01,-2.956834280267970905e-01
-1.120200350852109672e-01,4.952312445834938792e-02
1.727487170092831592e+00,-6.401814428993465311e-01
-1.331454218207592799e-01,7.542554250951707395e-01
1.180084503792557582e+00,-5.498015756001132237e-01
-6.309666832194767983e-01,-1.030066358141722427e-01
-6.901383587639684514e-01,5.032266980567023928e-02
4.985317180943640847e-01,-5.422806857028490413e-01
-5.756654169221000483e-01,-3.407558761252449386e-02
2.646653942930953657e-02,2.428315135255466051e-01
-3.044003264685057886e-02,4.492921104682883193e-01
-1.877476245930516652e-01,4.304206519974272949e-01
7.877036459922940326e-01,-7.895324098203250207e-01
4.400834374948387473e-01,-7.740799355600430642e-01
8.687535121359847290e-01,2.701464153367288401e-01
8.928065936755879006e-01,-3.019754148017391726e-01
-1.675850186486871340e-01,-1.014498166059371043e+00
6.309251514819533835e-01,1.385703209765700161e-01
-2.963660636321540157e-02,-1.965680903061561569e-01
-3.608660201451849847e-01,9.745956260314665442e-01
2.036087587656123243e-01,-5.515578499828235337e-01
-3.457613001707930955e-01,2.586360824823725757e-01
-8.076573546751267263e-02,-8.431365639546707369e-01
2.505249014020468484e-02,-2.140683562584041189e-01
1.084462561183137996e+00,-1.096557660737426332e+00
-2.996049849209517779e-01,2.536302587379322127e-01
-4.242378171896912242e-01,6.486483793554236321e-01
8.433154535134870233e-01,-9.054662133663630152e-01
4.568433380724521431e-01,-3.362222882832818227e-01
6.320808563548685477e-01,-5.897358476931755522e-01
5.440058197959538600e-01,-3.612495935547213044e-01
-8.222886959062095658e-01,-9.543617521312470764e-01
2.058131700567349398e-01,-6.521391507567748658e-01
1.241482843544614800e+00,-5.627707729641788781e-01
6.044124335286307215e-01,-3.734784620197635352e-01
2.555306299868674302e-01,-3.740424794824279697e-01
7.126958803595131453e-01,-1.236659533860841043e-01
4.336657043374858578e-01,-7.783264536831594471e-01
-5.537705098200103038e-01,6.989439998197015669e-01
4.023110310746454421e-01,1.208753816978775930e-01
-7.125315577646542664e-01,7.340695916350405970e-01
-4.295364932403880065e-01,2.424566945476651636e-01
2.930823062104040422e-01,-1.504929773563272177e-01
3.648676423191303808e-01,-7.327529827163643539e-01
1.265850934708039888e-01,3.125319219423318418e-02
6.365973097197079600e-01,2.094108727309844376e-01
1.696565544084341237e+00,-7.851834479615841245e-01
3.809127672312636603e-01,8.791388575722226539e-01
-9.793271366720246451e-01,-2.672757179908780145e-02
6.323082720153306857e-01,-8.037470968045526409e-02
9.453020991826939223e-01,-3.775384753277388761e-01
4.259256795424248149e-02,-6.518753426988864452e-02
2.929118258112126671e-01,-6.485239611350864797e-01
1.305427635704925038e+00,4.964781649781363493e-02
-7.847031882531734226e-01,4.943575314690378808e-01
9.843546915544757470e-01,-6.545021166623004039e-01
2.771770363846450813e-01,6.507020010242723362e-01
-3.350765373916697043e-01,-7.201927680947880495e-01
-3.862446990738814812e-01,9.718794509050141528e-01
3.056730089004289219e-02,-7.032173231865034291e-01
6.067858570949538066e-01,6.625529452963990762e-01
5.041300120244324168e-01,4.542796506293748093e-01
2.600623266388417676e-01,3.073348776543716188e-01
-4.201612339344782399e-01,-3.937180863455819191e-01
-1.312016954882633257e-01,9.403132540710987808e-01
-1.698220456893389241e-01,-6.980681670223258806e-01
9.401551191588694012e-01,-1.245528795450213666e-01
8.692194152778995875e-01,-3.069738539922473031e-01
3.223435122383664919e-01,-5.557155952836213553e-01
8.773177365173056019e-01,-7.772771518741435903e-01
-8.196201612432019168e-02,4.293662761857698351e-01
1.098289129431542221e+00,-5.379447370145339358e-01
1.329563702709531059e+00,-5.449815522882213159e-01
5.430707359457233041e-01,9.168070192299917487e-01
1.010076424242731669e-01,1.909715267970580471e-02
5.925327182220565536e-01,2.422987234115960842e-01
-4.302185832714375824e-01,8.905606345429932791e-01
-4.517568400254137195e-01,3.803300434938474694e-01
-1.905760376162590752e-01,1.306713916317321367e-01
-7.690893888954120072e-02,7.128022492926673337e-01
-9.257937757598253548e-01,7.660919390076252888e-01
1.925884572042790843e+00,-9.598760554659341304e-01
5.795198502084849060e-03,-4.882172356174216410e-01
1.425682015406704028e-02,-1.434507134474988232e-03
3.941758250322580648e-01,-1.929005429540726901e-01
6.821225155194989877e-03,-1.038655035522455389e-01
2.366097214695016271e-01,-2.623207253640474357e-01
-9.304060140807148827e-01,-8.287069014214738516e-01
2.688763552413628299e-01,8.959002561346246507e-02
7.612409108811784009e-01,3.052547940028880191e-01
9.246186924511066163e-01,9.039617501679193534e-01
-2.372994586831118635e-01,-5.154791034068162414e-01
3.940497837828653704e-01,-1.235520859949159334e-01
7.539700154668653731e-01,-1.712975487818681475e-01
-6.841487512062505161e-01,-8.101711830930198310e-01
1.091824403952395217e+00,-6.168754479282249070e-01
7.865998776304033990e-01,1.575383048192007251e-01
5.656115558171803670e-02,-3.677547482929255374e-01
-5.504141230715977606e-01,-1.971804976050345881e-01
5.114399575840151702e-01,-4.260274512405936020e-01
2.048092824589732075e+00,-1.039419741537597641e+00
-4.218227536790509768e-01,-8.093129371107867787e-01
-2.094560452515198956e-01,-8.761987176758109230e-01
-3.465657780852907099e-01,-5.765440432579375107e-01
6.904626821626846933e-01,-1.013156251207669500e+00
-3.959121359286443820e-01,3.118817913685010268e-01
-4.841899073867150238e-01,7.128830315963760045e-01
-7.023510045958292203e-01,4.510349901921377747e-01
3.152114337183915538e-01,-2.804965874644944623e-01
1.835888474541016446e+00,-7.300874628771418795e-01
-3.158035662949929545e-01,-1.923687791639834554e-01
2.205974215137968542e-01,3.881089540539204852e-01
-7.543807845935731615e-01,7.457556784082111645e-02
8.174267787495878013e-01,-1.832159146338815936e-01
2.934143728548777030e-01,6.953275783145211886e-01
7.889932058348454458e-01,-9.429386528370531373e-02
4.862632615216307408e-01,-9.816883992676689319e-02
7.663245199511167782e-02,-9.688117943334220161e-01
2.238544784044250724e-01,-5.788544597938663494e-02
1.687161522808799941e-01,9.782326028696375353e-02
-6.559870044027307778e-02,6.837374885317186735e-01
9.864714502555663178e-02,-4.864795691375656261e-01
9.327194924173696222e-01,-1.842507013160910034e-01
2.572142947537350288e-01,8.879759913906262181e-01
2.197478447162830584e-01,-5.040250796801375444e-01
-6.899168135732146601e-01,-1.459950620483308203e-01
-9.561599308111362605e-01,1.118576633257241382e-03
-7.578425146662470802e-01,7.879235156670080231e-01
-3.804601109905216827e-01,-3.708462615307248633e-01
-4.057889482923286995e-01,9.855312182384741160e-01
1.508813950579995233e-01,2.871692284377830306e-01
9.420353696613935623e-01,-6.427614368634871900e-01
-1.049345850886230502e-01,-8.351744114360792892e-01
7.539245987790004211e-01,6.056528512285213051e-01
5.664809241431276732e-01,-5.059846795254985263e-01
1.238014262671588206e+00,3.327126636328892051e-02
-3.891999801130527903e-01,2.774701211433794334e-02
1.587735298578302867e+00,-1.245301481111253272e+00
-3.174441010948565456e-01,-1.217055984238184091e-01
8.158279347130739101e-01,-4.022330325791907413e-01
5.991279055646325791e-01,-4.676533623425405128e-01
1.517182141181452892e-01,6.715378599801108406e-01
9.498753493965615968e-01,-7.532161796569963874e-01
2.503634667966374572e-01,1.823829224062600840e-01
7.373012098093020827e-02,9.524329709927581433e-02
-4.346927921716692289e-01,8.539315644164122698e-01
-8.119491663093084122e-02,-8.242936312365711782e-01
6.721253338620800655e-01,1.542977267174857059e-01
7.077877505109492207e-01,2.541573763110365758e-01
1.828959066771545516e-01,-2.968101249089847293e-01
4.968723110452974434e-01,3.251078160749875656e-01
5.768038833590671821e-01,6.721194885793456697e-01
5.375827845832099883e-02,4.219058696610057946e-01
4.590835239998275474e-02,-7.224121918286423583e-01
3.799276579103252338e-01,-4.727649012429291364e-01
8.255402112414913507e-01,-5.913332544681219882e-02
8.547531811402429014e-01,5.204125264723440392e-01
1.565565580786870470e+00,-4.506266450005170787e-01
8.689350434592473249e-01,-3.328805229466909044e-01
3.488177491794330898e-02,8.711279333524277746e-01
8.804842173376709047e-01,3.571294205489375373e-01
2.808757346305946201e-01,-1.685327464984836265e-01
-5.305930670456235898e-01,-7.748078679467862440e-01
1.440416306208851305e+00,-6.339428225376385617e-01
1.094330698163159754e+00,-2.807088836397456100e-01
1.042669094026581617e-01,1.625723685733632407e-01
-6.290939234603478702e-01,7.980848209663240489e-01
6.402213056046911488e-01,8.206188377598022665e-01
-5.141872006672866258e-01,-9.092807369082018809e-01
7.409860473743302700e-01,-2.939541637735971769e-01
-5.879552072289503384e-01,-7.398995337968031216e-02
5.264032224504376911e-01,1.119799894612694968e-01
5.173215956495500478e-01,-6.931127278941646708e-01
1.345932759505444887e-01,1.202587823787067967e-01
8.018545465794112148e-02,1.778482870716344977e-01
4.243256108881496846e-01,-6.588038846266517368e-01
7.318671473337835520e-01,6.554772526576719827e-01
1.345637861081772080e+00,-5.063750854205483209e-01
2.371420521665823511e-02,-7.105263408049289353e-01
1.091957562642680291e+00,-2.016119378100452164e-01
6.399238854439852631e-01,-6.184363281864180273e-01
-1.101381933624339116e-01,9.879097309139150962e-01
-4.322977017794660259e-01,-4.851939644928457973e-01
-6.512648283194240051e-01,1.360791687181603926e-01
2.383877278830108248e-01,-9.716505088243579946e-01
5.554358906132015467e-03,-6.560627979370965424e-01
9.143378947536269230e-01,-6.521416304030949185e-01
1.226210896317055266e+00,-6.437410808813396335e-01
6.966512463067185967e-01,-4.138356356223304999e-01
2.445584954167014102e-02,-1.884972114330263071e-01
-9.169254640639562526e-01,3.752379140414476288e-01
7.341242999309596229e-01,3.773214626223675427e-01
7.099030145178335527e-01,-7.431184949687570374e-01
-1.350822038691210369e-01,7.870641757412835116e-01
5.056353860401758826e-01,8.191782972317573908e-02
-5.459931498380431458e-01,3.807295357732082969e-02
-7.795744903059868003e-01,4.191542101943183107e-01
1.136625489660432198e+00,7.869050255945250205e-01
-6.442281162327548882e-01,6.048111991301882151e-01
2.107218550317516037e+00,-1.022230361975553947e+00
-6.433929055802085628e-01,7.313329200113856121e-01
-3.607843031016146895e-01,-7.516761972007652837e-01
6.599009055616088526e-01,3.913673886479869246e-01
7.302037945689802134e-01,3.897021244228270342e-01
1.368194539442552538e+00,-5.615311871226781326e-01
8.379595476794228226e-01,-5.734011708508975902e-01
1.642558036957894929e+00,-7.277075886115935699e-01
1.179750469445796535e+00,-3.874091997633405393e-01
3.301151413859553241e-01,-5.161258739121382666e-01
2.357332230680783680e-01,6.694677686464484134e-02
-3.600686158406534165e-01,8.047056657194797680e-01
-5.828170864196529077e-01,-9.858711892834168822e-01
7.191970756116914387e-01,-1.242445009130878075e-01
5.994734050007133330e-01,-6.861714655013595454e-01
-4.598900543825220621e-01,9.256296349009088265e-02
5.311849544150205604e-01,-2.564321798010197884e-01
1.176088776521101303e-01,5.485005968697634904e-01
1.953769255733463162e+00,-1.203776916519458284e+00
-5.005351156072334051e-01,-1.727554107707839348e-01
3.791503402208846740e-01,2.496006579644411971e-01
5.900322120161123340e-01,8.942066972184123941e-01
2.300997380876454168e-01,-6.164831045359290274e-01
3.582234023672772327e-01,-5.390159862682419867e-01
2.579431487926164834e-02,7.010159083776374978e-01
7.478653786563626005e-01,-5.452884500495537301e-01
8.901744002903354269e-02,-1.225611118251716258e-01
9.857591320300887472e-02,4.271968702673245577e-01
7.643123022952001966e-01,1.845868792733456054e-01
4.518929916367547817e-01,-2.841146592507737267e-02
-7.713755603251966075e-01,-6.668437702928169397e-01
-9.471358617149759629e-02,1.472547830541131308e-01
1.191868654626810464e+00,-6.718974183037184078e-01
-2.011357389756110170e-01,-4.011774819313240203e-01
-5.512472090632785093e-01,-1.186606194630603905e-01
-3.096864674146868612e-01,-1.155067778234110110e-01
-3.446537360718262555e-01,8.067036137699337139e-01
4.431232208143107698e-01,-7.369673934729128462e-01
-7.238299717556837543e-01,6.986629673931732398e-01
9.277753633569452152e-02,-4.410148733492119111e-01
7.038577798527889673e-01,8.600833741832387691e-01
-1.508549790887157016e-01,4.019213314325391639e-01
-2.828059699322915677e-02,3.447141299793690106e-01
2.585093913924126907e-01,-3.795519455699493672e-01
7.243999779956802887e-02,-8.368118386249419061e-01
1.546864361749631378e+00,-1.209271120456906212e-03
6.503122361471072033e-01,-3.840777502145056310e-01
1.191373430191760008e-01,-3.290675897246896353e-01
2.086148156844011226e+00,-1.135153679108617641e+00
-1.489447686225870982e-01,7.584738690209724687e-01
-2.008350994455072869e-01,-9.563246210210147868e-01
2.012187926346731270e-01,-9.112410020796660182e-02
-6.202568436545750213e-02,7.950686221107174934e-01
1.539467234171305154e+00,-7.432382712285381388e-01
5.295809307663260634e-01,-1.456271935808071682e-01
1.446551981119490460e-01,-1.985443524803588988e-01
1.279954915086183087e+00,-5.694427530201821019e-01
4.859869807114812756e-01,-2.708772475038405680e-01
-2.877382955225600281e-01,2.528409998959643690e-01
-5.215830938185276322e-01,-2.432934358353333881e-01
1.424645819320120355e+00,-6.645815402785213433e-01
-8.989443327338524359e-01,5.533066384292126827e-01
8.312130758875475589e-01,1.459541175817049563e-01
5.747905904388294490e-03,3.139340606419607771e-01
1.241268963516801854e-01,1.779726304767068751e-02
1.548374992867168620e-03,1.537381503345903455e-01
-8.699793496672318938e-01,6.776094848170841622e-01
3.225356284902721749e-01,-1.230792420818749844e-01
4.819671334928108952e-01,-4.400200626041160246e-01
1.267495341430333045e-01,-4.628372092642282221e-01
6.043248508718215284e-01,-9.891375368500640586e-02
1.815328552626478409e-01,-7.464516517989638889e-01
7.263518394500153574e-01,-7.089204282440492166e-01
5.078314420083429592e-01,8.144594521394904474e-03
8.369596532952232604e-01,5.069715017542504309e-01
2.733631855597948856e-01,3.112903941410904984e-01
-2.960588835708187205e-01,7.940445051310813795e-01
-4.338116470691199406e-02,-8.069212061376629386e-01
1.204300018541985540e-01,7.770776846105982294e-01
2.635364081839711159e-01,2.861010476936876046e-02
1.180041686904571563e+00,-5.751344489780096936e-01
7.379901619768713950e-01,8.739312288866663003e-01
4.567996710771394797e-01,1.504415161426281289e-01
-5.511355104223958357e-01,8.526239838804381410e-01
9.724127081819211593e-01,-1.784514138185930299e-02
4.221699244222398839e-01,-2.638802291098274466e-01
9.685767436073282610e-01,-1.953444948726633934e-01
8.503867691263826689e-01,6.368011205206292047e-02
-7.083129925220512657e-01,3.146438628152641304e-01
9.578592766715730011e-01,2.968014085960667958e-01
1.839900275607914804e+00,-9.476372047210838145e-01
8.807994746502395556e-01,-7.316261664718021196e-02
-7.553325162301294249e-01,1.720493975518122554e-02
-7.633106745259728987e-01,-3.860083277686492398e-01
1.709958389706399129e-01,-8.338691008409067074e-01
-8.174453301761175350e-01,-8.772476513413549615e-01
2.844051046711576491e-01,-1.259224473471301509e-01
-5.731080014501307440e-01,2.985108207171998096e-01
-7.667869126721063022e-01,-1.831038886986042780e-01
4.436645258045959772e-01,4.011591025836906688e-02
5.063460727433345410e-01,3.478707213678265409e-01
6.996292207421233034e-01,-6.186180453810122826e-01
-7.849261374801539404e-01,-5.345295607401283622e-01
5.997334600479792277e-02,5.585850199896998936e-01
-7.413048032940573739e-02,7.090996880437134831e-01
1.292249688878138070e+00,-4.954202488094778256e-01
1.089872209010053883e+00,-2.038899334719874168e-01
2.135008464596980238e-01,1.275644425541222655e-02
-8.497837122134405119e-01,9.661404086993979901e-01
5.063159373943137975e-01,2.210674214246964864e-01
4.316199734750579275e-01,-7.101885911776737448e-01
6.193358885719590923e-01,-5.912449850231333848e-01
-4.875696401310829486e-01,-7.385935927573167303e-01
1.148197882508723122e+00,-6.594559536078314910e-01
6.917371025178303823e-01,2.979485076445329006e-01
5.149603496938586211e-01,-5.187966779484969038e-02
4.786855019236543329e-01,7.974209038582420472e-01
2.666798957165345541e-01,-7.367190723436343180e-01
-1.077728874177702745e-01,-1.691616062036440660e-01
8.314821197213108084e-01,9.707658189893059175e-02
5.653210788521207952e-01,-2.311362008179429495e-02
1.304022234170376660e+00,-5.802969302171505639e-01
-5.605156631915324539e-01,1.062633674964728880e-01
5.294103240398574384e-01,7.230566222962396816e-01
1.684779817850198258e-01,9.058048582750899413e-01
5.002845381558143067e-01,-7.626666013855160076e-01
1.393248095232357819e-02,-1.265156095568236161e-01
8.735284882760595560e-01,-1.290939626236800475e+00
7.943293823657541219e-01,7.961266028882484358e-01
9.581195762147693973e-01,-6.267087157646916706e-01
-6.901727050984574063e-01,-4.206115405594001988e-01
7.632151627453848119e-01,-2.626608204884621767e-01
-3.460306224259942498e-01,2.492198714668025436e-02
1.578159905232918048e+00,-8.053523341008168579e-01
3.153947961024080038e-01,1.623355620248408404e-01
3.828773790242498420e-02,-1.795573128886086001e-01
6.281992800396862808e-01,-8.834465284078860670e-01
2.048138588948559047e+00,-7.775740219036915146e-01
-4.057678896792652479e-01,4.039366098613039746e-01
1.858821485936588136e-01,5.982668283476588744e-01
4.570348848167790634e-01,8.105238650510295795e-01
-6.688505376527000834e-01,-3.002401059027031138e-01
4.322423508175342599e-01,6.782368336946644760e-01
1.795134957457800162e-01,4.355077382947232234e-01
6.074666484370890851e-01,5.244534488648415760e-01
-8.966027864493665289e-01,8.801632705401031265e-01
-6.614624038435119591e-01,5.938291598418061756e-01
-8.274818822179526023e-01,-1.018056372900938283e-01
3.020890919517789097e-01,-3.550071061208452949e-01
-8.166823049136429091e-01,-8.717246690376723173e-02
-3.885012951094031219e-01,-5.821416277119233484e-01
-4.943263282708181827e-01,-4.014153560497124573e-01
1.173849041599689613e+00,-9.545859514937378165e-01
1.664745736336075366e+00,-5.386278243502933272e-01
-4.086278495983977077e-01,-3.257728947832511102e-02
-3.414020440424655467e-01,-4.944841446562286968e-02
-8.043182702549229735e-01,6.276650947182418339e-01
5.379086746552601550e-01,2.611569345464894165e-01
-3.625710239656677186e-03,-9.729411298679986608e-02
1.143517230194965872e+00,-6.576746057261176892e-01
6.020656257827240454e-01,-3.105274314570791866e-02
-6.514648530333901899e-01,3.847440591261570564e-01
5.937868796630981771e-01,-8.854357537780894738e-01
-1.954096472540303442e-01,1.035691687573898900e-01
6.377580626884775672e-01,-4.731780678330623213e-01
5.414533334816817867e-01,-4.263816748636293230e-01
3.368810700582534623e-01,8.974371748133060100e-02
1.319157166372893153e+00,-6.047074349832920470e-01
4.090049819122015817e-01,-3.652960796760492679e-01
1.789792771669098892e+00,-2.726162809021281941e-02
-2.902106791524334262e-01,3.299586707807273811e-01
5.947537828831184203e-01,1.081676169458243852e-01
-7.432572765304613638e-01,4.641086021749452617e-01
-6.815283378089745936e-01,-8.907207409036848045e-01
-1.548858973668310046e-01,-3.106503425830249299e-01
6.487928086875952571e-01,-4.808775034130145509e-01
-5.799321795950586056e-01,-8.240174526323429394e-01
-7.018743477188256197e-01,-1.461590850215730708e-01
5.658427882874169645e-01,3.138569607428743358e-01
4.538577222797413047e-01,2.717051968060157918e-01
-1.288859205644062311e-01,-7.620633073704555782e-01
-1.528915602689499831e-01,1.435292697408559193e-01
-1.060395778863804928e-01,-2.868733467556418559e-01
1.781384120729032627e-01,6.241161453369654666e-01
1.312819102964801976e+00,-7.040226988017400656e-01
6.138355970126821437e-02,-2.465235730160368899e-01
1.131052222618148251e-01,-2.320469456430774430e-02
-6.363534306431506415e-02,-8.313834026000282984e-01
-7.499583558337130640e-03,2.799814169498285876e-01
1.170482586818178072e+00,-5.127344354309997243e-01
-3.057160275409240846e-01,2.100349903734910484e-01
1.155699093537052358e+00,-4.963950048020104311e-01
6.228264763343549504e-02,-4.646786918196532667e-01
9.658322707694271259e-01,-5.373426749764449450e-01
6.998136701610548904e-01,5.401015797011001762e-01
-8.772543934473170379e-01,4.494486023059260024e-03
-4.869725321582663580e-01,-9.884251018203071837e-02
-5.262095713574190814e-01,7.522054399056985474e-01
-6.067742881344483363e-01,-3.714351360887611642e-01
5.170724246372923050e-01,1.588973479642605269e-01
1.295444049049485180e+00,-6.491363641330293310e-01
1.024245317510848796e+00,4.412708235224510611e-02
-1.355727661911010351e-01,-8.993044493190240907e-01
2.382448837966311128e+00,-7.270179725358973943e-01
1.391779937838336867e+00,3.405237256048598837e-02
7.874257209251083189e-01,-3.656868024089828251e-01
6.834094416077313161e-01,-2.659515240391300273e-01
2.132388729812727257e-01,-3.028180881088341492e-01
4.567841500646057651e-01,-4.602729299014498565e-01
9.595516893141767811e-01,-5.570418912852641569e-01
-3.452439813745141750e-01,1.120474953424458880e-01
4.160927875995260594e-01,-2.972191236701908490e-02
1.284224378807526490e+00,-4.804317281813390017e-01
1.479085956612586905e-01,2.996210432355280937e-02
-5.667494580758943856e-01,1.671675344334512536e-01
-4.056361266274221000e-01,2.490293087888678300e-02
2.045421607937927266e-01,-2.944899199322115191e-01
1.182572384184184200e+00,-2.588362651494752198e-02
7.262414991142582266e-02,-2.959738788229550055e-01
1.932237775667728696e+00,-7.667325174242317631e-01
1.920973867648430311e-01,-7.315004504650226558e-01
7.692386232742012275e-01,5.736860894536705002e-01
-4.108870059271814146e-01,-3.542124115948005469e-01
1.308130005818655128e-01,-7.229268918255691290e-01
1.262484996743507004e-01,3.624459130687234243e-01
-3.901883937149306369e-01,6.071753237370589584e-01
1.719437568048696741e-01,8.434176130103071545e-01
6.853441043083043915e-01,-3.046797661219352582e-01
1.696556540088189902e-02,1.503420541568396274e-01
1.906255169245436143e+00,-9.904531524840570755e-01
8.619482520848635865e-01,-5.327604525086719889e-01
3.918448241542016319e-02,7.149405837812798925e-01
1.332424451439712332e+00,-4.628510855409527780e-01
-1.775447113141833677e-01,4.270607025673225365e-01
5.985512448036984789e-01,3.124481680492541269e-01
-1.918988141102897504e-01,2.695215210547597384e-01
8.589838398429416877e-01,-8.094557109660149852e-01
8.843845453084959729e-01,5.056994424136277422e-01
5.805442760048885598e-01,-1.888157869669986333e-01
3.462039208666753964e-01,4.424028041669900158e-01
3.998905437636578464e-01,-5.082099596585221146e-01
2.286528318954091699e+00,-1.187279978654133039e+00
3.253012675690691857e-02,4.258829416911544818e-01
5.124285211821030805e-02,2.481433732836219597e-01
-2.381584988384717883e-01,4.533751750605398700e-01
1.675791468825541752e+00,-5.356055593550579363e-01
5.042987601995781999e-01,5.547020279786291086e-01
2.205399280148559349e+00,-8.116146094630309893e-01
1.988691442705920187e-01,-4.642706789899554709e-02
9.038011857575101171e-01,-6.569161869522026631e-01
6.920751318127218443e-01,-1.895279840183816122e-01
1.779238437763258907e-01,-9.685240623764910239e-01
1.486888320717848710e+00,-6.468246991554061909e-01
7.695833521824665402e-01,-6.236253048486852801e-01
1.861706044746638256e-01,-3.849800310849142981e-01
1.650213729911677307e-01,6.031710345219531977e-01
-5.836739715257872607e-01,9.400196535354130578e-01
-7.750533563961448102e-01,8.014833281821964750e-01
3.604228767652528642e-01,-4.017773534839383931e-01
-9.393197569588823681e-01,3.440288183115890464e-01
3.106149083647016251e-01,-2.780496730194384480e-01
5.368657795760181095e-01,-7.100963376114978187e-01
-2.734444928215047366e-01,-8.737383757451845367e-01
-2.590939215610266189e-01,-7.089870429993281320e-01
1.190188773329911243e+00,-6.169573407301810475e-01
5.604213669615668580e-01,-6.354459592679409519e-02
-8.317012001589141335e-01,-3.934981735891561749e-01
3.812920860898012521e-01,9.002985576115372091e-01
3.093081187799902598e-01,6.274728969349658847e-01
5.607282434029374762e-01,-4.375657415818903773e-01
3.035140589533802391e-01,-5.336130478296756685e-01
-8.667715700504654563e-01,8.654439967100004960e-01
1.767009630104766915e-01,-4.896326977308115280e-01
-2.806745645621260832e-01,7.746596598479752460e-01
8.961971495952610889e-01,-4.975626215516348871e-01
7.811250310541920649e-01,3.282706949661087226e-01
5.908226704718763100e-01,-3.048991186844893786e-01
1.021196110605052443e+00,-5.563283264774886439e-01
6.218264451688252370e-01,2.453256049771299629e-01
-6.577379534252881799e-01,4.521961068328135269e-01
-7.256721035353647098e-01,2.612998247351419612e-01
-3.060675702545676002e-01,5.902231429381447070e-01
9.310953202749066016e-01,-8.114374953462344386e-02
-2.451806319979467352e-01,1.969769682528406118e-01
3.229910266875936353e-02,-4.347139853480186944e-01
3.384247158998447969e-01,6.926828611443076600e-01
6.754981089399872962e-01,-3.101587592134240623e-01
6.357612045241922694e-01,6.663442205572160937e-01
1.781746325873030667e-01,-1.029937097115548178e-01
-6.640574553380704792e-01,6.948276026012208950e-01
7.962359770527642766e-01,2.402104476796115273e-01
8.032437920834141210e-01,-6.632169922982569243e-01
8.354692311732836441e-01,-8.686168078664526782e-01
2.125786934558885566e+00,-1.252201131181467586e+00
5.103845015344570246e-01,-6.376738097996192955e-01
1.112484018740508729e+00,-5.007147489061006818e-01
1.841300365527481775e-02,-2.741926932765168488e-03
2.785496129438196078e-02,3.177687565582780760e-01
-5.887745118972895764e-01,1.611238515580593611e-01
-1.429781611171399708e-02,3.469747125927161169e-01
1.128697511028124767e+00,-8.567730568151633586e-01
8.178076064875268170e-01,5.063388016313208340e-01
-3.711536173750631384e-01,-2.212438430504546361e-01
2.501273362595546335e-01,-5.606456649786126789e-01
1.214228621121276941e+00,-1.121768009649134923e+00
-1.471568232640246832e-02,8.150582941498383249e-01
1.261446571231085390e+00,-5.510537217230015994e-01
8.898511488848226403e-01,-5.992079434690993356e-01
9.592250160905252399e-01,-6.376922547508354633e-01
3.590729930130285297e-01,4.447587986244938563e-02
6.304366609397125121e-01,6.675748850920542043e-01
7.959494844643604239e-01,9.359955054692181697e-02
3.789448479741344689e-01,3.312199055288991278e-01
-1.450575680396727907e-01,1.402095915158063089e-01
-5.984955835019626358e-01,1.692025984083956880e-01
1.025759739010417393e+00,-6.265085072553300272e-01
-4.051152801814834059e-01,2.647027075190379053e-01
-1.481676732512693107e-01,3.646890231989787234e-01
-9.168316669684115072e-02,-4.809435537248414327e-01
7.602561554290554469e-01,-2.872327869106028331e-02
-3.143650011838939329e-01,2.365761239020196249e-01
7.725599862883072433e-01,2.593158936499588285e-01
-3.282306388085410864e-01,8.898522571697087269e-01
2.372925272078267311e-01,-1.138168096576374910e-01
-1.772339233958352966e-01,7.975046621573850247e-01
1.220078728976956128e+00,-6.956915014240165895e-01
7.372891621538112394e-01,9.302363411193492748e-01
-3.403825907727647815e-02,-1.345965435353957962e-01
6.515594629151086892e-01,-1.733791615118885632e-01
3.943648586768476183e-01,2.069585486334280522e-01
7.002911007799919041e-01,5.576652712555643099e-01
-9.239934417937970546e-01,9.559642527501780451e-01
-1.735541113712686379e-01,7.519700421690074243e-01
-8.413765725765955938e-01,-6.802099173635118845e-01
2.744779396273299144e-01,-6.634369279804980257e-01
5.101868573264440876e-01,-8.015787400457949907e-01
1.246574951972200695e+00,-4.859436417237501527e-01
8.732280974644965887e-01,-4.984706769873148424e-02
-8.657022947938797230e-02,-6.265308043142379102e-01
9.232115146827049035e-01,9.082698792854655423e-01
-6.686818038381660279e-02,2.463342801520426451e-01
-4.802584086598951640e-01,-5.820994511900070556e-01
8.398080530055620496e-01,-3.636554926911921282e-01
-9.293792308688881842e-01,8.933770659368802658e-01
1.366886242128326212e-02,1.030292329256324718e-01
8.462252625199685463e-01,-2.921322920703622317e-01
1.177368884618544387e+00,-5.216684164480637209e-01
8.808231007426707837e-01,7.488637131271174141e-01
-1.564122872947997234e-01,3.911441625932106092e-01
6.009135630187214527e-01,4.283098918370080721e-01
5.992136888692733976e-01,-2.812375341735828815e-01
1.812709414157587240e-01,-6.634603171908697306e-01
9.800796928626908100e-01,-5.380273903103311994e-01
5.480353995904645448e-01,-2.098099705433385254e-01
-6.732210022648430492e-01,-3.621699011697632198e-01
3.151576703702459181e-02,-2.100847454092387157e-01
1.389131415351629650e+00,-5.772423773681989445e-01
-4.215634765776964388e-01,-7.956470422563126643e-01
1.195347849314877392e-01,-6.242933156581987886e-01
1.051298207062285162e+00,-4.071550719439928634e-01
7.197549328519374789e-01,-7.476246219995772435e-01
1.510376301177819514e+00,-6.213507004399204670e-01
-4.334890077088711657e-01,-4.752378592239706045e-01
-3.367002470359864996e-01,7.964158712418008268e-02
2.973591886154689501e-01,-3.930685503168444006e-01
1.276499092932705137e+00,-4.121628775067125994e-01
5.386147813100194970e-01,-8.518630185901550078e-01
-1.626670316031533225e-01,-1.459962137465962151e-01
8.215330235101658829e-02,3.562818525372306588e-01
7.963137271202833656e-01,5.727050829148891409e-02
-5.844660789739009044e-01,-8.666936926731377833e-01
4.257029181369225146e-01,-3.960071161752818369e-01
-5.485744230597907611e-01,-8.788125186004760447e-01
5.017894125508446379e-01,-6.937186527590347707e-01
-5.075934214845676529e-01,-3.856460076012757643e-01
-4.353155851987841052e-01,-1.916505702387419074e-01
8.772975782332226302e-01,-6.567207483199072326e-01
1.854088358216504639e+00,-9.671455452885365789e-01
9.546613615906116568e-01,-7.798826074497096084e-01
-2.997597658433650003e-01,1.551968140446507161e-01
-6.882788172319101450e-02,1.311449005728144990e-02
-1.893070207356384316e-01,6.632882763990963770e-01
4.738229505216683402e-01,-8.826908797424078967e-01
1.467278323960343966e+00,-7.253643910895810620e-01
1.527145826230518755e-01,-4.817955066732185765e-01
-3.909413788329081374e-01,3.213261347622640152e-01
3.978906960195782716e-01,-6.634027431053306501e-01
5.280041893094458011e-02,-3.855795828467344921e-01
4.628561690635706882e-01,-4.473602678888977113e-02
6.945443849429017158e-01,6.738265509736657277e-01
-8.031335985885974527e-01,4.433988063060385898e-02
-6.604319592577009290e-01,6.068972871570281480e-02
-1.859170741316056585e-01,2.264426457483196542e-01
2.911586727096328597e-01,-4.632337212089374656e-01
1.263054258907168048e+00,-5.775173720351470807e-01
3.717267080154103009e-01,-2.716071871504317503e-01
1.471483873208718762e-01,-6.962446590334134822e-01
-8.229240540504600965e-01,-1.776969480536386148e-01
1.425450093178725730e+00,-6.797975709193343485e-01
1.151349926646773714e+00,-1.258846001297320716e-01
3.944039626780466712e-01,-2.013050671064096075e-01
6.065061530661457478e-01,4.256303580081890470e-01
1.198915857078893366e+00,-5.212660128394267511e-01
4.150425217644273523e-01,1.849801839658129499e-01
-3.541097395779962409e-01,3.376458370280458476e-01
-4.965103050170376342e-01,-4.346628893364473112e-01
3.281962045967905528e-01,-3.859886003222020578e-01
1.233191941095779232e+00,-5.788822777206554804e-01
8.620592637940183156e-01,-7.207207218856476194e-01
9.939064799552892460e-01,1.796713855928240289e-01
-7.749265658783981436e-01,2.295309387808750490e-01
5.653925283364735765e-01,6.458249625198969612e-01
5.768751546248226392e-01,3.048637339169257832e-01
7.178155913471786498e-01,-6.208831442030320336e-01
1.507921831023708581e-01,1.360945105757702112e-01
-8.538562286821421710e-01,-1.983175018300362413e-01
1.078987616344705691e-01,-4.814887919560940088e-01
-6.382575670758144915e-02,3.862589626630288375e-01
-6.168397410825883220e-01,4.046394549762191151e-01
1.212089231492201602e+00,-4.824005635246454426e-01
-6.056582077989273172e-01,2.207732009467468226e-01
1.694208333750241158e+00,-7.582869893890401558e-01
3.166123006081411617e-02,-9.706693174707954341e-01
9.813687307565333029e-01,-5.125954754043485773e-01
7.728331472734141228e-01,2.229916842171490998e-01
1.010174487189585468e+00,-1.053893379177314737e-01
-5.282517429962934052e-01,4.012853398086058121e-01
-1.792115243530503776e-01,3.358944113121943298e-01
-2.002178286530064133e-01,1.138503556157080404e-01
-8.905447984900857761e-02,7.062076535629344294e-03
-3.323848556903536422e-01,-1.323296015655933966e-01
-1.233874746486973706e-01,1.694063020471510139e-01
-3.475977156693836334e-01,-9.046600280319837539e-01
8.556501545597452463e-01,-1.274706571800190424e-01
-2.990720777799872332e-01,-3.922539931965814963e-01
-2.434773366664400029e-02,-8.734789339384834150e-01
-5.158667761170439015e-01,-7.234792957053429729e-01
8.506730586436672681e-01,-8.937757246261915922e-01
6.537946272122878433e-02,-3.305604725344594708e-01
5.034467874190611258e-01,-4.565169706509574210e-01
-4.033309284381040305e-01,5.927806469341969642e-01
4.675570465697824751e-01,-7.580845679415667560e-01
1.140420254290394064e+00,-4.782588654702186193e-01
-4.585837092734018627e-02,7.962705519338700855e-01
-2.430855202557650196e-01,-4.520312670777013042e-02
-9.880512989228851239e-01,-4.324370393978838045e-02
1.053358212962945406e-01,-4.581397375288231988e-01
1.140931385245409935e+00,-5.137404584441520594e-01
3.672498187664239300e-01,-8.842764621825454086e-01
9.887975217624059288e-02,3.467432301767870428e-01
1.485648130811411560e+00,-6.870001932367303388e-01
3.350734288679638739e-01,2.249518607523503799e-01
5.531974861488678785e-01,-9.042905726159029545e-01
-8.761533555777363258e-01,2.427803246716784269e-01
-3.339933079982976283e-01,4.421659450001366731e-01
-5.389962686701149641e-01,3.201325008766483515e-01
9.238998357371844272e-02,4.568085310177900649e-01
7.574211918625363138e-01,6.335284446303900419e-01
1.639290385497206071e+00,-3.478768988742313439e-01
2.281287907437530849e-01,-5.503121211722865613e-01
7.800178384159173195e-01,-3.931595332801083309e-01
4.191222685331302822e-01,-6.991093159094173837e-01
1.567327079113355559e+00,-6.518484903841796907e-01
8.469872236991040637e-01,3.631827260571520721e-01
7.546820870819420657e-01,3.797924999824339176e-01
-4.399843136211622485e-01,6.331831372178915451e-01
1.552074973091145838e+00,-7.940475805031398382e-01
1.199746898006463169e+00,-6.661470892805291255e-01
-8.350236292478639688e-02,-6.464334677753642566e-01
8.699790438925184555e-01,7.124075183867134564e-02
-1.123350575283957320e-02,2.806860812297188312e-01
-9.069485629740645649e-01,9.789808893903770848e-01
-2.137500745186084739e-01,8.099718037096174938e-02
1.008375638192038348e+00,-4.270064814799858777e-01
1.176579113328668935e+00,-8.545434176783479607e-01
-1.918627299815658382e-01,5.098337157822692145e-01
4.465425873673642965e-01,-4.816118186476458507e-01
5.560084315122004045e-02,-3.297298378416478326e-01
1.194911732936738025e+00,-5.674257881162438899e-01
8.086653703157680173e-01,-2.519301150279864565e-01
1.033541961382537622e+00,-7.092529138540929479e-01
6.142308127002982232e-01,-1.609108404025264005e-01
5.881190014401000976e-01,1.671005659757985318e-01
-8.614704634798020511e-01,7.554144253132217823e-01
-6.613258690765704273e-01,-2.360864029684051069e-01
-7.218208624634252502e-01,-5.132583780087420777e-01
1.007858567827212976e-01,-6.793497100133480404e-02
3.597620796260432297e-01,6.380520234268848290e-01
-1.646960790763158933e-01,-7.604336556194675190e-01
-6.031863573126837741e-01,-6.676874196133167905e-01
1.525488202538464844e+00,-9.077304989279905145e-01
-3.373165136636827599e-01,-1.257285727537134357e-01
1.167874418573885853e+00,-6.077822765857476828e-01
-4.890611781725108798e-01,-2.786720625911711102e-01
8.716925837438174174e-01,8.927816080290140732e-01
7.163780007958086005e-01,-5.579159295492321924e-01
9.242873422710840003e-01,-7.338592412516212748e-01
9.970298142158632304e-01,-5.562275574629202968e-01
3.415492577922473738e-01,2.157611588298856409e-01
-2.944989100248320835e-01,-1.429878971437221757e-01
1.208679801707965407e+00,-3.174553753414214863e-01
6.344889323197117070e-01,-2.157620454645737262e-01
-3.551432033790109521e-01,-5.584407672811431134e-02
7.292030509422843254e-01,-5.304836685830626175e-01
9.842440025655998515e-01,2.857019590124433919e-02
2.516348869697004886e-01,-6.383000608083289062e-01
4.956959837309654060e-01,-5.044964778670116834e-01
8.882728842119227419e-01,-2.761230300391673831e-01
7.287668563572408109e-01,4.061161356472032247e-01
9.532560682329358492e-01,-4.668623423794703298e-01
3.827336338960751205e-01,-7.292447769576164418e-02
4.302148821032025783e-01,-1.470074083395950248e-01
7.561832817828787467e-01,-3.935962660633191001e-01
3.856221563974448485e-01,2.762307117240870302e-01
7.156770822540045041e-01,8.773532753837454123e-01
-2.784704959113939449e-01,8.781518360014738400e-01
1.172864113612319459e+00,1.635630346100025445e-02
-5.675229703761012212e-01,-1.471740219710521158e-01
3.513439594170769675e-01,-3.520389358516820555e-01
2.199974757344539955e-01,-1.857095128666190753e-01
2.411557556810433323e-01,-5.776376634018908218e-01
1.115527892994596509e-01,2.734324807486967490e-01
2.769935714520814218e-01,2.934728487154543153e-01
1.867073331114546209e+00,-1.027520113886293274e+00
9.633837320956879502e-01,4.767453615158202818e-02
-8.698233768520355902e-01,-6.892593141308958060e-01
-8.259812617288568859e-01,8.184265420149665626e-01
7.642216107218069432e-01,5.230608861919885388e-01
1.318334625213353872e+00,-6.412367407953237786e-01
6.657969739006970311e-01,-9.081551330967288505e-02
-7.891874106856033855e-02,8.086368430840586985e-01
4.667373813043460551e-01,-6.457995090376349445e-01
-2.136829022992021709e-01,-7.948003988795717678e-01
8.077175491664487783e-01,-2.521456922356632435e-02
-5.784274570287469691e-02,-2.141105292827158169e-01
-1.698370807823537665e-01,-1.005089669310045952e+00
4.805601257602293286e-01,-4.934129044038497169e-01
3.062656760336577300e-01,-4.571535977803866668e-01
-1.262113309980206488e-01,-3.734493553913508651e-02
-3.906625637768171289e-01,-7.626132287240233731e-01
3.918847122302617780e-01,-1.076894251696225435e-01
1.377826216063458009e+00,-1.031938319355783840e+00
-9.359237235925281784e-01,3.648772648108111749e-01
2.485776993678596725e-01,2.911597360383711974e-01
3.005194459657833383e-01,9.369371652622104918e-02
-9.692722702223550701e-01,-4.734485209311434586e-03
7.839904959522854266e-01,-3.915574877535112353e-01
-6.888439105162680320e-03,-1.959363161638387751e-01
-6.832390941346190294e-01,2.325572198887192465e-01
-7.760969768249741385e-01,2.988765028146576075e-01
2.427531021361048202e-01,-1.879377813379218554e-01
1.377664422881791584e+00,-8.559341614305130408e-01
6.429791919342519035e-01,-4.075054086051535518e-01
1.379551159945482164e+00,-5.021470390467546174e-01
3.329561824221181077e-01,4.572200957630860318e-01
8.948453217137651849e-01,-1.727035389341963489e-01
8.290040416412809421e-01,4.124815420656108844e-01
9.047671028267853521e-02,4.923895430142698482e-01
8.298728054391740772e-02,-4.487825866253854490e-01
-1.633432899234055491e-01,-6.347789450054268645e-01
6.931041841738682097e-01,7.821467559378496304e-02
2.856186390427917221e-01,8.724356601818212820e-01
1.357021156872958878e+00,-9.569171519572915452e-01
1.528488250157435280e+00,-7.169856837575925290e-01
2.264956745967584839e-01,2.889848967192658602e-01
-8.308634547101953483e-02,-2.870262838437380726e-01
6.903360596171765895e-01,-5.134984862318631160e-01
1.725545266516977927e+00,-8.095442094209145401e-01
1.370030301931380201e+00,-5.587754940880297339e-01
-6.128866647581268090e-01,4.535178766982947973e-01
6.454612192085626976e-01,2.087171541880130654e-01
-7.070330264508826179e-01,-4.632583944242270602e-01
1.542809231066199382e+00,-7.373362129394214204e-01
1.129371686411442033e+00,-6.555968954872050114e-01
2.907084677231337455e-01,-5.744508155023495544e-01
9.063216739264012833e-01,-6.948435248392419439e-01
1.631731427934357825e-01,3.378100567219005645e-01
1.126097647386416906e-01,-9.124241261928518476e-01
7.711921849495928516e-01,-9.217287188745919568e-01
-3.493485069011348365e-01,4.029859944176161779e-01
6.607604749707964020e-02,-1.379381133576658702e-01
5.818283020956138696e-01,-3.640710311740044669e-01
-4.971574144753656554e-01,-6.892132303094985479e-01
-6.700297489792407524e-02,-1.237314792399348135e-01
-5.944221390320572063e-01,-8.026581523091622650e-01
1.741184603216973770e+00,-7.578935006322093937e-01
6.416673328369366658e-01,4.101065137487343026e-01
1.412682665014730832e+00,-6.983018724197238569e-01
-5.146563924895024567e-01,6.791987028610381172e-01
5.959589358894210598e-01,2.213993473199348666e-02
2.261960672510510140e-01,5.365419123992989370e-01
9.965480262355075336e-01,4.796101574198898820e-01
-2.449581309680079477e-02,-5.746369862467705092e-01
-3.659767410290559742e-03,-4.640301626987889394e-01
-4.120793021824664670e-02,-9.227637146434100046e-01
4.128597207524394019e-02,-7.228513455062508530e-01
-3.418841247979319264e-02,3.405091978500465189e-01
9.143126779516228542e-01,1.412124610236044076e-01
-4.630685520414261624e-01,-3.549591390227675447e-01
8.636642211153793269e-01,5.542041237286274846e-01
-8.099792288173146559e-03,8.493463524300164380e-01
8.959498791596786083e-01,3.870395966661332454e-01
2.589837081752041636e-01,1.632522976641146706e-01
1.699105123691616814e+00,-8.025756278916073017e-01
1.767425933408641736e-01,-3.716220104288108228e-01
-4.916508455606203865e-01,5.238171317351775214e-01
-2.826980990750754263e-01,-3.037346305539260216e-01
3.599122806489432058e-01,-6.688536201988265484e-01
-6.101650911196592197e-01,1.126523175435935886e-01
-2.259008366679137181e-01,-4.843041499491988477e-01
1.637860343640340499e-01,2.957680279112644417e-01
1.216146075440555085e-01,-5.493034773222643663e-02
2.663528965545688409e-01,-9.075023263145771957e-02
6.229891215955858375e-01,-4.333249928162721809e-01
6.119692674616046268e-01,-4.377896100431448168e-01
-4.065826029056673341e-01,-2.059964901565313200e-01
-9.705157137606809092e-01,-5.224766773714583090e-01
2.535668663206226414e-01,-9.801987898848862901e-01
1.291499804801622409e+00,-6.709555717760075089e-01
9.014561534222849115e-01,-5.237866004562495847e-01
3.543419350208755758e-01,4.024038017797257338e-01
6.415229706890590577e-01,-2.394375323820302492e-02
-9.466291729865123905e-01,7.622717534829057673e-01
5.056708705125302350e-01,3.774521562650279272e-01
-1.575703020232079865e-01,2.599841014232151526e-01
3.418842579307857510e-01,-3.916087746405106929e-01
7.958327733025649664e-01,1.190367562688370295e-01
1.585867733789129375e+00,-8.742530295926012052e-01
5.260305549579626927e-01,1.827525784771111272e-01
5.950137282874821132e-01,1.496924859921490158e-01
1.211791614948831253e+00,-1.329086401299585551e+00
-4.846265736072761232e-01,-9.507744022288666663e-02
-9.160730655485349594e-02,-1.833506229014909561e-01
6.374003480947351141e-01,-1.586677567551249557e-01
8.945345362158996227e-01,-4.380648806606512458e-01
7.059453929710046705e-01,-7.048731592154241499e-01
-2.185946993778850045e-01,8.425548365579057508e-01
9.207454011727768117e-01,-8.275202232436754124e-02
1.207933158725053913e+00,-3.440283515504689027e-01
-6.141582809367139850e-01,-4.479304358665812114e-01
1.124179976237273948e+00,-9.004128436870029173e-01
-3.838444887788545756e-01,1.308817839519550996e-01
5.889793272193386553e-01,9.723290075002855026e-02
-3.353970305629603299e-01,2.608672541054592453e-01
-4.992404604297120407e-01,1.563304023431295597e-01
1.258438525664206553e+00,-6.003301236469529290e-01
4.259181121129483882e-01,1.557714026727536338e-01
7.605087469756327545e-01,2.867749544984536381e-01
-8.549993676543350685e-02,-1.740734888256370017e-01
3.692871363087169012e-01,-1.177857431120919313e-01
2.503327595422771140e-02,-6.083376724250573186e-01
9.367226642537176406e-01,-5.731977630733616769e-01
-7.564753359415558043e-01,1.702195236344925533e-01
1.137562969206175501e+00,-3.332522992813615748e-01
2.368448231680487792e-01,-2.263029482747445087e-01
8.117108057573887425e-01,-4.888976092430888931e-01
-2.315226113279241216e-01,-1.568051656159267365e-02
7.711637509493796117e-01,-1.346042190264676586e-01
-8.070451052516310897e-01,-4.736679085940502243e-01
-6.095900263457794122e-01,9.448718778278289987e-01
2.449731071976392338e-02,-3.978943846583155031e-01
-4.532810779943139412e-01,5.163303436658799317e-01
-2.014307615534338680e-02,-7.613771861911458050e-01
4.497717012595227049e-01,-5.118210237995293177e-01
4.626892811541649664e-02,1.301374257456713313e-01
3.236248511500647851e-01,2.641877714171278480e-01
2.733275318515139551e-02,5.410238404717515950e-03
1.094874064626734311e+00,1.089683578395996555e-01
-1.860222300919392446e-02,3.613542164346288943e-01
8.983505060783093521e-01,-5.847960177970608076e-01
-3.719287506503008434e-01,4.503766299350288327e-02
-6.645871979933823948e-01,1.853797271638444044e-01
7.360622473751635697e-01,-5.674647088547983831e-01
1.231350838022550853e+00,-4.147088106114609207e-01
2.076359366479183510e-01,3.508986168209549117e-01
8.397934654769196872e-01,1.621451628803227407e-01
-2.420644086968497810e-01,-6.509034043277139858e-01
-8.635401682591772321e-01,9.731413306230578542e-01
5.565015416732960185e-01,-4.558328021817236730e-01
4.517736587087004541e-01,-7.243694358696984859e-01
8.389235621715664948e-01,-1.772880541347016115e-02
8.480889091520896761e-01,6.544612341999994642e-01
-2.112187490906074494e-01,-4.375832252325393412e-01
4.936230966725553282e-01,-4.598959306418945459e-01
1.700556959088935116e+00,-1.009182768260420415e+00
1.107294337393751882e-01,-6.277710285680478952e-01
3.942268272804390628e-01,-1.643626069521047228e-01
2.312520498583076345e-01,-8.954975430965507188e-01
3.157300254129496997e-01,-4.868047130769749820e-01
5.442097774573455560e-01,5.104492110841387653e-01
-3.537866674279736001e-01,-6.800874977938650146e-01
-8.685326381706118815e-01,3.034437592645656823e-01
1.422037412092627129e+00,-6.921204026020336686e-01
1.024551051277507119e+00,4.298804635966985144e-01
4.082622333664315262e-01,-7.537699834746623972e-01
-6.627579767213218620e-01,-4.564617327047585937e-01
7.559338255092373782e-01,5.287097779258800173e-02
6.726431792788096775e-01,-5.917761431829061669e-01
-4.694406303295060590e-01,-7.912954410619806866e-01
-3.876105291716326895e-01,7.112047166862908165e-01
9.405397005616378259e-01,-2.464660346436964300e-02
4.014964935427846049e-01,-4.666016213879273788e-01
2.516479419054029054e-01,-3.880924322106292512e-02
-2.024157216003443505e-01,8.487953929276033094e-01
-2.502533131774631325e-01,-2.120917398285149247e-02
4.359155987340089800e-01,-4.826021890084808974e-01
-1.891569348772708659e-01,-5.323193772905673304e-01
4.680895033745002820e-02,-4.469059712949154939e-01
-2.489902301409240848e-01,-4.733448230686785330e-01
1.069123204065273836e+00,-5.985837163771544622e-01
2.040053390247789644e-01,8.389529499275869551e-01
1.222631822360959131e+00,-3.631565971048317243e-01
-5.421052682255020905e-01,-4.372056545074579775e-02
2.207856571538480694e-01,5.815143377724334428e-01
7.240742630559469095e-01,-7.698882547416487920e-01
3.636858376929394399e-01,-3.648151337187139354e-01
4.409844876745026010e-01,-1.327429008662638632e-01
1.487706390936049117e-01,7.249750471650031614e-01
4.100317228250195400e-01,-6.537671582611380705e-01
1.035979114626434328e+00,-3.340993496672042262e-01
1.228011794010825386e-01,2.907695056745361883e-01
1.255964536611478444e+00,-6.429428774905829869e-01
-6.095916624264511308e-01,4.438233581688112439e-01
3.525716895025584052e-01,7.169009944383765154e-01
2.572334657559781079e-01,1.479308566597527796e-01
-1.669726540931182335e-01,-5.974087078675858198e-01
8.667622996195254448e-01,1.599368843169025889e-01
-6.763749056388697056e-01,-6.067858211586647510e-01
4.237994471077770609e-01,9.445443995196360909e-01
9.538024943380554177e-01,-4.392895755386208023e-01
-4.285050448411794055e-01,-5.019265698247608182e-02
3.816525256308781477e-01,-4.024425288196873396e-01
8.778849817544429612e-01,-7.236646774574191365e-01
8.957446554086034851e-01,-3.101501027050239112e-01
2.702288795122738119e-01,-1.623669140308297010e-01
3.927662400427965328e-01,2.030720200742596182e-01
-7.283708096570351564e-01,-6.676067185040307495e-01
-3.918054002555997339e-01,8.486414823046835032e-01
2.556753198272421201e-01,-7.430493660209209761e-01
-3.589247336351186757e-03,4.072050930922899159e-01
-1.862116238261019019e-01,-5.492921229613468848e-01
-6.175428136014246006e-01,-7.194704392383234337e-01
5.146783132478142120e-01,2.051072131909768281e-01
6.823979112808356007e-01,-7.765430657652679924e-01
-7.653079299683112069e-01,3.230752630511255497e-01
-3.178555735859216469e-01,1.883434571649436617e-01
-7.237812534119983376e-02,-6.904849866238512712e-01
5.428284493616238882e-01,-5.299716926103326120e-01
-1.108315533922435286e-01,-5.111587319377293159e-01
-1.458593927469706633e-02,7.867800546746102075e-01
1.966947422510031851e+00,-9.834186465985281789e-01
2.482144023644911879e-01,3.265450465388652357e-01
-2.981479172605181471e-01,-8.984773105129215676e-01
2.571436534863535961e-01,-7.249509734224439672e-01
8.730134094208961137e-01,-1.374740135242906724e-01
8.683461238691911888e-01,-3.530577913399226553e-01
5.765888985390799082e-01,5.964074104316132718e-01
2.314613791101636231e-01,-8.021112019368092927e-01
-5.424028132555196446e-01,-4.873448312057359622e-01
2.519049645337077536e-01,-4.822643541944399148e-01
8.263295470527936004e-01,4.398115481780082714e-01
9.061265781235605665e-01,-8.690371775857324010e-01
3.587645868921814363e-01,-6.974917688063660970e-01
-4.065291920026227745e-01,3.502048481211755826e-01
1.092381585051384718e+00,-2.421746468729943924e-01
1.045119752749149811e+00,5.518493796175572008e-01
1.414342352394008184e+00,-1.014470961278645333e+00
-7.686401829163991284e-01,-7.762404760658616620e-01
-6.578136163501691058e-02,-7.209018911052700318e-02
-2.389707223797716829e-01,-4.181159259434691355e-02
2.220548968232870735e+00,-5.527406961960934506e-01
5.782685019979700858e-01,-4.330934621869759749e-01
1.304161268337586721e+00,-6.605846485869385498e-01
3.717402887796721900e-01,-2.743557163322303816e-01
8.692662374015733828e-01,-9.539357447456908723e-01
1.401320787858961303e+00,-7.314872568504081629e-01
