-7.171790179908348328e-01,-4.545463682429823349e-01,3.738226616170219341e-01,1.189673357726990233e-01,7.945947221574921338e-02,1.601432121699345734e-01,-2.648605239989306193e-01,1.811634752070361357e-02,-6.669731626956161286e-01,-1.485058666960108187e-01,1.599792376517086834e-01,8.112493434910832413e-01,-7.063323611260436952e-01,-1.034999941258641781e-01,-4.726870602494783746e-01,4.965056251777776875e-01,-7.860244837034652265e-01,9.723465685779034695e-01,-6.882177403726918996e-01,3.351227746191066670e-01,-4.592488476536352171e-02,-2.520364835912483614e-02,3.050945356375180384e-01,1.391149828281844414e+00,1.875711906996101741e-01,-7.007356483129187907e-01,4.901897686357006845e-01,2.223527160626091459e-01,2.836018504712572996e-01,-5.576094695486714103e-01,1.960848091243509728e-01,-9.229121605875049983e-02,-3.631378436702074886e-02,2.508801373092810483e-01,-3.260607359357619583e-01,-1.564208792356723277e-01,-5.524690382940816713e-01,-1.357298286133473419e-01,-1.542019648781830510e-01,-2.287471790387016757e-01,-4.191044516990060642e-01,-2.409218754567174214e-01,1.671503877947971561e-01,2.716989084008066269e-01,-4.123835495106731308e-01,6.329776945400759081e-01,2.491718666586698605e-01,-9.566893285381948553e-02,3.240741810605785034e-02,7.734214798673200164e-01,-3.348664659287779455e-01,-1.358774251953725164e-02,-8.610188470670490646e-02,-1.499371881585399024e-01,2.548895938643587836e-02,-6.805281488502444853e-01,1.376439504519198387e+00,-9.512902213155410153e-03,-3.095234424194278633e-01,-5.401516158335147866e-01,-5.794445850335300241e-01,2.833249378683955211e-01,-4.615385608399368289e-01,3.096275846260028164e-01,-4.104619929531162503e-01,1.212995200022901177e+00,6.705856658273783300e-01,2.634577229522550024e-01,7.331820516897182005e-02,3.222389523638594655e-01,-6.323157112911627076e-01,-7.881799009390222377e-01,-5.974201805318533065e-01,-3.250308594675571650e-01,-2.548579649479449927e-01,2.235933353447752125e-01,1.849454338224349459e-01,-4.835331629789415414e-02,-6.195891209705937097e-01,-5.829440849633173993e-01,-1.502288668426545737e-01,-2.817640410343297264e-01,9.221862595745791702e-02,-1.728401087253862434e-01,-1.262653546988951048e-01,-5.737346457956067347e-01,2.365514081557283654e-01,-8.428807437890428744e-01,-6.533861671327161058e-02,-5.012547523770165547e-01,7.452157699098861388e-01,7.278461720793715228e-01,5.499750047305904666e-01,-8.036905918784963410e-01,4.077331414476476068e-01,-1.366905247042979610e-01,1.211560149231119196e-02,1.660785034766222856e-01,-3.691746167925021860e-01,-7.733384926575618268e-01,-5.434841061955857366e-01,-8.243977078597908292e-01,-8.766887644810194002e-01,-7.128653616656346337e-01,-4.556454058641353222e-01,-3.205470526546653348e-02,4.453520890049476044e-01,1.314435133106809817e+00,2.686729405900045164e-01,-4.044340641169702488e-01,1.938839144048502550e-01,6.111330293339187758e-01,-2.961933687632919976e-01,2.442121719814714098e-01,3.289524199063959542e-01,-1.832051665445219232e-02,6.353041349796452186e-01,-4.317705183222469434e-01,-8.877619332135865404e-01,-4.666946177554571196e-01,-2.782664816494948012e-01,1.245259467026997191e+00,1.576456533736109722e-01,-6.410364352462292192e-01,-1.402550281022975744e-03,-6.179178962540006204e-01,-3.513094645117562642e-01,-2.457977673722820389e-01,-6.603730544506238032e-02,-4.925743108218764293e-02,-9.890017880378342008e-02,-3.764292429326765999e-01,6.114749890441210922e-02,7.824522803929463699e-02,3.220915589647436184e-01,-3.503620214391089949e-01,-4.095089903972505829e-01,5.454367741991813512e-01,-4.807316090588595880e-01,-6.113392216884062647e-01,-4.519344668165388157e-01,-3.083545683945391191e-01,3.458368272922559550e-01,-5.518968249410317606e-01,-7.911598491355278234e-03,-5.054024590944478090e-01,2.466458608223767446e-01,1.190523420742305216e+00,-8.362102341096513403e-01,5.654583419532273336e-02,-2.183340560160965393e-01,-4.423938232769301648e-01,3.129823173462001895e-01,-5.941139356022906437e-01,3.588561898884718437e-01,-5.043682464027604562e-01,1.244515508562974715e-01,-7.067438141825688191e-01,1.816163793023574391e-01,-6.337496147337991215e-02,-5.325875686466582243e-02,-7.733155454924871552e-01,7.857620522439868749e-01,4.990451189343796945e-01,6.562355439864555606e-01,8.538444227018335275e-02,2.279569475179296367e-01,-4.559997983972693403e-01,1.574450607671801783e-01,6.523028796746583868e-01,8.787634652194134532e-03,1.212649741136192727e+00,-6.465858200900432839e-01,3.273008256450212761e-01,-1.836885680571200552e-01,1.666392575132095377e+00,-6.087328894056505124e-01,-1.714628147087388643e-01,1.008176960720760240e+00,3.721076544844896250e-01,1.378131713196239172e+00,3.463588796716289553e-02,-2.059689502476084177e-01,-3.404644135747452727e-01,6.817990746824523773e-01,-7.332412006353635769e-01,-3.853520361186409393e-01,-8.203801908265432319e-01,1.443663142975445957e-01,3.818959931206941660e-01,8.547784377998572658e-02,5.313489858736952093e-02,-5.321550488181892025e-01,2.595823479448832738e-01,-7.847303199987043509e-01,2.008004310729680775e-01,-7.625908197244974929e-01,1.098973667596962467e-01,1.109786899382132486e+00,2.735108429161775545e-01,-3.401666870967804956e-01,1.869235867932205752e-01,-6.019621546344385843e-01,-5.272714801103133703e-02,-7.801948689967896922e-01,1.002452603365009631e+00,-6.596840064575384410e-01,7.694718067252711569e-01,-8.466061355510455522e-02,-9.670825251906665920e-02,-1.431432311399596646e-01,4.809146935569381942e-02,4.614097382818131698e-02,7.557246057986351240e-02,-7.570646171628104826e-01,-3.436395620278471230e-01,-6.071832013942182055e-02,1.888583144924393664e-01,1.793055868619420901e-01,2.735460868541442769e-01,-9.055262275864299493e-02,-1.661496689458931975e-01,-6.041956377114438004e-01,1.059235288802917507e+00,7.775128270519504614e-01,-6.253959102380695079e-01,-7.494277528389990672e-02,2.628077458037389458e-01,3.273940618941762470e-01,1.462178605867487657e-01,5.457526616351942028e-01,-5.811444537133401145e-01,1.107442103168474024e+00,-2.537461757122423389e-01,-6.965225403344098565e-01,-2.017457660149933329e-01,-3.276007352459270883e-01,6.368764093210288468e-01,-5.665965627239551994e-01,-6.784249051925862473e-01,1.136210450810960948e+00,2.692682511832020786e-01,-5.737804517743908539e-01,-4.480276033274537828e-01,-7.039758451344657608e-01,-5.030892510130933193e-01,1.307476212331386833e-01,2.922203261213934256e-01,-7.423158901835887891e-01,1.886824944599743981e-01,-4.921732411366814830e-01,-2.085448567372337192e-01,1.664193745130887123e-02,6.480872008503993920e-01,-5.674442013493214559e-02,1.790034742184961059e-01,7.280239091633581294e-01,-5.058839467291933456e-01,-8.640452781238813218e-01,-5.376398737539810346e-01,-1.217268952017310918e-01,-1.493483785261281449e-01,-7.179104170492736081e-01,3.839317361821793784e-02,2.750829217902724388e-01,7.449996994151972807e-01,-1.203066240215325128e-01,-1.377426908572451092e-01,-3.389968924313871979e-01,-6.548254094207012210e-02,1.301146533464404009e-01,3.657809479450727791e-02,8.282458025349960506e-02,4.337060617490420267e-01,-3.471424577361500452e-01,-4.531637327944075255e-01,-4.709473528350607285e-01,-8.178861112321669236e-01,2.018321082297263591e-01,1.602642709903384644e-01,4.350636445216178316e-01,-3.271275173284929338e-02,-2.932213845933123730e-01,-2.631855503257825996e-02,2.369807956459552695e-02,-6.400793861495344961e-02,-6.723084797813141389e-01,7.571896102947553442e-02,7.362930538804172975e-02,3.339761796137867833e-01,-2.792819852027250693e-01,2.468560715171390085e-01,6.898420561133223883e-01,1.257088882353085690e+00,2.402921727021335163e-01,-5.959978292470822191e-03,5.019334151827326007e-02,2.795031607102450022e-01,-1.675324317124313178e-01,8.943011827688193000e-04,3.876749837382857389e-01,6.977975028627422804e-02,-1.494754476530247567e-01,-5.952479463701555451e-01,1.458703277395628772e-01,3.509048780342120810e-02,2.529687279298191260e+00,5.510795247979195788e-02,1.030413894508598549e+00,-4.244138058403330582e-01,1.414271497152501736e-02,-7.873414994675140832e-01,-2.838103449030874303e-01,-2.733667734294365492e-01,-1.075588320432549205e-01,1.589918083834112872e-01,2.118080758487762283e-01,-3.350638098549257315e-01,2.561205845492543709e+00,1.840898918545610385e+00,3.910968001649171577e-01,-6.105550422950437595e-01,-4.166092547849448713e-01,3.883825129697041079e-01,5.939702571255163210e-01,-1.095938642467806923e-01,-3.113799265358364043e-01,-1.386269417499135514e-01,-6.379492444802038753e-02,-5.430851292261849039e-01,-2.269066303806802631e-01,-7.922137895255609852e-01,6.856297739102566735e-02,7.825271454370842650e-02,-5.165877355449995934e-01,1.320213940209053805e+00,-2.153405864562246974e-01,-8.273626166812962646e-02,-7.712719166207501198e-01,1.320265980576698972e+00,-1.957735003233394278e-01,-1.389886172562391012e-02,-2.089308339857516572e-01,-2.033382455189817473e-01,-2.086991299333871008e-01,-6.928672807757990659e-01,-8.591091285678849054e-01,-3.262209981208173404e-01,-7.094860982490478474e-01,-8.021826256499763330e-01,1.030031108393246297e+00,-5.532347672779421854e-01,-1.299149930938930664e-01,-1.558582587630567839e-01,-8.327200535285420036e-02,7.460823598781616273e-01,1.277517714030169393e-01,1.197046800393745530e-01,-8.638661495348844976e-01,-3.079639301634209264e-02,9.172913735778698285e-02,-4.653150838174370252e-01,1.357473844632054671e+00,-4.731496739082117764e-01,2.533738309870960381e-01,1.540037595187137565e-01,6.572730180037865688e-01,2.344206357137088303e-01,-3.983602283617115880e-01,2.064725952980385124e-02,7.773733054312614854e-01,3.478942893022045346e-02,2.312037501068125445e-01,1.903657059538935936e+00,-1.394513041484559956e-01,9.990573969985979685e-01,2.062790851975646825e-03,1.168305692355648517e+00,-3.032028441914328548e-02,9.331984378512219180e-01,9.786928747715272214e-01,-7.972959944993772419e-02,9.096931824481901963e-01,6.034273012813222703e-01,8.583692131418921289e-02,2.806014797786942072e-01,2.128389727248987118e+00,2.612294780698481977e-02,1.682265345281290791e-01,-7.003533724690645945e-01,-3.915214333849400541e-01,-8.869284078676179517e-01,-4.940416873730700820e-01,-7.403249580494765114e-01,-4.122762013673784143e-01,2.814017986323258391e-01,1.311572431441677608e-02,-6.286099912802095568e-01,1.007049979445276133e-01,-3.043343438775349408e-01,-3.726763687622449139e-01,1.334139712327933047e+00,-7.632270408312095133e-01,-6.711596636599803656e-01,2.375791477401431873e-01,2.169229434874206941e-01,2.476278238930854914e-01,-6.540277502283626809e-01,4.742828695694304569e-02,-1.013215186232955256e-01,2.486212926437559312e-01,1.768721632768591734e-01,1.307440870096641117e-01,1.686778431086314103e-02,1.832911435220886398e-01,-2.012659072327711018e-01,-6.180378846880627552e-01,-4.612434398766011578e-01,1.351576582931514059e-01,-6.871482859633077332e-03,-1.085964772209897788e-01,3.034567218642102993e-01,2.943407684378353609e-02,-2.220272767009529857e-01,-6.819573558030231908e-01,-3.273260969103598539e-01,4.361780692616298166e-02,1.449322535312375926e-01,-6.532629359466568530e-01,-3.231597928800722941e-01,-7.879535266147055794e-02,1.473512477273975774e-01,3.558863747310208464e-02,2.314285738375181811e+00,6.381075100252284749e-01,2.669614457627103032e-01,-1.856468161239932524e-01,-2.892697107285756020e-01,-1.965716294432127420e-01,8.550985143354805640e-01,-2.596035548729965226e-01,-3.764007318211866626e-01,-8.755399545974525966e-01,6.068257182031037145e-01,2.015557172433709299e-01,-7.394316820835121762e-01,2.589880042932118376e-01,2.708948956532701291e-01,1.806752602550655840e-01,3.020396636396410761e-01,1.286573720790464836e-01,1.448581725362775297e-01,-2.681890184203657990e-01,-1.989280877923733093e-01,5.026101392360911996e-02,-1.908868859758117709e-01,2.384354207711684437e-01,-5.207574852995396908e-01,1.952090748249796781e-01,-1.102030804001520314e-01,-5.584456652652797226e-01,8.178328233381629842e-01,-2.305730732287502860e-01,8.446056339094186738e-01,2.262901231982505923e+00,-5.046763343769062882e-01,-9.524711679165555334e-02,1.498679580583913928e+00,1.694861673395754442e-01,3.366746529120743792e-01,-5.074933979300375597e-01,1.560458602807698013e-02,3.181038106257261244e-01,-4.209964671268314196e-01,3.677331523294699589e-01,1.985434748104880631e-01,-4.223620389399451169e-01,-2.349174427778834284e-01,-3.323234293685947138e-01,8.917485266177603564e-02,-5.365878477028029891e-01,2.583533949212284964e-01,2.804246320290137429e-01,-5.042159127439391209e-02,7.108500822929544327e-01,1.998785878334903954e+00,-2.437856180083027569e-01,-6.303312721472337232e-01,-2.072962427211995362e-01,-4.638999773524408177e-01,-6.228977100370108877e-01,-1.979547458222659928e-01,7.478377631272505217e-03,2.148838582274642806e-01,-8.340906741751199505e-01,3.186779317906936471e-01,-3.226096906804557518e-01,-2.713745264608077856e-01,-3.546224880093739595e-01,6.485375425782233805e-01,8.437237696808991272e-01,1.684933914420705947e-01,-9.258825153951193432e-01,-4.428315043951310814e-01,2.497437221224198811e-01,-3.425281032121051117e-02,2.238159610336021010e-01,-1.895363734916905019e-02,-3.442524261953175055e-04,-1.895053692091744693e-02,-7.829460214873531498e-01,-3.566942602261736206e-01,-2.391234962276264642e-01,2.430717274602777200e-01,-5.012623834930927114e-01,9.431982676620657147e-01,-6.497388764228695379e-01,-5.736522331877015324e-01,1.367780145569378991e+00,6.211292813318681771e-01,4.520033026595197123e-01,2.192267242028166085e-01,-4.303058565560487561e-03,-4.564977771577118926e-01,-1.105083727370630431e-01,9.748389192597856079e-02,3.641789497118004537e-02,-4.864477863890388498e-01,-3.283452213966413513e-01,-1.739623972656376971e-01,-4.379552575038843376e-02,2.560990211940933348e-01,-6.695726735655443962e-01,6.928509853409257901e-02,1.531960878486156918e+00,-4.349498061292978446e-01,2.005813682384225138e-01,-4.683015650528219442e-01,1.935634110597663493e-01,-4.920609357073825740e-01,6.189508131664961388e-01,-3.393211907926891313e-01,4.944728191029606479e-01,8.345928294810522896e-01,1.628220682450939177e-02,7.922128567203325922e-01,-5.782116868787936514e-01,-9.101216568963124698e-02,-6.553797659103205442e-01,1.092455549538144721e+00,1.563934257652902060e+00,-1.693558810524473657e-01,3.000602788903664053e-01,4.850966265047219894e-02,3.276106586048956326e-01,-5.752432213945989359e-01,-6.879837704805710219e-01,-4.269686656313125828e-01,-6.417644899391026225e-01,-6.463539617606810506e-01,-6.658042712167069332e-01,3.317804697678318482e-02,1.567417564365600979e+00,2.608379085181004031e-01,8.720491157120858761e-01,5.540336901619237198e-01,1.067394643691048500e-01,9.077201827855863742e-03,-5.558640634815733561e-01,1.371649328093329234e-01,2.314818062192299311e-02,-3.420726383277418181e-01,-6.949538387535525441e-01,1.437476807578313309e+00,1.457162031331101337e+00,1.234122396856668011e-02,2.174970681136219885e-01,-8.483917721561186065e-01,1.633982123257286256e-01,1.552489262899525990e-01,3.402679214945000807e-01,1.807504189407001527e-01,5.144854497328373855e-01,-2.623369577948149733e-01,1.125408003679737173e-01,8.650892306923928521e-01,-4.033017555105889995e-01,4.519463034009378322e-01,-2.711430307140638152e-01,5.660161334254804055e-01,-9.136702625930418625e-03,2.605518491951257065e+00,1.408738889846398445e-01,-3.997992005668629112e-01,1.353027477284220181e-02,1.492252690374673785e+00,3.090555139933706327e-02,-9.964644531533714544e-02,1.240989774136334739e-01,-5.379680335217609244e-01,4.292586507980858945e-01,-4.217899258728194378e-01,-4.291435365386914724e-01,2.817286507350602043e-01,2.745849076797618471e-01,-5.289363846975950745e-01,8.178642533352888100e-02,1.090453048917032985e+00,6.764220963555644950e-01,1.775947970988335511e-01,1.584047629178852334e+00,-5.923557512224509880e-01,2.678822103125994003e-01,-1.364779652605278282e-01,1.377129615771946480e-01,2.686069656011083606e-02,-4.019197978505875679e-02,-4.133568509721806117e-01,1.377115238420231758e-01,3.860058019344325686e-02,1.062275799931464926e+00,-2.213161103902765992e-01,2.006590215430684998e-01,-5.012214323543163763e-01,-5.093158427592278104e-01,-5.357704598195356382e-01,-6.311243161200216223e-01,-1.202725049861436274e-01,-6.741067986888245045e-01,-1.583272813361180364e-01,-6.160569607897815603e-01,2.231274625316589100e-01,-1.382792249458567324e-01,-6.621334268471472662e-01,-7.506846726017890603e-01,6.854871887427166355e-01,-8.015728901336547363e-01,-4.671280078301657812e-01,-8.546330539430039286e-01,4.891064784598856893e-03,-3.100515667061184630e-02,-2.570248295004085581e-01,-2.050428010110393606e-01,5.155646539595596378e-01,1.439416241192184032e-01,-2.637634724487571969e-01,-8.897077448300200198e-01,-9.591006282992126097e-02,-1.140696144603459417e-01,-8.181195504702087895e-01,-7.877423575427969782e-01,-1.308548369108533949e-01,1.203286597483717690e+00,-8.249296667293763985e-01,2.101966180720924171e-01,5.818127216390871909e-02,-5.000027611200635880e-01,1.386254850645645686e-01,-4.148954973647512867e-01,-1.946283894655804203e-01,7.697008236146114790e-02,-6.629821531432691928e-02,2.122593684920934531e-01,-1.734716331804503006e-02,-4.404511883552259532e-01,-3.961727938475772398e-02,7.017876122666926175e-01,-8.918744217439278366e-01,3.760915609037179808e-01,-1.732966387798332564e-01,-1.550342485091733835e-02,-4.190870191778169329e-01,4.796572377364815010e-01,-1.807849308188552995e-01,-7.487018061230716892e-01,4.710976331038081999e-01,-1.281428486401877120e-01,-4.558712185887964924e-02,6.533412621023193534e-01,2.385263048169427691e+00,-7.003346701672468200e-01,-6.151488269548172072e-01,-1.705856071774053129e-01,1.513428835034529574e-01,5.606053356443662095e-01,-8.800549484885471507e-01,1.574736265529405488e+00,-8.266943155138744004e-01,9.875853186527672189e-02,-4.238051696883916586e-01,1.622598174624349243e-01,-8.460801010447481785e-01,4.872707624632256485e-01,-6.359170046249477126e-01,-9.525186919078558467e-02,1.081084807206325049e+00,-4.210111719313847090e-01,1.279321904242204933e-01,5.802294952645993265e-01,5.599693398883712758e-01,-4.963115427331519225e-01,-4.527274423844374618e-01,7.159564353647057157e-03,-5.745207594417934827e-01,1.039882185667797138e-01,-2.831366108446500274e-01,4.314083078676943239e-02,1.285701690227875060e+00,2.345584726185359070e-01,-2.126041932147575420e-01,1.049515904526978349e-01,6.701492677227005590e-01,8.384686156869181062e-01,-6.324038737710225844e-01,4.784700809660798887e-02,-6.492203646583860621e-02,6.010167998639688314e-01,1.134459225838265528e+00,1.186310496307172002e+00,2.398397690984245545e-01,8.507383150521548310e-02,3.095598902033468991e-01,-5.423028081572283110e-01,4.361890998683447540e-01,-8.228666856234153615e-01,-4.218452155300645434e-01,1.942719126001542507e-01,-3.839798852170613341e-01,7.467384576559287224e-01,1.594137047991783518e-01,1.364016638671438297e+00,-1.932930556907556385e-01,1.450795195874140298e+00,5.585051442337358729e-01,-5.665133943569337915e-02,2.844682166516956379e-01,-3.185890290104186340e-01,-7.280080735697932459e-01,2.897018024510961132e-01,-3.201732936473012381e-01,-1.718481570624503241e-01,2.352679516035981744e-01,3.816918310565248218e-01,1.191558855954312879e+00,-3.367819416995895265e-01,1.541993429863434406e-01,3.347655292454254083e-01,-2.264954903801607439e-02,-2.067329836030372958e-01,2.865451123026217517e-01,-7.290742783399336568e-01,8.585918087027674672e-02,5.135344695923057534e-01,-8.937737709609998304e-02,-6.921968270732213879e-01,-5.250105091338964636e-01,-3.822790290819413905e-01,1.495716018330822461e+00,2.457837312723924750e-02,-6.211105365999866068e-01,6.918103903463012072e-01,-5.271686304509688448e-01,3.135073207308149978e-01,4.912998555720169414e-01,-3.123634038408101277e-01,3.393895941010892092e-01,1.839932611809539098e-01,-7.881892612986189928e-01,-8.505863414576491088e-01,7.163442161135902264e-01,7.332114748411795724e-02,4.739679546869205451e-01,-3.881003419491899087e-01,-4.287423490170818030e-01,7.968598530434912730e-01,-4.896964950266760042e-01,-5.054446864944087681e-01,1.416317282888335694e+00,4.453067636736480345e-02,-8.507529682390897463e-01,-8.233536897200782745e-01,6.481793134634604714e-01,3.225896508841171184e-01,-3.849012933410504433e-01,-3.026707582690089660e-01,-3.730438003861951124e-01,-4.680477657051909102e-01,-2.273069318360366187e-01,7.124944837423409227e-01,5.576633099893851114e-02,-1.199479374880116078e-01,-3.829053936659099766e-01,8.751072174131732662e-02,-5.316915409725101599e-02,-1.600622079667263775e-01,2.393807213872953532e-01,-7.134517884046497060e-02,-2.339594093678026288e-01,3.411749545212037216e-01,4.686264149632789477e-01,-1.964134823707437694e-02,-4.714544570333573104e-01,-5.940421832094238130e-01,-3.467189151682364967e-01,-6.411306633448952443e-04,1.382020069299482845e+00,1.002352988039529658e+00,1.757892800643671150e+00,2.230391121341427918e-01,1.147942501687079231e+00,-1.804824021014355129e-01,3.376864416864202023e-01,1.796954217482186686e-02,1.863725973938784933e-02,-9.104708170747132234e-01,1.457120085260815434e-01,-3.143857827220606360e-01,-7.733652456833460809e-01,-4.628430759117746485e-02,4.193993903297223991e-01,-2.878933025889020558e-01,6.197042983557812246e-01,-1.097498979103000982e-01,-6.602704744222195332e-01,1.127945320934514162e-01,4.476448285239866265e-01,-6.395740434450992717e-01,-2.759242719523775089e-01,-8.937997910307591276e-01,1.330860977674708900e+00,1.447247254661576943e-01,-2.104464604274125239e-01,-1.735428216820739111e-01,-7.628843893978882740e-01,5.009319348327591070e-01,6.569373966773768558e-02,-5.152483047492485008e-02,-4.050333672607944191e-01,-4.279523312368862520e-01,1.007872195286486361e-01,3.485869933501754558e-01,2.924735765766187656e-01,2.278600303344393840e-01,-6.564507485913960438e-02,4.202677028952969684e-01,4.583313027764606140e-01,2.967845891508086864e-01,2.505110839022247404e+00,-7.008953342839758793e-01,-2.518239820124169581e-01,-8.252230246295102489e-01,-1.897834807293262427e-01,3.285154319208014040e-01,-6.821766314288880972e-02,1.625310991576503494e-01,1.743157286422169827e+00,-2.081012851705955069e-01,-2.112147939979136801e-01,3.505316510801799179e-01,7.620720545574293237e-01,7.118123881245145279e-01,-4.873970376414756278e-01,8.439380565461838957e-02,4.191931442240768302e-01,-1.950407857090091096e-02,-4.758890296370503203e-01,-6.340220173626013311e-01,-2.588959978139337981e-01,-9.317218686640835190e-02,-6.117158248132055220e-01,-4.467091611249027899e-02,-4.250179216414469163e-01,2.463959407972789450e-01,-6.311700424593972292e-01,-1.299515279387610800e-01,4.798755855874105025e-01,1.720208889201250424e-01,1.860984006808864832e-01,-3.130104529746151609e-01,-5.509337426674931759e-01,4.357968991374025491e-01,7.653000662023095278e-03,2.113573289671153571e-02,1.235967852759823238e+00,-5.978128129549153957e-01,-1.519160344414617891e-01,1.211475809958554528e+00,-1.338508545419209994e-01,-4.631447129577129784e-01,-3.409450104083658339e-01,-9.836816558712198344e-02,9.397521187850607083e-01,7.944788228750567782e-01,-3.028692194806303570e-02,-2.805751378124715645e-01,4.236884652542690644e-01,2.678754584444429376e-01,-1.801622427487546696e-01,-4.209841596863936886e-01,1.234743674446235479e-01,-8.218801090469937676e-02,2.698234428550406738e-01,3.270268664977916684e-01,-7.124052282230728395e-01,-3.029388739375677986e-01,-8.653313690355997068e-01,-3.381619865589220297e-03,-5.804546501023726685e-02,3.495619667355598370e-01,2.103516714911884272e-02,-2.005673911551143218e-01,-6.681513134903932505e-01,-1.458405460732097314e-01,1.067612838068208170e+00,-6.091896279577294626e-01,5.634600377218832445e-01,-8.503128702349163071e-01,-5.682422205595487330e-02,-5.158872566381820235e-01,-6.436954595610262508e-01,1.001146048909791336e-01,8.770129882865517201e-01,-4.478400302183515036e-01,-1.973765536545949439e-01,-8.648088521006651597e-01,1.491586866908973352e+00,-3.445178916439038397e-01,2.719744334825380805e-01,2.907479684418310950e-01,1.144340254983386845e-01,-7.018700281820187126e-01,-7.482005161111854319e-02,1.222360065444208777e-01,-2.264759510336095683e-01,-2.529723721492524446e-01,1.273040812498213714e-01,-8.222108644595332860e-02,3.234293585095359691e-01,-2.400717058558651806e-01,-3.327991304535326839e-03,-8.356520354045539056e-01,-6.303946266285725963e-01,-6.990307321319672029e-01,2.193345405482575172e-01,-3.200873210892792864e-01,1.306085464821488129e-01,-2.894745052984512568e-01,-6.111907627874024751e-01,-3.586476484685919841e-01,-3.521507272950435974e-01,-5.580784512531308250e-01,6.890862825673484959e-01,1.006097658260068695e+00,-1.064115328801290006e-01,-7.747142333865666419e-01,1.374726298788055745e+00,1.428570915392519236e+00,-2.686459599554216759e-01,1.412326201801539782e-01,4.108022722493621659e-01,-9.813318533944886957e-02,4.073031854861893231e-01,-1.408039986944608357e-01,-2.457528206185834452e-01,-8.584471431706021116e-01,6.549988356990690264e-01,8.774245534530647483e-02,4.688642675618614336e-02,-3.292807251282124370e-01,-5.892295690089242033e-01,-6.775984494340873965e-02,-7.382366880047203095e-01,-2.777093203132457444e-01,7.013639011319085237e-02,1.509279537456460207e-01,2.620570546971890957e-01,-2.158042702065131324e-01,6.184718519271188431e-01,5.886040058590102930e-01,-4.288525250860865112e-01,-7.434613755367469601e-02,3.558385960725708452e-01,-1.406160177975712411e-01,1.543985794205977868e-01,8.964508969294811280e-02,-1.264971678495272478e-01,4.228705822920673096e-01,-6.777760892925798197e-01,-2.828890709586666108e-01,5.304797018262492614e-01,2.828601869948061537e-02,1.707208177562049345e+00,-4.512464869961909097e-01,-1.259667789701920670e-01,6.317590972448993147e-01,6.640480925421909930e-02,-6.276176220194694677e-01,-3.681060104135157607e-01,2.726922406392919274e-01,9.678519668565548073e-02,-4.144160891778275180e-01,1.348246475043761161e-01,3.750088929598605070e-01,-1.963686631879857925e-01,-3.902251481575135239e-01,-2.527413640444260978e-01,-9.213360663802463990e-02,2.486448427270729622e-01,-1.187519131938546274e-01,-3.708430605178154593e-01,2.142676467395393247e-01,9.714803546468775419e-01,-7.309666763883952700e-02,-5.403025893040980937e-02,-4.188816933906439055e-01,-4.040643443160327752e-01,5.548666326760657297e-01,-5.074160112879821938e-01,-3.773305452245849789e-01,1.530723584267556781e-01,1.441348411520854578e+00,7.064112622195373170e-01,-2.238899449486491111e-01,1.343364504059119668e-01,6.147385133783497269e-01,-6.108888946782985441e-01,-7.315228717297859173e-01,-6.286027478333895413e-01,-6.159324700094407357e-01,1.544187289805503682e-01,-7.789564540221588507e-01,2.983563787357279562e-01,-1.881362503753175874e-01,9.439423796077134332e-01,-1.637408743849510240e-01,-2.378790031025938834e-01,5.587037039638866887e-01,6.120867548754975740e-01,-3.007960155718488737e-01,-2.650923024520445703e-01,9.174330915073715120e-01,-8.375624631330680359e-02,8.999878361679976013e-01,-3.891574062906323905e-01,-2.190947696726945615e-01,-1.747915290233603980e-01,2.501940440307591773e-01,-8.020651616715722687e-01,-1.552211793881969892e-01,-5.276813307947154225e-02,2.457450239916321166e-01,-7.907395865371596999e-01,-1.687537346801685212e-01,3.032515290025965538e-01,1.498997580445290412e-01,-8.344821901468489900e-01,1.839383327949821456e-01,6.878939470784443955e-02,9.547836878655413528e-01,1.659802835722856695e-01,-4.541735454509919778e-01,-5.609371284360630261e-01,-1.382037966750705171e-01,3.281512623739213930e-01,-7.575665659848299649e-01,-2.196153733870316316e-01,3.133663356305027570e-01,-1.569932981159979091e-01,1.415410563393907584e+00,-6.719248378177805625e-01,-6.224135034953691414e-02,-1.025582828076729569e-01,-3.747690091380443955e-01,-2.612262521030636608e-01,-7.493470549452386775e-01,-8.259603545207623576e-02,-5.475760756086450742e-01,1.804454540645583915e-01,-7.677677590503646510e-01,5.862119242925152296e-01,2.947675534259965868e-01,-6.573029137351399376e-02,3.173284456349621530e-01,1.991227104397153835e-01,-8.145308834310893698e-01,-6.242449497737776465e-01,-4.194866815350639655e-02,9.945131391762646045e-01,4.540366405014705647e-02,3.513170119016290061e-01,-6.735996277326248942e-03,-4.782627186680482034e-01,5.437462898667178024e-01,-7.838959278969926947e-01,-7.064342460569589255e-01,-1.203362460498593467e-01,1.171655484700251604e+00,-7.675572445155053325e-01,1.552990436931453444e-01,-6.208760669888461203e-01,7.161131176601268078e-02,2.092558897236070914e-01,-6.558892798223180387e-01,3.003289657380788236e-01,3.225797852744806682e-01,4.460550775705854343e-01,-7.284853434614403378e-01,-8.828944691154136937e-01,-4.063516940129022759e-01,3.310265357498045624e-01,-1.479065257083161944e-01,-5.853558407465847546e-01,-4.527659298953058964e-01,-4.114922488848840043e-01,-8.134813573951029664e-01,-6.822065951440975384e-01,-6.571233874375991268e-01,-1.082837616324023172e-01,-1.343298121516669774e-01,-1.161699194374470889e-01,-3.575201266340183315e-01,-7.759551972008185139e-01,2.642304954051847288e-01,1.498444021169665075e-01,1.962980568438427165e-01,-1.769125432065634940e-01,9.261616549809618959e-02,-6.738208289912797078e-01,-4.772348947581613876e-01,-8.976307704598986970e-01,4.954223689037064449e-01,-4.772625923003703252e-01,-4.596921589658576335e-01,-8.450046448760057949e-01,-2.498544441917664172e-01,-2.070493676674447503e-01,1.655277762462945002e-01,-4.979112067551060838e-01,-5.145343411250763443e-01,-2.282831755492625847e-02,-3.215888353469581462e-01,8.752579605741611646e-02,-5.341804283599190795e-01,-1.930658706918054468e-01,1.362299700889066711e+00,4.785423794888862270e-01,2.036511403029114542e-01,-1.260093289263546079e-01,-7.638685729461507368e-01,-9.526755668029848745e-02,1.252794724042928465e+00,4.694268734163420387e-01,-4.720150136019426457e-01,2.828849269566506841e-01,-3.104759824540613833e-01,-3.047516205189987337e-01,-8.083907648221364539e-01,-3.086677091975950638e-01,-3.040496551913779988e-01,6.787006294330077960e-02,-3.368797326908935016e-03,6.025504580849734559e-02,3.560667424838395156e-01,-8.484091053312697861e-02,6.887174494531169699e-01,2.866345918714203189e-01,4.740375815326927644e-01,-8.477210007051585450e-01,-6.653714907686937297e-01,-6.182942580923103115e-01,-7.533546976704645903e-01,-2.107352783424195353e-01,-4.146259297048668357e-01,-5.994562694457131746e-01,1.067697235553097590e+00,2.123148194924251164e-01,1.166338525404847087e-01,3.671431565545408421e-02,1.223974007514522407e-02,-4.261256900098913669e-01,-6.108522030218759280e-01,-1.065860607610250449e-01,-8.638251027003577276e-01,2.893320729854347850e-01,4.492520620866631287e-01,1.152466090514639302e-01,8.921614140127240855e-01,1.483826240315720413e-01,3.945072292848617740e-02,1.369267631078383285e-01,3.688875155397175476e-01,1.769201727014477532e+00,5.669352345751592637e-01,9.983069564688162867e-01,3.528692683189075807e-01,9.411964833962149779e-02,2.860945848803441716e-01,-5.964901178339555576e-01,-2.449747565924941528e-01,4.385028985889218300e-01,-4.138807975584977705e-01,3.630434808340930464e-01,-5.158911969773272155e-01,1.591981487959781560e-01,1.453189141165863507e+00,-2.147880161840486080e-01,1.911744680761192083e-01,1.234867377413020363e-02,-1.555182542844292248e-01,2.242015283437815976e-01,7.217800700037203809e-02,-3.974430628581671621e-01,-5.532423848422400869e-01,-3.087898131421693004e-01,-5.077334606374194204e-01,7.302898448750434479e-01,3.055295054166615731e-01,-4.913031207241246867e-01,1.774846371346089635e-01,-3.665777894510123813e-01,-5.360376941105901016e-01,-6.364681828670111507e-02,6.109295275038443412e-02,-6.555200561030205542e-01,-5.871427093277016285e-01,-3.751800234983361237e-01,8.177490417265445566e-02,-6.582980575833069503e-01,-6.816079378096423502e-01,3.336064711657820148e-01,1.842065020040382639e-01,1.149311555098396553e+00,3.644530187471173299e-01,-2.482752903981021164e-02,8.865134282638343910e-01,-3.616145171383120527e-01,-3.345831460029818349e-01,-5.013369480768574693e-01,-6.240824689735054998e-01,1.051885416348477653e+00,-3.803641960359404051e-01,5.732479971092920845e-01,1.969261022736963129e+00,-1.163383229367693922e-01,1.570723905229028106e-01,-8.103752799382595295e-01,9.015242026865725178e-01,3.139454788386135120e-01,-2.778385287459900765e-01,-4.320914760991935721e-01,-4.350736419085962092e-01,-5.081773931117408716e-02,3.393307268062519672e-02,-1.914116864291542930e-01,4.520228540245513904e-01,-8.431074071018090921e-01,4.680232977814838269e-01,-8.100201647936293714e-01,6.436143335353858852e-01,-1.270066129603404093e-01,-2.049165273237778528e-01,-4.238025051471870919e-01,8.002612870433073455e-02,-6.382036970295662526e-01,6.470177988687283999e-02,5.159291529286718081e-01,1.342913694236879119e-01,3.211891211734101970e-01,-3.952392617430490751e-01,-7.290777456209793783e-01,-3.761016130644861954e-01,2.758201495857751651e-01,1.197125050712324779e+00,-6.540097631442731707e-01,-6.443766282100563680e-01,1.399061777256553063e-01,1.402236047586349121e+00,-7.073938762446774220e-01,1.849933034244347907e-01,-7.673804632614328325e-01,1.559025631650681198e-01,-5.170768474354663358e-01,1.125125198403827548e-01,-5.759072271844221103e-01,2.509595206129312528e-01,-3.692079905412400942e-01,1.943599923053083156e-01,-5.983676205295403866e-02,8.063046320809565126e-02,-1.327618971463459807e-01,3.823650633644355978e-01,8.903563513299231902e-01,-2.454391412218258073e-01,-2.231830106592051777e-01,-7.422267828224466957e-01,-8.198841906185315720e-01,-3.762243545514046272e-02,1.283761513962196898e-01,-2.581852988754933589e-02,6.843259378644382940e-01,-7.772834708738345366e-01,-2.461269253394133549e-01,2.493100170322496423e-01,-7.669736607442754206e-01,-6.074749759986407538e-01,-2.571659887059057348e-01,-8.488110666682721073e-01,5.310936604060871868e-01,-8.381227687846364016e-02,-1.281441796265996302e-01,-3.866870364733127757e-02,1.645550575267459015e-01,1.358052704140737532e-01,9.625904666062988779e-01,-3.785349077651404270e-01,9.891200815893941289e-01,3.001167434042131821e-02,-4.796449258147487682e-01,-6.048567301821160536e-01,2.171016569812169283e+00,2.331127216412467729e-01,-1.941049691950877676e-01,9.667499719444853923e-02,9.248197698319242654e-01,5.493615699530655233e-02,-8.122345428156062530e-01,-5.793523711636328066e-01,-7.470537308306939017e-02,2.636345324366700105e-01,-3.598108866655166937e-01,-4.270907216935022621e-01,1.617116621891842576e-02,-8.617819406396072246e-01,-1.812820691507453230e-01,-6.321817719582731865e-01,-2.098092570984913252e-01,-1.441825103953052745e-01,-3.163632697847159475e-02,-1.991610417455445814e-01,1.342273246079226157e+00,-1.892956797304349847e-01,-6.098447691386204433e-02,1.937298158128541170e-01,3.049357243443602816e-01,-2.424354413673605602e-01,1.471634715100062496e-01,-5.248682664306723866e-02,1.240271183055945310e-02,8.564098155347079633e-01,-2.336079754545377918e-01,-2.672840614263836678e-01,-8.506750992066987038e-01,-5.344721226834168171e-01,2.444688293152366576e+00,6.764260138383402232e-01,5.705489406018087600e-02,-3.878864733757930727e-01,3.570116208193654939e-01,2.839406471960372047e-02,-5.120059207806848534e-01,-2.219464773828217219e-01,6.525199877095275713e-01,-2.053695257540151253e-01,3.448510710089361386e-01,7.669071590199189048e-02,-2.650914356933832816e-01,1.649462745782469542e-01,3.695501625164329118e-01,-7.080752534640198936e-01,2.578578541300153848e-01,8.915546415525910096e-01,2.090484321478139063e-01,-7.000161099178796587e-01,-4.341517714074994427e-01,-2.000105101596566792e-01,1.180466761245080543e+00,4.627472898167862662e-03,1.344209414339052389e+00,-4.020315505287926916e-01,-6.565352830899124914e-01,-2.896207171201325981e-01,-1.837585908969674442e-01,2.688737316786662945e-01,-8.146747585329043861e-01,-4.041650413516010287e-01,2.623273572817904631e-01,1.906016820412655521e+00,8.544719622555358926e-03,1.662012277537633642e-01,8.089002703534389216e-01,5.619877291137237441e-01,-1.706140629154929700e-01,2.833148753051688562e-01,-6.367463875083970715e-01,5.087951288992291765e-01,7.175830337884332444e-01,-3.720209954512830874e-01,1.921656817026052566e-01,1.281154743966543164e+00,-6.020476295747650280e-02,-4.362224424669305378e-01,1.142293990896850325e-01,1.277576692537258640e-01,1.008623501555904411e+00,-2.542537727339777009e-01,1.586903245834551113e+00,-5.859110814457509919e-01,-4.679234455799973769e-01,-5.847184938278702365e-02,-2.828727458400084327e-01,1.650888049410356995e-01,7.754930417142387455e-02,2.153861819896574492e-01,7.251279332613709272e-01,5.171720736771586724e-01,1.163309081002722678e+00,-3.112886759321422184e-02,1.504292604400610245e-01,1.521792818727540908e+00,4.822061930086349868e-01,6.545652915427532803e-02,5.513446899982493710e-02,-4.436287731397215578e-02,-2.495534455624208170e-01,2.673877471693528740e-01,-4.416960001460763507e-01,-6.721815988620942761e-01,1.242132589677330756e+00,1.858308876188614206e-02,-6.832441338903788575e-01,-5.705076345707904562e-01,1.386614718889128017e+00,-4.216938993891446441e-01,7.864565289859929420e-01,-7.615595507113065432e-01,-1.367112855293109164e-01,-6.836086822934793472e-02,-5.889585036247271810e-02,1.362808409517376917e+00,4.897559671020766392e-01,2.668268647637059843e-01,-6.562983757049578593e-01,1.627174784202897462e-01,-1.082831249462395534e-01,-8.210117527037597007e-01,-5.989606110876564138e-01,3.287488755991824774e-01,1.768568527468253673e-02,-5.347303174732838116e-01,-2.882890562690240133e-01,1.588545042123490125e+00,-2.853713484416822710e-01,-2.265589488860008660e-01,-3.906678998933702657e-02,-1.398318300134498982e-01,-5.575511191003259537e-01,1.340150255602479690e-01,-4.102503289777877926e-01,-3.089353449801938711e-01,-8.663212646511435633e-01,5.154390139315712105e-01,-2.658516924116433588e-01,-1.111501762219017919e-01,3.947395161263596020e-01,4.942411801664779725e-02,-3.700618200769301147e-01,-1.362126203252194551e-02,2.057721789173934390e-01,-8.769319351406312801e-01,2.621431381668882787e-01,-5.568363638860972520e-01,1.858796892400489953e-01,1.453368941690279074e-02,-2.197277447221682722e-01,3.416596721243335688e-01,-8.228392601267705553e-01,-5.813324029033568596e-01,-4.015006947224563083e-01,1.012691467048521810e-01,9.086267149119298114e-01,-9.170854453412412635e-03,-4.688856983368932391e-02,4.284251997773815684e-02,-8.581448864581080471e-01,2.833565492690059973e-02,1.933258560046460794e-01,1.022258689667634002e+00,-1.963093283890458285e-01,-5.769936980144235728e-01,1.781138814468436193e-01,1.033988390446577199e+00,6.140128867266188284e-02,1.253517922533151419e+00,-2.499722072944286777e-01,6.917826257596557671e-01,-8.053492555950768628e-01,-1.497396488580889362e-01,-2.881966920234081408e-01,-5.710500323871581935e-02,2.874624005883472666e-01,-3.259516957975114315e-01,1.039796267493513504e+00,6.990218870463343892e-02,-6.208302035352231130e-01,1.332010260519657652e-01,1.367429032364810282e-01,-8.726676203544858623e-01,1.644200545621124776e-01,-5.353146225104052913e-01,2.000296708886403485e-01,-6.836981670074471218e-01,1.781062143342827087e+00,-4.342696450649400353e-01,1.975971161727888281e-01,1.514837430717163036e-01,2.998357997853485224e-01,-8.121706930138733460e-01,-5.077492537573031761e-01,-8.017863307675233697e-01,-2.904947733344222516e-01,-6.468633355840236465e-01,-5.337617512800389985e-01,3.843442870052415361e-01,-8.069467796543553506e-01,-3.708066498680444995e-02,-6.936591695881225705e-01,5.324768351355982920e-01,-2.114812282859237502e-01,-2.073319001864245004e-01,-7.384061600727431784e-01,4.849472117795722848e-01,-1.990501497021727739e-01,2.167648191567377758e+00,-2.536103471130774500e-01,-7.631845294351415898e-01,-2.219052289416074686e-01,4.345349775848791340e-01,3.352111577769585626e-02,-6.727680243958607254e-02,-4.962728921695896411e-01,3.347073187119671833e-01,1.874840399660998858e-01,1.264870622862850347e+00,1.686939671722640852e-02,2.465290644829440658e-01,-7.851665336049770683e-02,2.349991834584939099e-01,9.551713057891708658e-01,2.857151679506836905e-01,-9.313770798590447209e-01,-1.958269476721218594e-01,3.977870826592871945e-02,-3.141264717128885442e-01,2.708243163552070398e-01,-5.496753784371222890e-02,-1.366240270777229482e-01,-2.097087740434326886e-01,-3.640202801074444161e-01,-5.636211248369499272e-01,-4.951673558364166894e-01,-4.207986388895583185e-01,-4.107812102343642580e-01,-4.491871807106545544e-02,1.253051642504428909e+00,-4.111444382975354972e-01,3.581307456558026070e-01,-3.674666559750009442e-01,-8.974147622773366306e-01,-5.817934755131105584e-01,1.503321893516370134e+00,-8.680835130737722949e-01,-4.049160079867903383e-01,-3.061251915154405423e-01,2.185608551371116259e-01,-8.861690770673803785e-02,-5.619498399414931539e-02,-3.209473829606188881e-03,-6.002153577635177539e-01,-1.386963324992436866e-02,-4.262633552738300802e-01,2.644957097977584493e+00,-1.833764553985232637e-01,1.054310252149913973e-01,-3.177140155745246664e-01,1.737964439735036004e+00,5.479027217107943631e-03,3.554763452445206529e-01,1.959951779913914893e-01,1.145283691129780346e+00,2.778647708431151719e-01,1.397257353442246663e-01,1.511308093913812656e-01,-1.732734073904291516e-01,2.647604503383487629e+00,-6.698918055748647182e-01,-1.646279116079063520e-01,2.752949955739804611e-01,-1.525638457928327751e-01,-2.921971653748456910e-01,-1.811820746246833869e-02,-1.986982835514466694e-01,5.067921984101508154e-02,-1.330662695606691093e-01,-2.971117144596546189e-01,2.508710609752168395e-03,7.509106990595302289e-01,-1.146721672943387949e-01,1.577745443797544445e+00,-7.674568785534489068e-01,1.244831363536922780e-01,1.701799782599676680e-01,-4.482767478806382599e-01,-5.303527036388568927e-01,-6.416733719099673716e-02,-1.661226585527283139e-01,-5.260697259979861817e-01,-1.200967478415647521e-01,1.641351772934085407e-01,-1.222574652116309446e-02,4.067244923711773458e-02,-4.444179818666308401e-01,-7.041495018127572059e-02,-1.024583210323548772e-02,1.214609497711785918e-01,-5.619866152475202492e-01,-5.731349609900872055e-01,-1.496915638504882073e-01,7.384759702663065140e-01,1.059865250036855056e+00,-7.242869843414001529e-01,-1.924061324656596017e-01,-4.909997801926605510e-01,-6.587618648551850642e-01,3.524443307349683363e-01,-3.312853847443421040e-01,-1.243940693551552068e-01,1.674270815240229915e+00,1.482566737119529222e-02,-6.178037861406768805e-01,-6.699005951626886279e-01,-5.265621941592906197e-01,-6.142367644206709887e-01,3.962487237637469795e-01,3.335738943014198710e-01,1.363321642545901602e+00,1.082169265726210666e-02,3.879825058312696417e-01,-7.405063562244318387e-01,7.215391978450947930e-01,2.007582146145146795e-01,3.176941981856071240e-01,-5.569375014239937860e-01,6.070809874773532844e-01,5.542474071055434326e-01,3.943998303716294562e-01,9.650332620629541169e-02,-2.916005326231964068e-01,2.659430899731541342e-01,-6.961162337018048096e-02,1.094636830978395370e+00,6.427957317953429950e-01,-8.846369703316557809e-01,-1.521300634451979716e-01,1.117832496450517493e-01,9.291446541763255240e-01,1.458065190890328322e-01,1.314352247003142793e+00,1.047159174309173046e+00,1.235588553279527019e-01,-9.976905547294387389e-02,-1.785341817300125922e-01,-2.877587786198836373e-01,1.435084109088750060e-01,-9.467620911929575112e-02,7.403006284891143485e-02,-5.890791780267441435e-01,1.233686781973220459e+00,1.318333204434222750e-01,6.806324199967241917e-01,-2.986218366782377176e-01,-7.643300824327103893e-01,-4.432542524342258372e-01,-7.745882454263205985e-02,1.119369817788549160e+00,1.108222807554921363e-01,-2.539872925096458567e-01,8.556475195982945481e-01,7.350681454588687824e-01,-7.645389597049996322e-01,3.480590272149422515e-01,9.812937630760962815e-01,2.035328937153640105e-01,8.692571174995079586e-01,-3.309614055324818227e-01,-1.298810714421867185e-01,8.344359964178964528e-01,-2.461863144233849832e-01,2.658956264171967107e-02,3.593635729093729303e-01,-4.032859446320920527e-01,-4.707570431908185138e-01,1.792842704281204791e-01,6.717789760645898056e-01,-3.149560651432221220e-02,2.267212659105352357e-01,-4.249654050840878661e-01,-7.415942632049965511e-01,-4.667252388672475660e-02,-4.902414899893324240e-01,3.698521084620520205e-01,-6.531180554877512590e-01,-2.226798758291597957e-01,-6.577594585422054108e-01,3.115141031984433595e-02,1.393246771266792638e+00,-3.585188240174301266e-01,-7.962971686141120387e-01,-8.712885516717979728e-01,9.659654549115724576e-02,2.590583770470688552e-01,-5.418428782909737729e-01,-1.523130272323094392e-01,4.820381633116610498e-01,-6.342276272359661515e-01,-2.839447953592811880e-01,2.001009111583261779e-01,-6.047059920608152117e-01,5.628421069477965721e-01,-8.655496475814745683e-01,-3.464253842118045212e-01,-3.478389389737648885e-01,-6.724047632616970693e-01,-4.804535687944351263e-01,-3.046831711860727432e-01,-4.258226459459401592e-01,-2.261487438495618507e-02,1.725552844000702857e-01,-1.948209830106866491e-01,-2.837165229904316244e-02,1.158111399878494652e+00,6.320994658846005448e-03,8.504870712280263589e-01,4.860327901436468923e-02,1.740493009439560979e-01,1.507696406058977590e-01,-3.982695436604785089e-01,4.996120633520712007e-01,1.473568905496301651e-01,1.312908066638032167e+00,9.702635170379531049e-01,-7.279921318038640177e-01,3.369000736933425166e-01,6.498602671446657153e-01,7.396576787049484736e-01,1.390654118578562137e+00,-8.566866429506918568e-01,-1.214954771316364562e-01,1.575968922629739088e-01,8.672739360884293980e-01,1.306850600142366314e+00,-4.503242389751768160e-01,2.038263576463978377e-01,-9.108193727973417086e-01,1.343742816677588048e-01,1.011538816336923496e-01,7.018424843083055642e-02,2.476512637098119973e-01,4.119049816680749876e-01,1.905232493918912751e-01,-8.287772730220224204e-01,-7.038731922086236548e-01,6.848549612237913031e-01,-2.730273646352066597e-01,2.969151265593211964e+00,-2.027369169641312363e-01,-7.767591971281538887e-01,-5.828645200857780484e-01,-7.067254834198947178e-01,1.444223569184907574e-01,-7.423132135221590655e-01,-4.347952674289306541e-01,-7.858509779812500318e-01,-8.036261863230665936e-01,1.921404484219928488e-01,-5.048755445251630336e-01,-3.277118211447909157e-01,-8.977008376083469576e-01,-1.526728788143034421e-01,-5.634215754929937370e-02,3.962522488158376488e-01,1.309044254448429589e-01,-8.616989258091849180e-02,2.784901844246306379e-01,-2.868226488070272362e-01,-5.060749802965761601e-01,-2.041929407431586005e-02,-4.391975623774013737e-01,-1.721586171531480358e-01,4.421424833300958146e-01,-3.251118644035808081e-01,3.097350872815784473e-01,-6.185756272105039644e-01,7.144787853038381265e-02,6.092848864495274963e-01,6.129190083181459414e-01,-3.910690997400790847e-01,1.929319497525451288e-01,-2.303341988717909072e-01,-4.254988030110108954e-01,-6.495386018801834194e-01,3.977182435676835937e-01,6.855108752153512564e-01,-2.284988792393780888e-01,5.887120482223837659e-01,-3.442951875970145514e-01,-5.222600534411676598e-01,4.601763045784277306e-01,-4.718070752296279480e-01,1.234633471296559953e-01,3.023634988539539159e-01,5.790400087068626744e-01,6.209694635680021620e-03,-8.505193389075512700e-01,-3.078176703939725645e-01,4.660030486514545878e-01,1.501959321307188011e-01,4.430786827117860760e-02,2.856185637567724700e-01,1.245083909565102148e-01,-7.454536534370848067e-01,-3.752952423127713100e-02,1.882417941670730066e+00,3.223879111223912908e-01,-6.742048928793119289e-02,-2.436644822164971969e-01,5.363414404845382594e-02,-6.396931927470422830e-01,-3.272025452161550496e-02,-5.411555961298242234e-01,1.976324599877811172e-01,3.052786476242898561e-01,-3.239863701524001716e-01,3.599985328160278386e-01,3.155641466921409455e-01,-2.089758775157147253e-01,-2.905946550325917976e-01,4.361130993024491254e-01,2.748481038411315081e-01,-1.552111481838587270e-01,-9.222042919632617020e-01,4.195155050424712734e-02,-5.111596824065768319e-01,1.190428658926837441e-01,-2.180137668154856490e-01,-7.523464645095103709e-01,-8.467326861531135895e-01,3.272352673781367405e-01,2.763158531057385847e-01,7.664782149826592228e-01,1.102649809586928598e+00,-1.010754070020487561e-01,8.813284964408379940e-02,4.299886583176203980e-01,-7.784362759503589135e-01,4.368607957086365068e-01,2.652521074985710881e-01,-6.908085490437108900e-02,7.655323452697498920e-01,-2.210609550170813675e-01,-8.967366798791041038e-01,6.848702646118675075e-01,1.433982801629633819e-01,-2.616283009498752143e-01,-8.274317416510997003e-02,6.881918710529426608e-01,1.466445724993420130e-01,3.189176153605551289e-01,-3.885445522716384215e-01,2.407356877874965662e+00,-9.138531848558206772e-02,-7.582215949833261970e-01,-8.346477897601306539e-01,1.987011286769900797e-01,7.234879448130470125e-01,-5.354923922804882830e-01,1.269331204930441437e-01,2.675732768268802020e-01,-6.103359289277339172e-01,-2.085056439215710045e-01,8.417635902178573215e-02,-5.918195669173901274e-01,1.107316424435997454e-01,-6.173038457194446327e-01,5.013357857630081765e-02,-2.398033936020647350e-01,1.305180554942248383e+00,-7.647020731137648131e-01,9.959655988012078298e-01,-6.963350483051621298e-01,-1.122460711233956160e-01,-8.262136877778788469e-01,1.165827740314822614e-01,-4.862172519159948525e-01,-3.846299619257716462e-01,3.886395838395481639e-01,-2.621888957966667655e-01,-2.180046418325091301e-02,6.047179037981299521e-01,-5.279427245489015652e-01,-1.876383343136591719e-01,-7.033862870412115331e-01,-7.411330904527332342e-01,-2.677049921631374230e-01,-5.450393228964741654e-01,-9.254030686743615342e-02,-6.175077857971713602e-01,-6.675093262526834437e-01,2.723298968589056845e-01,2.757005384193170205e-01,7.333559355021934678e-02,1.390715785636487817e-02,-7.140140026597687761e-01,-3.257363105718615870e-01,2.688629351266211831e-01,-6.182918286666869712e-01,-1.087448959610356758e-01,9.593526258847012711e-02,-2.271604642833698062e-01,-1.144569285807961051e-01,2.493605044884264210e-01,-7.788298892005278695e-01,-4.792504888379834904e-01,-2.229947030418606979e-01,-4.128645207212371798e-02,-4.653259942089601475e-01,-6.819930511586951294e-01,9.759494219005726556e-01,-1.522574568929585537e-01,-4.731200624695526824e-01,-4.711513880514185404e-01,-6.327618925239622549e-02,-4.305304661294992452e-01,2.103311148605545300e-01,-2.045652118241995943e-01,-4.291667493960151791e-01,5.529518015496402983e-01,-3.376489354129827425e-02,-7.307669650237447190e-01,6.007152646371808347e-01,7.138994161323426735e-02,4.248000482163707958e-01,3.989051947877585436e-01,8.659585023920048918e-01,-3.213368723911919859e-03,-4.622578718900746120e-01,-8.049252630498252570e-01,4.006115198365855501e-01,4.330499156072711159e-02,1.734625763497205098e+00,6.172845177462999988e-01,-8.286252944307417323e-01,2.077890861172742465e+00,2.417325111562028672e-01,-6.649046441291379950e-02,-1.400553974141857672e-01,1.267862818499998045e+00,-3.168757181568537806e-01,9.076691869502169219e-01,1.291634638336257301e-01,-4.107814162485966536e-01,1.507948253381464175e-02,2.586195793097148532e-01,-1.000811637391683107e-01,-1.803153601050541954e-01,-3.040962905028814500e-01,1.348215040607429360e+00,5.864780304746767259e-01,-7.298140509443663548e-01,-2.401554121465175606e-01,-4.026567984664136124e-01,-3.529681302555751632e-01,-1.831552006609744043e-01,-2.395156950486443115e-01,-2.874134965155746291e-01,-2.822428545029337932e-01,1.222787334801240244e-01,3.080261587517354460e-01,-5.280259610013315202e-02,-4.630296960344564838e-01,-2.352459616801624298e-01,-6.576220583175692580e-01,2.411902643206718100e-01,1.808271349969696462e-01,-1.208080756192340122e-01,-7.031646154734557674e-01,-6.449418121783442870e-02,1.023441637064357729e-01,9.633279469199923506e-01,-3.445759969353872076e-01,3.742675395661253512e-01,-5.082062520742911677e-02,-5.507304356061663020e-01,6.332401431531125002e-01,2.288888112277638331e-01,-3.669013425074558188e-01,-1.451828601976114519e-01,-6.975472709525918358e-01,-5.880188849783976046e-01,-2.077141055977738404e-01,2.510800519669139641e-01,7.115848172481541445e-01,9.222185833940910182e-02,-1.570627241168399057e-03,7.263742204183820661e-01,-3.734538877098932119e-02,-5.692871893184616727e-01,1.465246187066226169e-01,-1.077474923820517516e-01,-4.761887752243680995e-04,-5.134834631910725200e-01,-6.330836911999463412e-01,1.008794112408419041e-01,-8.661711090060025819e-01,-3.051865116101878384e-01,-3.660689704825191293e-01,2.694830469848238930e-01,-6.297602184871096132e-01,-6.374397331789491972e-01,-7.278059740715482340e-01,2.584335391364799284e-01,7.676923365288984558e-02,2.482726508133503360e-02,1.017180816803415627e-01,-2.417701614297358970e-01,1.071224797636199488e+00,9.138862055466495660e-02,-2.973242999800752018e-01,2.377116074519943223e-01,1.138781501967665921e+00,-4.857693763731362191e-01,1.668300492647588396e+00,1.056861692288474153e+00,6.839819733368229793e-02,-4.532398804487110522e-01,4.323270610777150968e-02,-8.219334695354837406e-01,-3.950203152992720623e-01,-9.647553340125555876e-02,8.429518092420041908e-01,1.240822878126048440e-01,-4.986010271156235407e-01,1.407345351628308261e-01,-3.594426465587226560e-01,-2.680272414779383966e-02,-4.586829391611941809e-01,7.174167281436645283e-01,3.155391785186771880e-01,-7.599554654511424534e-01,1.725035391855475275e+00,-3.153763588388408534e-01,5.096183699842997683e-01,-8.991224590345072709e-01,6.222126317535249251e-01,8.089166363877781096e-02,8.186983292048194416e-02,1.983191653004908295e+00,-6.947351479167134247e-01,-8.647754851897579975e-01,4.267285999577136169e-01,-4.678635106844444835e-01,-3.379290713707572835e-01,-4.177400229431941781e-01,-2.656141770540187408e-01,4.142126958994000185e-01,-2.855837768834569856e-01,-2.671325836282743005e-01,-7.979196897407310196e-01,-6.003011301547075407e-01,-1.753202759773510033e-01,-6.333715677771488695e-01,1.058866034585001392e+00,-7.143680220943696701e-01,-1.512691990320124413e-01,-5.051435611766201816e-01,-7.205641000978734168e-01,2.528715540903632153e-01,-5.445508082328603949e-01,-3.114309192836161033e-01,3.457131908737905990e-01,8.668798066553508319e-02,-1.967399729047026105e-02,-1.727670241105241089e-01,5.298925881336510879e-02,2.363758084508253976e-01,-7.807490111829799018e-01,-1.088468672246989816e-01,-6.702856338193284580e-02,-1.524883820537910883e-01,-1.358333077445876835e-01,-5.034596147476410044e-01,5.091282920043376237e-01,-4.298215502005726940e-02,-6.842948126511337881e-01,-4.902164208168325876e-01,-7.995052740380306777e-02,1.853902444422219353e-01,-3.386941818128955672e-01,-4.229394550871596881e-01,8.689784892994758744e-03,3.741683565098174458e-01,7.309856080375100040e-01,1.038944439682493691e-02,1.946850040813143723e+00,-8.282862533628936041e-02,-1.345968765766193675e-01,5.129221905938489978e-02,-7.035601801967970026e-01,-2.785294634557542448e-01,3.716722762629894872e-01,-1.063676515769658021e-01,3.399285876339308010e-01,-5.168901854840070031e-01,-1.695792758509251374e-01,1.371778066998386447e-01,-1.394333952332321158e-01,-1.875950420750612246e-01,-5.229152293671343044e-01,2.491408497489734086e-01,1.968611505758428304e-01,1.768023583229370310e-01,-4.750732763606285713e-02,4.517121998466382959e-01,4.125850779792463729e-01,1.307900644865959972e-01,1.655477727293730661e+00,-4.714498477916193031e-01,-1.409230026804628444e-01,5.953394095379713757e-01,1.275990924478635491e-01,-5.442892752221999420e-01,-7.869916122424704119e-02,-7.018383866991567688e-01,-8.727874685246945763e-01,4.193671412220415506e-01,4.586160115289521916e-02,-3.457838293264912655e-01,1.745731204911920090e-02,1.174145883077748059e-01,-5.061810372222971255e-01,-5.756814493017863021e-02,3.112459363658695577e-01,7.436148888601474827e-01,-3.175651831051412577e-01,3.903308513612285813e-01,-2.906729456985173710e-01,-5.381540707853860184e-01,2.890318122726058259e-01,-5.928625410533371332e-01,-2.302944183257403521e-01,3.232672175356224864e-01,3.613125648245005817e-01,2.788123053323804390e-01,-4.391201308328119279e-01,1.251263958571262158e+00,9.424679097025554508e-01,-1.615675421259610001e-01,-8.026706355364133794e-01,-3.730455101715170474e-01,2.730751949835891201e-01,-3.378724098813079557e-01,-5.129140302888320901e-01,1.937716867965821321e-01,6.982156391848876043e-02,-2.793533295242260905e-01,2.787132007047938842e-01,3.864582288028678980e-01,-5.714399526547617736e-01,-4.746153105482006640e-01,1.517450677023607808e+00,-8.254256060553010199e-01,-7.279550321795000833e-01,-6.022634209336794608e-01,-8.359830681213272774e-01,-9.719864980322065473e-02,1.175280518806468555e+00,2.016585417741792785e+00,-5.096270507537997707e-01,-9.101618540030379512e-01,3.202639630382160818e-01,-5.924181082758794847e-01,-7.593311524786984235e-01,-7.870247053093045730e-01,8.390461396342889788e-01,4.396593093231895288e-01,-6.186165091049161679e-01,-4.854247542023018003e-01,1.467406211638712765e+00,2.079943557455882774e-01,-5.845621876408514384e-01,4.124301108130765670e-01,2.692920528663367841e-01,3.074462331756233069e-01,-7.295232017860259210e-01,2.436691497692634878e-01,-2.482696874101436579e-02,-7.933962116842664392e-01,3.073823972018810413e-01,-9.931261274874136902e-02,8.152220160860211562e-02,1.343987229101128111e+00,1.152832160928939365e-01,-6.977102798458244548e-01,-4.129867292474581619e-01,1.138568065427515652e+00,1.102230202597089814e+00,-1.233921875344306113e-01,-4.849566070133087131e-02,-7.815579486793771125e-01,2.519775842967634794e-01,3.548326425361052472e-01,-3.990467263702105472e-01,1.193886262178309510e+00,2.394894470408902298e-01,7.151215605948418874e-02,-8.001427991641576476e-01,8.787642062529041342e-02,5.617959724318044579e-01,3.531811682173844336e-01,-6.610017463265047688e-01,4.528624070105392030e-01,-6.655449905577918157e-01,1.592519850189905994e-01,3.479639981073370247e-01,-6.519039884905163396e-01,1.402044426738939809e+00,-4.267323789491085928e-01,5.718440444237599118e-01,-3.771694751352624997e-01,1.913394041549428826e-01,2.666132667676044399e-01,-6.049665440915870107e-01,-9.157417554595217446e-01,4.429026222468203100e-01,1.109787483387629781e-01,2.400230646005874907e-02,-1.269269710597972500e-01,-7.430934412025806957e-01,1.545785744635225889e+00,1.776829077912630839e-01,-5.970357466941575986e-01,1.171709866118889470e-01,9.587792957013507866e-02,7.102575819390050116e-01,-5.659056541937271811e-01,-7.475818093310494517e-01,-1.409425902174619438e-01,-4.041561882335556466e-01,2.925248334115764237e-01,-2.473327810309194907e-01,7.332857213183378020e-01,-1.264451411524094016e-01,-4.867420069592984788e-01,-3.341828306787147929e-01,5.158354348425948643e-01,-2.362089816970144862e-01,-2.332106981950604618e-01,-3.767916549429760620e-01,2.875695237503023693e-01,-1.635212415875918757e-01,-8.512258994751946695e-01,-5.820870430280782326e-01,3.563720985370711358e-01,3.875067496358021724e-01,1.226625508512568574e+00,3.626347118312838180e-01,-3.246070035314395641e-01,-5.835974510491405143e-01,-1.536128219321865052e-01,-8.285811202726113267e-01,7.176801474444822748e-01,4.810815362414077034e-01,6.103001106879929472e-01,-1.332729313794723536e-01,1.434858306283548934e+00,-3.723078239108272847e-01,-4.421753455958026269e-01,1.439006617940918442e+00,2.048771546811247457e-01,1.775532576720285194e+00,1.080290063031627223e+00,-7.486129314478033869e-01,-7.810206915672628369e-01,-1.319444790738096840e-01,1.071778511895643896e-02,1.267880396150719013e+00,8.849847011844093059e-01,4.185676801760199184e-01,-4.586832497150414301e-02,-5.651983122069599297e-01,-3.313391430263223358e-01,4.368266432484257389e-01,-4.372191524757557124e-01,5.291402061065415552e-01,3.234067857601927720e-01,-4.309260982328066425e-01,-7.008592858326900821e-01,-1.481388105751979545e-01,1.040497640965348802e-01,-8.068511757456049427e-01,5.944169904030625062e-01,2.754020871146811711e-01,-4.120324938175748408e-01,-1.156126455652513318e-02,-2.555577698991424174e-01,1.978084932639832122e-02,-4.445579948285184324e-01,-1.512040575182730662e-01,-4.902254425909576274e-01,8.590901292539682155e-02,-3.549851988345206766e-01,-2.183182473777998955e-01,-5.780273690139436926e-01,2.974140238754188759e-01,1.164351862650698788e-01,5.985899790413204413e-02,2.382023633419476927e-01,7.734033900990534560e-01,7.132303835241770029e-01,-1.670722836729166272e-01,-3.947470417334005832e-01,2.746008420745330025e-01,1.014219265710264661e+00,-3.345942468847534768e-01,7.827287468183287134e-01,1.044690966140194022e-01,-1.591495997698407772e-01,-5.544164922776245730e-01,1.371085845371180223e-01,-6.226489613697804293e-01,1.029765961748981690e-01,8.052359325963266423e-01,4.518220887616802295e-01,-6.769890284484329779e-02,-4.531272434092122742e-02,7.656692363285612368e-02,-2.927821226618071981e-01,-6.648886958967764604e-01,-7.080799794103976863e-01,-8.541870726087583687e-01,-6.300671335916691040e-01,-6.829888948787224967e-01,-2.057690346660026037e-01,1.736385484023848402e+00,5.101011405562441148e-01,3.049222291338715696e-01,3.932991360230931321e-01,-4.498177811531577919e-01,-6.545704051907782484e-01,7.986056207711299260e-02,1.963941707833992412e-02,-7.381315462787297887e-01,-3.124430965901383583e-01,-6.664586274487881434e-01,3.971242678399353743e-01,-5.368580043345759778e-01,-2.659476771056532574e-01,-3.695383346401757974e-02,5.894664440433874386e-01,-2.667010584835773912e-01,1.664160376472267888e-01,7.204331824795691397e-02,3.318911714006095859e-01,7.093153262802626147e-02,-3.685976851911978436e-01,2.423027107704105176e-01,-1.659240819020260105e-01,-5.227023375109124403e-01,-3.551084467976444170e-01,1.755725687120786305e-01,-1.062513555540746946e-01,-2.219546532105295955e-01,-2.260158851085420639e-01,6.370584364223506046e-01,1.534634956029373165e-01,-5.001303542647071998e-01,3.916956011881841254e-02,9.339534821137251974e-01,-6.291031871314420876e-01,2.746949621160059696e-01,1.965470135582202960e-01,-7.642748268090096553e-02,1.590610746230077255e-01,-2.558277513700325523e-01,-4.316109579477254710e-01,2.535032059133945914e-01,-1.148259852330866804e-01,8.783753851621048936e-01,2.318118617333241038e-01,-3.038050335990715167e-01,-1.537305019236040113e-02,2.880503942018260988e-01,-6.063736366594230098e-01,1.181952026198688083e-01,-7.114181993039384588e-01,3.217148095820865916e-01,-6.380785511136048971e-01,7.325457345466642733e-01,3.787444208951118996e-01,6.050731564039520949e-01,1.240919524380206529e-01,-2.179855634572800405e-01,2.493442440596545240e-01,-1.765254768551984543e-01,4.444855188859477280e-01,5.763656378439150352e-01,-4.498927905330989824e-02,3.755078603684058325e-01,3.823915283739067195e-01,-3.035072249494685792e-01,-2.487328048011083204e-01,1.398280360548653511e-01,-3.358408297305218171e-01,-5.402833974107020820e-01,-8.056980497410785869e-02,-7.585963659541803406e-01,5.879635656064381433e-01,-7.118036838034611513e-01,1.095234267199581835e-01,4.851782674770771520e-02,-2.707916648417172945e-01,1.853742700992077885e-01,2.935086124900149196e-01,3.062177775874165564e-02,-4.084879973275051812e-01,-2.758607397574349140e-01,-1.774747069297891999e-01,-1.947206696467078113e-01,3.842323861180740874e-02,8.409747218723473416e-01,-4.804147246843422647e-01,-4.617526552986954136e-01,2.261849539459056535e-01,5.929158790631693376e-01,-1.553878792424265021e-01,-1.003759982056419559e-01,-8.289167924677134924e-02,-5.206521626431698246e-02,-7.397577050334176452e-01,-7.581426538642309643e-01,-2.874597600561494826e-01,-2.908472100962500861e-01,4.246303760591478849e-01,8.360052746051395145e-01,4.909773003995025059e-02,-6.213149280382699313e-01,-5.437601829774607598e-01,7.890846560205519999e-01,-3.640371539339856688e-01,6.324494734380473604e-01,1.728821942828869807e-01,-1.286146240236192284e-01,-9.966184953014894932e-02,9.847478261838304991e-02,4.027644483615933080e-02,6.131819108008300656e-01,3.258183583532843763e-01,3.609090391674533160e-01,1.766868761407708543e+00,-6.883747628918674977e-01,1.413064559862152070e+00,-7.240671081276971871e-03,-6.563190361547801242e-03,-3.738053387326866761e-01,8.960605694968817314e-01,1.280699693131809314e-01,8.022086651755725439e-01,-6.471084047051034460e-02,-4.434582649718835090e-01,-1.626537339598624898e-01,6.071627706231930155e-01,-3.978522999027444551e-01,-7.785374304684316016e-01,-7.651528731751074119e-02,4.126617769251783030e-01,4.047794592037586292e-01,-6.513352460271500943e-01,1.402498416839258744e-01,1.607386302384180843e-01,1.470277087320504827e-01,-2.291710395114067156e-01,-6.354445170076367111e-01,-2.564190284905125128e-01,3.729901388997373113e-01,2.695818650737467626e-01,-6.208150681598876425e-02,-3.095886870970565030e-01,-9.070480697091412026e-01,9.341525050999937019e-01,1.632078020192902906e-02,-4.152617466464185725e-01,-4.061240525003242952e-01,-6.843343888750218484e-01,-6.356211824327036020e-01,7.597382269043693181e-01,-6.135607806455872781e-01,-3.804910114618849093e-01,3.785048920142130569e-01,-2.256253769081684735e-01,-7.762803326649583280e-01,-6.844069679628808078e-01,2.349752366496428990e-01,-6.012042393279054542e-01,-4.673032809011305050e-02,1.295828504317941166e+00,3.529262506047862735e-01,-7.521732257096567231e-01,-5.156223901844112500e-01,-7.939596385513458809e-01,5.387524426523168097e-01,2.390194297789092759e-01,1.144723015318815706e+00,-2.014861041739085812e-01,-2.880859610980089913e-01,1.466058225872661325e+00,1.081972133245388878e+00,-7.782854045541756083e-01,-2.214782783603361227e-01,6.083161376998521067e-03,1.095483974918429332e-01,-2.721028081293405676e-01,5.467257760745202616e-02,-4.825505704690131736e-01,-3.937736469640388259e-01,3.362368097268861877e-01,7.107544545427061378e-01,-6.839266527081578895e-01,2.886374670488636163e-01,-3.246318691155950509e-01,-5.960522740661848839e-01,8.771592919567253871e-03,4.177019071430271291e-01,-6.763457413227832449e-01,-5.255120771234100818e-02,-1.939244703077658977e-02,1.622211804364422638e-01,1.198921690499272497e-01,-1.062525320233773524e-01,2.103432233346312630e-01,4.468147709896577169e-01,-4.048470759641792371e-01,1.353412802215193389e-01,-1.521067560137896180e-01,9.642787525876789223e-02,-7.261927359138883320e-01,1.151945582015134528e+00,4.924641802838737314e-01,1.758852316319277909e-01,-2.188651988910403912e-01,-8.164097690349434444e-01,-2.593365914778889558e-01,-4.156592376773542430e-01,2.683451051054471792e-01,-8.724590895263437673e-01,-1.036205130552874248e-01,1.370193884176620081e-01,-2.665990242579849845e-01,2.914169478895093854e-02,-3.356958633767722633e-01,1.961299347332796372e-01,-7.718065437932631889e-01,1.406372118760257639e-01,-8.478276568043043859e-01,4.218756660867470365e-01,1.575889628956301525e-01,-4.832786724646556120e-01,-4.975723261493517069e-02,-2.259500381384617895e-01,2.951390591889929693e-01,1.315379674368597263e+00,2.071176584707528634e-01,3.182030050290718393e-01,3.594090660027984829e-01,8.252385628582156740e-02,2.766299861619706535e-01,-2.726276985608082626e-01,2.896763973924898483e-01,6.158604194547330213e-01,-5.118436523684883888e-01,-5.294155804856305325e-01,-2.196713938066993110e-01,1.031092616533147988e+00,2.264844895908262601e-01,1.719233569064056555e+00,-9.119447584686383168e-01,-7.753691773545346999e-01,-5.444923973409269147e-01,7.189376231696289477e-01,-2.071876027014768473e-01,-9.062371890862437329e-01,-6.253355787627015161e-01,-4.005473857346946720e-01,1.709888812651976786e-01,-3.933931675756958679e-01,-4.123067442101885360e-01,-8.006651449766045703e-01,2.085997199422678694e+00,1.842043542551970559e+00,1.058327025121551662e-01,-3.051889368130281666e-01,-2.696675086290479806e-01,1.953950653987341912e-01,3.900608708993279217e-02,-2.840384439457726562e-01,-8.904878709183869367e-02,-7.414670418098279203e-01,-2.155032335807456900e-01,1.553565849635494753e-02,-3.463886141490363224e-01,-1.026114247948192865e-01,1.613166766365145277e-01,-7.420907454351934884e-01,4.647158173695893797e-03,-4.179918831351981390e-01,-2.443305323493902836e-01,-3.323931920334700640e-01,-3.025601589801657498e-01,3.857202527979043949e-01,-4.543497149171289995e-01,-2.084942956837345096e-01,9.661668785401500426e-01,-5.316398414140545148e-01,-7.611432925649020964e-01,-1.077632408325859825e-01,-2.468507634760740699e-01,-9.048797817911707897e-02,-5.219748497892344741e-01,-1.775691070931085802e-01,-5.483668825856188311e-01,-4.011990453256309985e-01,1.152481251608257429e+00,-6.836736534601886017e-01,8.813433274871128320e-02,-2.163962484761492167e-01,-1.490724098465416869e-01,8.883001473490088618e-01,-3.367450792187356434e-01,1.367185808417007653e+00,2.079243490334885813e-01,-5.365118327341402704e-01,-2.293104681172736248e-01,-1.267763366906533296e-01,2.547018756912284854e-01,-7.011047939206338508e-01,-4.175499333587225775e-02,9.716552695578174470e-01,4.834347922441586398e-01,-6.754896421915533855e-01,3.425254090101790272e-01,-7.510578417120494787e-01,1.544113682898581030e-01,2.075664262202386590e-01,-4.842467603746836158e-01,-1.340471194437219127e-01,6.639869569154990270e-01,-6.574335831885164128e-01,-6.935874865645047516e-01,-7.411951312586714802e-02,-7.962796569369055000e-01,6.850595653123695006e-02,-3.905559925508447772e-01,-4.550832444099653373e-01,-4.713370456598141578e-01,-1.042551143152437160e-01,-5.358732114054232110e-01,1.956519001087833887e-01,-5.720142626674383779e-01,-5.202615720210879147e-01,6.578021668659159715e-01,3.783707589297429230e-01,-9.204103412227822301e-02,-7.519389870689362487e-01,7.336105092799589666e-01,-6.032506948202487340e-01,-2.812582199531627469e-01,2.387133234805162707e-01,-7.222358016820034088e-01,1.083164213261898490e-01,-1.989126534932612322e-01,-6.899456330462944154e-01,-3.240569374954353488e-01,-8.526703774585533968e-02,-7.354232696631785027e-01,3.952646673657497223e-01,1.105389708121658154e+00,-5.091292573856107673e-01,-4.606354425454642354e-02,-4.881846600390516433e-01,1.186884365978824407e+00,1.717103225774332942e-02,2.676337988471643392e+00,1.254747052178593336e-01,1.025609140985738431e-02,9.241414117948767437e-01,6.568331006359852120e-01,-4.633637579644866444e-01,7.018812662328398344e-02,-2.980376607708501990e-01,-8.674395068552066546e-01,3.055368047148587229e-01,-1.501661282705647193e-01,-4.060836664372680094e-01,-1.640026251995774231e-01,4.608927296512840277e-01,-4.055710071630171804e-02,1.538957535932286846e-01,-3.907456949993586837e-01,3.777017686395312684e-02,-7.177767526917625540e-01,1.439606972552307074e+00,-9.134768924610210394e-01,-7.162234695090361480e-01,-1.032888715002037994e-01,-1.567575249271864956e-03,-6.368543308505411060e-01,2.965704136678917191e-01,-7.704053030198990681e-01,-2.765640582043871198e-01,-2.720642053514446546e-01,1.045783568547884596e-01,-9.629726615883283519e-03,-4.663480548739817877e-02,6.979005238185646831e-02,9.972992014394315152e-01,-3.533571062800808793e-01,-1.406061095946545825e-01,-4.202861599680940974e-01,3.713845389998098878e-01,6.042767050840487375e-01,-7.458156236705471009e-01,-4.321824115784954068e-01,3.644510604760459183e-01,7.644341134462194765e-01,2.433482017309668843e-01,-8.905510635727057478e-01,-1.417349038672811694e-02,2.415775138039629177e-01,-8.893161040379803373e-01,-2.949322413989792224e-01,2.018876606722737499e+00,-8.840379437014768763e-03,3.003343937423378351e-01,-6.733366874160913174e-01,-6.938907647861632944e-01,-4.100330955190315679e-02,8.242333019102340286e-01,-3.398099392022801979e-01,-5.816569690854784813e-01,-8.041744937034038532e-02,3.002956115187428443e-01,2.400038846566042994e-01,2.500979670186829651e+00,5.541910578410386146e-01,-1.385198066174573028e-01,-2.120448754009200965e-01,-6.585750032444671160e-05,-5.221368764662642076e-02,-4.264079477966709053e-01,2.396490952022434784e-01,9.160212313506463921e-01,-7.747212623771833062e-01,-1.540505509988268368e-03,-7.727081331840214284e-01,-4.368134825060654980e-01,-6.721672319124744055e-02,-7.847836258648277497e-01,-7.563164014055300255e-01,9.975564965728137001e-02,-8.791286848479140659e-01,-2.562805462269144435e-02,4.012982440736812539e-01,-6.844897066101648386e-01,-6.617177996919670901e-01,-1.555942394268320927e-01,2.998924126750380781e-01,-5.856771314149989971e-01,-2.578377206782774822e-01,-8.379777779462930232e-01,-8.934697865352385637e-01,1.499453425770118087e-01,2.550926479589555873e-01,-5.330823184465028897e-01,-4.184403501945748727e-01,-5.068430168516185191e-02,5.206736014225061826e-01,-4.519026649561637687e-01,5.966516811101753998e-02,2.731815587457470662e-01,1.197666955718027726e+00,-7.711769971696946779e-01,1.591891300877766424e+00,2.087939613302916275e-01,4.215332688595153088e-01,4.715202010191292814e-01,-8.752199472098843858e-01,1.284829317024646367e-01,-1.565837967071799786e-01,-9.697738365696201290e-02,-7.271830735518429734e-01,-7.150739200212988811e-01,-6.526509347516231685e-01,-4.505563957170417022e-01,-3.469570531985951001e-01,1.254269451887141951e-01,4.377585279142128249e-01,-2.291943160239268695e-01,1.194564207642628162e+00,-6.200382119322462859e-01,-6.624816158777795116e-02,6.075271191351635514e-01,-4.382729191916359679e-01,-1.859024939669087495e-01,-2.100690149669387774e-01,-3.967590636924589464e-01,3.589512387264221123e-03,2.202229776573677925e-02,-4.637428637826714745e-02,-2.510135206386962786e-03,-3.992268948224153916e-03,1.348299034861429047e-01,2.246869493717667809e-01,1.896786803669815724e-01,3.774103881494240142e-01,-3.282631273713187414e-01,2.159085553576159389e-01,-3.700546157125929048e-01,-5.221424616412149167e-01,2.083761553456954907e+00,-7.163819051006288241e-01,-3.131363294217964083e-02,3.255245079766497796e-01,4.903507408034159520e-01,6.553878527996528369e-01,4.743967933278452759e-02,3.596373471426357951e-03,2.575209364591391492e-01,1.120617560337148766e-01,-8.889647633070402177e-01,8.828442680598515002e-01,3.983414191007739885e-02,3.560003754217456740e-01,-7.722103950206080647e-01,-2.725905424818476086e-01,-6.539059963637326722e-02,-3.127124358539716265e-01,2.201671887188446086e-01,-3.011203456435408432e-01,-2.779730196007358309e-02,-5.430282920981890360e-01,-1.269555573468895138e-01,3.367794981771972673e-01,4.162555130355807820e-03,-1.548070136605939062e-01,-2.287546595411098782e-01,3.419334518712249804e-01,9.182545448148352052e-02,-6.368522179267487315e-01,-7.050947808684367990e-01,-8.816083151269445486e-03,-1.128330147110578885e-01,3.780430781292041797e-01,-7.188679920448950433e-01,2.524118908583662391e-01,-8.105395907833315983e-01,5.009256874215542998e-01,1.045536665781549024e-01,-4.959596706207788364e-01,2.369158438092506258e-01,7.245211403937433514e-02,2.099098742103865656e-01,-1.048131575012684474e-01,-4.362584045651562992e-02,-9.634684057537863666e-02,1.081546943505755504e-01,-6.552823794870310525e-01,1.853038888792377659e-01,-6.170398792145242312e-02,9.908941132568573062e-02,6.309732856982017135e-02,4.434383349137818731e-01,-5.022213653045500825e-01,-2.004538926129815490e-01,-4.628252500724126459e-03,1.671283691547938988e-01,1.911960367664942151e-01,-3.492178910647067425e-01,-4.865049055180721282e-01,-3.330183763278853348e-01,1.607511593805444616e-01,-2.994124640772246604e-01,1.817777633217586841e-01,-1.407863732797921263e-01,-3.737320662685767458e-01,3.761023973850775581e-01,3.559028998462362980e-01,-8.174072481058201889e-02,-5.992270896259571655e-01,-1.924923779858604966e-01,4.094778345226695038e-01,1.288161710676765104e-01,1.314726359807754763e+00,2.989866641183429596e-01,3.694478336249287787e-01,-1.469735826716215762e-02,-5.665348151277463939e-01,8.672345952748556908e-01,6.731132596814822788e-01,-9.997601578334952555e-02,-3.124932935682467328e-01,-2.923721266971919808e-01,-5.224932532899679849e-01,9.208532459794432912e-01,3.423787381000696350e-01,-6.308170999635197285e-02,2.895248517533758337e-01,-4.213288999075887054e-01,-3.574510184748304065e-01,2.990859875440269877e-01,3.716066762378779642e-01,-4.979184383889154741e-01,4.566942096339805524e-01,1.343376003603228064e+00,-1.024986942136700274e-01,9.499111611808767064e-01,8.549323015018396588e-02,8.216494054148580917e-01,5.702051301076487000e-02,2.645304522505697031e-01,-7.791248580097501764e-01,6.745645839069035199e-02,4.485566995192472595e-01,-6.151498701996646057e-01,9.141861427592015699e-02,-3.845439733540229610e-01,2.423394277221448678e-01,1.161424067189762654e+00,3.128357099337435998e-01,1.003258758425975339e+00,1.317301455444863378e-01,8.827679339421772298e-01,-2.270030480770183490e-01,2.188669827792379952e-01,8.609607645941061982e-01,1.108072260439501466e+00,3.312486842428385980e-01,-4.730320051925214764e-01,-7.147276849462405601e-02,2.762164372960790315e-01,6.144792777505311832e-02,1.354162775862077228e-01,1.751906992270623742e-01,4.474304121078068706e-03,-2.647919375230424199e-01,-1.938217369944575941e-01,4.999746004236421126e-01,5.544278514603202535e-01,-4.927617648147782359e-01,2.272323801694865697e+00,-5.024265756933407046e-01,-2.628533341725413086e-01,5.701896614743331981e-02,-7.315874438619494879e-02,1.572185249063249080e+00,1.596378932981193932e-01,3.180787903987535303e-01,-5.664215713690003984e-01,-3.572717476977103623e-01,-5.354495143725695322e-02,6.378304015583174946e-01,2.869432443744597827e-01,-6.913377837605955145e-01,-3.133303523221231957e-01,-3.910358236688553368e-02,-3.109751498007015114e-01,2.487131536301106782e-01,-1.581951260409217019e-01,1.152591172401757902e+00,4.107082957651281285e-01,-6.937552466004299756e-01,-6.778990998566959414e-01,5.012414310806519863e-02,-6.217406540976322393e-01,2.258201339241594843e-02,1.311915705529411724e+00,-4.121285387831057911e-01,-4.168082685988481750e-01,-3.053525090048513912e-01,3.217220601630345067e-01,6.192924763850033570e-02,-1.126247184385539279e-01,-1.309960319631115477e-01,2.344377087095062817e-01,6.034754619415674121e-02,1.299599099103380395e-01,1.216871776756148077e-01,1.133675434285718736e-01,-3.431303057807642554e-01,8.189627041392034679e-01,-8.677802175422443254e-01,-8.556180099467662892e-01,-6.175222410180792876e-01,1.692375824535417850e-01,1.403605184166019981e+00,-3.375475684799255499e-02,-3.204769156815339901e-03,-8.786069146168700161e-01,7.555412636229527634e-02,3.125236561379486355e-01,2.442590033201895994e-01,1.161986674164341843e-01,-2.248506340158915318e-01,8.190155052986171080e-01,-1.354774863171207822e-01,-4.472529178945746642e-01,-6.604851672194962386e-01,-2.826624425075018876e-01,-3.276867489603949579e-01,-5.171914775674871789e-01,-2.870872669446169478e-01,-1.096295903058983612e-01,2.514325814863517250e-01,1.898618282840456750e+00,-6.020556059578229258e-01,1.632404604341508303e-01,-2.428439130691229797e-01,4.031449188267040573e-01,1.160553549779701488e+00,-7.241766810126564202e-01,-5.456132021703012473e-03,1.508077656332711125e-01,8.335649828524491767e-01,4.643768745540801657e-01,1.465099338362899906e-01,-6.837603320947407415e-01,-2.382154804330971487e-01,9.620516503155099319e-02,6.012109939471450559e-01,4.591738366350024414e-01,-5.197828718207104792e-01,-7.751444863046434985e-01,1.123452025318749659e+00,3.793745740249175324e-01,1.949511238051153117e-01,-4.088247329353340009e-01,-1.920765319573821683e-01,4.748536137236675780e-01,5.074657179942992924e-01,3.026697188991651077e-01,-2.798629559457143645e-01,-6.002770100892927951e-01,8.586617869641848255e-01,3.514695644354800530e-01,8.226994824412913188e-01,7.212557086408181162e-01,-5.585581025012809064e-01,4.875886924387381333e-02,4.279391831327858942e-01,-4.451529790793213870e-01,1.552749395669087984e-01,1.796758107901531787e+00,3.336069963179394970e-01,2.221486670330752311e-01,9.105914190627890925e-02,4.872844005397451994e-01,-8.170375152494693261e-01,-3.416983014865757062e-01,3.119554187815596902e-01,3.960723608915891480e-01,1.141645971704114033e-03,-2.217401788100679672e-01,-4.808543066217138007e-01,1.167659754117830601e-01,-5.084266145047220409e-01,-3.239224782385575208e-01,4.110089127362737682e-01,-1.485329287032573775e-01,1.636877074266088472e-01,-4.888254817366219918e-01,-1.846623714677773642e-01,-4.225836514696642565e-01,-6.654622377246555143e-01,-2.829677037763155822e-01,-7.672615394235114961e-01,-4.259460337945654151e-01,-4.258047328799149239e-02,-1.396612957076280928e-02,4.832772803952660734e-01,4.194679597233473833e-01,2.192802274003511631e-01,-1.658078694200253445e-01,2.170690458945906121e-01,-7.168867828662591757e-01,-3.336159140006300650e-01,4.071089791106143330e-01,9.825866770605787837e-01,-1.923341858525483006e-01,2.799430786157764417e-01,-3.255014570481583602e-01,-1.018211212299558049e-01,-6.216619268954181043e-01,-4.245116993919327286e-01,-2.966825647057306781e-01,4.722545025943319374e-01,-5.659740856032676598e-02,4.410041813710192660e-01,5.437664495005891524e-02,7.368890254524091965e-01,-7.851465462813800311e-02,6.763910407981421624e-01,-7.380806455673153410e-01,1.784828943995813988e-01,-7.128871848684777968e-01,-7.745574563313194494e-01,7.865947938596146161e-02,-5.116418115843240910e-01,8.973611602453834823e-01,2.136752182479389750e-01,6.429200720734634666e-01,1.780271813787005941e+00,-3.500830390312792417e-01,-1.860170943955618272e-01,-2.183566971841069404e-01,-6.650206164961286470e-01,4.407555370546538120e-01,3.227942948196304562e-01,-4.042771934803082723e-01,-3.046697081669061946e-01,-6.095494530324940818e-01,-2.843326731238434713e-01,-4.706332144742698120e-01,-7.690967980907182922e-01,1.045320991279406586e+00,7.878994531905507415e-02,7.714864549604688593e-02,2.649385114410833797e-01,1.567022972259618507e-01,2.526547004045895384e-01,-6.279692889844687986e-01,-6.035645650187433375e-01,1.716022661150046202e-02,-1.993633719264435167e-01,2.352276612072365103e-01,1.302808724333331114e-01,2.105534827424491717e-01,-1.339219081209249429e-01,1.033437482816877973e+00,-9.255716661631294140e-02,3.141733667280415254e-01,1.738182086294647544e+00,-8.286407692671248215e-01,-2.411406858790346996e-01,2.941639082220305346e-01,-6.929382396492225760e-02,1.834377165893669726e-01,-5.144474120548597762e-01,5.928745032901102663e-01,-4.150397703614468470e-01,5.415262891066570106e-01,-2.736221834582405199e-01,-9.036402215623691447e-02,2.933223506414248116e-01,1.829470960473040531e-01,-1.042462053506799380e-01,-8.782968113946492128e-01,-3.626699576699307093e-01,-5.676187382110450264e-01,-7.574709959917668156e-01,2.242344000026027240e-01,9.185783556964092350e-03,1.112472628923153323e-01,-5.624662722145685745e-01,-2.562825734695530766e-01,4.670612462088913897e-01,-3.386038183054577710e-01,7.083450891210849032e-02,-2.126492604285120866e-02,1.986498489788714572e+00,-4.502403718282337874e-01,9.857968978918381364e-02,2.512383318827940415e-01,-2.126163622165960498e-01,2.737342677735828400e-01,-5.357925036974570121e-01,-6.417879477109413866e-01,-5.459245753546113633e-01,-6.498018493712115484e-01,-7.597426221343083208e-01,-7.645084509932830175e-01,-1.637262426793226200e-01,-4.386428478384424290e-01,1.460966177375024877e-01,-5.923338079254577559e-01,3.531322020342126354e-03,-5.501863151581714018e-01,-5.806792530827196153e-01,-3.870885466702665978e-01,1.669725585405598123e-01,1.580285373857904796e-01,3.585614493983387691e-02,-9.916938748634378242e-02,1.507131362419779907e-01,3.713199274241643644e-02,-1.769053342622264047e-01,4.958323695189194580e-01,-6.730469855472497320e-01,1.024592672053092457e+00,2.350471631742502010e-01,-8.469006929965776642e-01,-3.155227541396792845e-01,2.367803578093540806e-01,3.389013416846821114e-01,1.898663882330737032e-02,-3.086601916729546646e-01,3.135487576966690393e-02,4.168522973448192670e-01,-6.048328099326155671e-01,-2.411480913889720579e-01,1.498795812291390472e+00,-1.061540041813331808e-01,1.699058977769521417e-01,-3.833208223159038641e-01,-6.333546267807176056e-02,-5.988034587091939365e-01,-1.255579325349420461e-01,-4.645933287204811468e-01,-5.156952236844635218e-01,-7.441404927604227115e-01,5.793417533686187060e-01,7.167129144751813730e-01,2.107467525383354204e-02,-6.538406061382192602e-01,3.955257013163186730e-02,-6.328144058523894611e-01,9.925990807108597824e-01,-6.075920814030175698e-01,-9.779808377198694058e-02,4.198018521261948771e-02,-2.335093573631745467e-01,-5.937280052950123510e-01,-3.323341696889710040e-01,-4.119987127616107220e-02,-1.170894915204629405e-01,1.478784349521680364e+00,-3.994902206264714928e-01,-8.710105580936691183e-01,1.126145176581109908e+00,1.070164881473297580e+00,3.118354369773331802e-01,2.766359829822298555e-01,-5.780156574121303459e-01,1.894013766873774429e-01,-2.760019365842405481e-01,-6.169295801341265761e-01,1.449077304380125719e+00,-6.320378142916028841e-01,1.151489828938132787e+00,-1.016787478294132602e-01,-2.963929698469678908e-01,-4.796299723848750779e-02,-7.068733957075641339e-01,-6.505079416644742318e-01,3.225288453858541349e-01,1.463358235878289726e+00,-6.067510060919014681e-01,-2.231422794762881190e-01,-2.111589699516366880e-01,4.956034907923465571e-01,-7.199162905093954290e-01,2.858498523602071462e+00,-6.189010391492247853e-01,4.911561008114311289e-01,-1.648894185115998834e-01,-2.350633544063061020e-01,5.176933263373068028e-01,-3.386485512351097849e-01,3.005188390017938249e-01,-6.975695357661071405e-01,-3.844471871895410037e-02,-1.844629475615627290e-01,5.199947409070870136e-02,-1.151141301243905346e-01,1.306842765217784696e-01,3.978257407466312401e-01,9.001024620723924174e-01,6.433973007886057971e-01,1.557257616437523806e+00,-6.091570599539136710e-01,-4.380153812654741796e-01,1.845855101369587026e-01,-4.561308945762918010e-01,-1.343867859318758906e-01,1.653726311262911919e-01,9.550090826540133526e-02,7.269491806045064175e-02,3.447496186386800887e-01,-2.832023827742520816e-01,4.307628579783998601e-01,2.968347817021708135e+00,-6.937653593789014916e-01,1.261303671835290463e-01,-3.493451542437737145e-01,1.520879602174453948e+00,-4.922761006784386884e-01,2.546748628811934534e-01,-5.888376198406864992e-01,-7.833401027111724924e-02,5.607221362175801582e-01,-2.388045567467367986e-02,-2.812114687790031597e-01,1.136671561910769457e+00,9.042474857367777119e-02,1.278078962865272672e+00,3.300627553850322797e-03,-4.230171839875152551e-01,1.370146782975368183e+00,-5.004299501623887814e-01,1.324251308833867879e+00,-1.659696286199624504e-01,-8.686874670850073255e-01,-4.563178690970407514e-01,-1.091659797515677210e-01,1.135962630779495441e+00,-5.848886554803516269e-01,-4.386375447991957416e-02,3.013169761599512886e-02,-8.957916178845795052e-01,-6.962946927416783227e-01,7.999804316916586666e-02,2.947271689968291031e-01,1.717900181687715411e-01,3.318372273238900383e-01,1.109197283290939806e+00,1.954071232185412843e-01,-5.100775845839677913e-01,-2.096762347909992066e-02,2.721012771211233638e-01,1.331973376336254011e-02,-1.219743121402264291e-01,4.243434669916592572e-01,1.993578732078214455e-01,-1.586691605127613924e-01,5.959017793873810920e-02,-8.406592571006316073e-03,6.489729780385437019e-01,-7.492570408496583845e-01,1.603163008100334519e-01,-3.897140664779326080e-01,1.154337367496033773e+00,8.456233122720225870e-01,-5.126112790576801137e-01,7.916353765423682354e-02,3.635725928071285584e-01,-4.757750418369078860e-01,3.733039436638083824e-02,1.711294664767286644e+00,-6.205075846096379522e-01,-1.214167473333094827e-01,-1.946809827702406515e-01,5.754436988416591348e-01,-1.833814944848911055e-01,3.441714452132593194e-01,4.943171334396112560e-01,2.396406283345328347e+00,-5.576974570473709480e-01,3.173699423644125717e-01,7.787542674308861601e-01,-3.158224716764220230e-01,-7.076132368136668349e-01,-6.956942050573675651e-01,7.806227193951532639e-01,6.663533065688805046e-02,-7.657418938628568483e-02,4.228382847928952581e-01,-5.932980318598815028e-01,2.665255275703697357e-01,-4.407433524748734510e-01,3.771353235506083035e-01,-2.561038245706188654e-01,7.189647602183337760e-01,-4.719463938814266041e-03,-3.219634417951700578e-01,-8.020082184841371697e-01,8.456086921551030366e-01,3.551929073717068897e-01,-5.822800003756094245e-02,-6.482414005505186816e-02,-3.455686135422201821e-01,-7.292817975663556940e-01,-6.223882414016248532e-01,-2.271458082266118172e-01,1.179949399725404996e-01,-5.375882220065447692e-01,3.206093807381740213e-01,-5.314251517464916308e-01,1.226870799053685623e-01,-9.093446118511080423e-01,2.400908773068963775e-01,-2.819572547623582781e-01,1.097946715506360693e+00,-5.784069094489715512e-01,-3.025418402830534412e-02,-4.779078210835870782e-02,-1.461489081975492210e-01,-5.551788696881482243e-01,2.158116298031825253e-01,-2.760993282771442500e-02,5.325866656630213331e-02,-1.662872149034882174e-01,9.504880663464152502e-01,1.180549370654153440e+00,2.200539627040623558e-01,-4.829336832339076180e-01,-1.925536067316527267e-02,4.040131591700422686e-01,-3.857718024128626438e-02,-1.727378742747639750e-01,-4.731368086727842370e-01,-1.266742006708045654e-01,2.238290308304239362e-01,4.213745327216573688e-01,1.448750865946397438e-02,-3.899429101761629490e-01,1.221132777579897688e+00,-5.811626002252504586e-01,-4.546918518621664851e-01,1.805115852946276647e-02,5.020871854066624174e-01,2.058989926331705050e-02,-7.089292681098139370e-01,9.047166992419262144e-01,3.020921005306623219e-01,2.971741152970167055e-01,2.879049631465903283e-03,9.017607908547428108e-01,5.299051030264222417e-01,1.634989068424282488e+00,-3.853012207156025770e-01,7.370762273643391982e-01,1.473884057666511982e+00,-6.777990481716119620e-01,5.483254506726686905e-02,1.321029652945503896e+00,-4.773295421406326122e-01,-6.008284584382164173e-01,-4.887481778609334415e-01,-6.752753870500842748e-01,5.913989829008168275e-01,-5.476415610874781903e-01,1.952047212060681325e+00,9.942688135274652117e-01,-6.661098401984841821e-01,-5.218708390206840964e-01,-6.208301419044204295e-01,1.205446004623348943e-01,-1.048622835301096096e-01,7.386278982046586838e-01,-3.453736101759687371e-01,1.122049377785899194e-01,-6.438888154458264346e-01,2.390895683596667987e-01,-5.071213442653778047e-01,9.327586337173363606e-01,2.001870051969659170e-01,7.703961702081328911e-01,-7.819362773752412954e-01,2.092810124356359325e-01,-5.932749470523004387e-01,7.683053642927170079e-01,1.121479984203765795e-01,-3.684826802871038476e-01,4.808895156772612089e-02,5.705466182073565262e-01,4.809989821292353640e-01,-2.085600687504104434e-01,3.814344652616599718e-01,-5.607012561332510581e-01,-4.129068851805976770e-02,8.679297822733769152e-01,-6.308507085606628317e-01,1.747734008522318749e+00,-8.799949690553098280e-01,2.181224196672087168e-01,-6.289190347545965676e-02,6.927787328196218786e-01,-6.723676954730169186e-02,-8.237198983830089638e-01,2.281149502120840417e-02,-1.501246147417709398e-01,-2.411251981121055044e-01,-5.265056649442467762e-01,-6.182127656138787231e-01,8.690769548890392437e-01,1.729589079760772419e-01,2.228375470589458451e-01,-3.402427877607169804e-01,-2.437083015873545699e-01,8.216160750790087175e-02,-6.892575095936935570e-02,-5.051492105932309240e-01,-3.699578426219114480e-01,2.905733478041315765e-01,2.998787506166020883e-02,1.794557349680633296e-01,3.309064865600391120e-02,-2.532539240209071840e-01,1.237466615401353165e+00,-3.350797463559460065e-01,-1.270645870358811380e-01,3.979415126803017011e-01,3.129112578644801523e-01,-8.528633675400532077e-01,-2.715764557563926096e-01,7.792729423498434560e-01,-4.245527982134871814e-01,1.107289249717699209e-01,8.323197086892590857e-01,-1.405085206053138247e-01,-5.785970178335119174e-01,-2.573259477484816649e-01,-1.662047669868313149e-01,8.713512445360430125e-02,-5.324572700278245030e-01,2.014570182593283521e-01,1.049953906462997022e+00,-7.095205897245786542e-01,-1.557811288093419733e-01,2.019031107657120461e-01,-3.828284229987821696e-02,9.817986229815698351e-01,-7.628473488151427118e-02,2.030169719408257967e-01,-3.877167821570662309e-02,-7.130905900803995445e-01,-5.294822018919763673e-01,4.971513761918168184e-01,-1.707403944208510660e-01,-1.100081382614349484e-01,1.135908293805784619e-01,1.096225729534729826e-01,1.947421005639781155e-01,4.488304055472979587e-02,-6.645231625593757130e-01,8.473974260917938039e-02,-8.162106872212241404e-01,5.465628036004275409e-02,-4.920168168282111343e-01,-3.051735566300750047e-01,5.018302843634705468e-01,2.356334208595027291e-01,-7.907884952504171672e-01,1.347984403271097698e+00,3.343312597220388094e-01,6.550990323571630469e-01,2.146620405601453452e-01,2.953715315970199123e-02,-4.677953113128834328e-01,1.029298756475170995e+00,3.738313199229882922e-01,-8.903834720280283666e-01,3.616235746550767183e-01,5.016288404024390468e-01,-4.944770254120103153e-02,-7.021427852205417430e-01,-3.325180549522405715e-01,6.545778016366733398e-01,3.739369348419646633e-01,8.769237100419292885e-02,-8.557408739946760212e-01,4.981742861263906974e-01,9.595712069072098727e-01,-3.158734223311456812e-01,3.656559026232822363e-01,1.612680515895610900e-01,-3.352278996733925598e-01,-3.538775636117001411e-01,-3.506102623601178858e-02,1.319195753541788432e-02,-4.328322232948208503e-01,-5.867017793289371896e-01,4.377222932028815294e-01,9.437232063307327001e-01,1.789891635375960632e+00,1.632865410748890467e-01,-5.461962796330691594e-01,1.193598504260563242e+00,-4.713115980369154689e-01,1.413297768067084924e-02,2.594521479775964701e-01,-9.361000805725641638e-02,5.166681540574754455e-02,-7.301924363854738198e-01,3.906023214088839013e-01,-1.640011840757579775e-01,1.327802931583084711e-01,-5.021287674014891511e-01,2.813383385763875144e-01,-6.720206498388726635e-01,1.555424959752799985e-01,1.699396005016422073e+00,-1.297744656567637600e-01,-1.570914705577057813e-01,-4.372105575527904797e-01,4.015407870454492656e-01,3.378314752972843005e-01,-4.082666838724929165e-02,-1.897273308142280179e-01,-6.814988386076440419e-01,-3.448631097373871524e-01,6.568432152499048549e-02,1.758264920025186973e+00,2.474844812539714611e-01,-4.050912119517313670e-01,2.234071591511962440e-01,1.642877281308754156e-01,-8.248255595833693388e-01,-1.559130499297694261e-01,3.832393661778270566e-01,3.086214873950787196e-01,5.889256762508605220e-02,-1.445371977138423247e-01,-2.222994794903487004e-01,-2.231650564419692534e-02,-1.706115661574348630e-01,-6.388584772544296797e-01,-1.517940331240039131e-01,3.376984848657525462e-01,9.208528150903948495e-01,-5.009626629180658625e-02,3.050558922831065889e-01,-8.847069580038553482e-01,-6.901630408213585977e-01,2.805549687690130356e-01,7.339191905370870406e-02,2.242630997946663818e-01,-4.268229552289327100e-01,1.063629090397685273e-01,3.188360973372306173e-01,2.441369311251902763e-01,1.382784579324851382e-01,-5.919808131595188927e-02,2.092728892875420632e-01,1.657799848659111466e-03,-4.192334238226205073e-02,-3.297175808437853295e-01,6.722760811845017725e-01,2.936641324954087917e-01,7.626505455155017932e-02,3.888249010434277064e-01,2.079179864484430595e+00,-2.651387484795230676e-01,9.222922001225799526e-01,-8.360965324912438268e-01,2.206020768493640316e-01,-3.056923046192257590e-02,2.629054641040448614e-01,-5.714276181355125717e-01,8.402661843162593236e-01,-6.380209673320483832e-01,-6.063495040315783902e-01,1.959557636426623617e+00,-7.827161111572265018e-01,-1.361745522964167843e-01,-4.573203118441046544e-01,6.657027245298617890e-01,2.658305757025378885e-02,3.883829895546280775e-01,-2.231769264542741438e-01,-9.329105732177047638e-01,3.594394805869224885e-01,3.546081396090813298e-01,-9.111980793503665632e-02,2.266832441441060386e-01,-6.888741673465301751e-01,3.114927943933635257e-01,-2.175775782466083663e-01,1.844332300493938814e-01,-5.691776828646587516e-01,1.511686710908604070e-01,-2.509201486067597076e-01,5.765901486167970269e-01,3.671239870263046101e-01,5.552011663987578283e-01,-2.011303107548593760e-01,2.340857065772302681e-01,1.303638380489036575e+00,-2.405615773574667215e-01,4.880216072616347933e-01,-6.486282249318218174e-01,1.531640285191615547e-01,-7.769386181865167718e-01,-2.192556446351879018e-01,1.399293605809436292e+00,2.507180143766652436e-01,-2.074989672187923240e-01,1.969377180435955443e+00,-1.727722043484090919e-01,3.505012184437250600e-02,-2.654688086637371214e-01,1.349835848196917487e-01,-5.978813862012724023e-01,-1.933965142619785416e-01,-5.239346552960657544e-01,-9.728556320276617042e-02,-8.427646059925607558e-01,-5.205212383715197566e-01,-5.325048689869625873e-01,3.233810896289234793e-01,1.220914896234274738e-01,4.705691058245982661e-01,-2.764810682234595807e-01,2.292166618930467081e-01,-1.501726616098613132e-01,-7.456056371982587860e-01,-8.058647836396830577e-01,-5.955347396096165591e-01,2.065502065419057010e-01,9.251649085842633680e-01,-1.015863395538172398e-01,4.307515237537112851e-01,-1.926849045401609895e-01,-3.534956012151160287e-01,-2.794694403608528610e-01,-6.032001219893095012e-01,-6.549834793960396251e-01,-2.737164195471722405e-01,-7.159179296661648539e-01,-4.918513013108226639e-01,-1.824837651002771122e-01,6.112130031403569808e-01,-5.369678441297489613e-01,-5.016708442757512598e-01,1.795762671177442704e-01,5.518708774988862614e-02,4.153979194465019509e-01,-4.713966123129507690e-01,-4.306024479540578320e-01,4.689937029369604105e-01,-9.516670924066245041e-03,-6.026790740759582210e-01,3.479213877473125160e-01,-1.032079417576114572e-01,2.495562921210006113e-01,-1.320583765910269547e-01,-1.719919680324742128e-01,-4.990875531012301525e-01,-5.857760628832551220e-01,-5.776210986735413888e-01,1.186956550146421430e+00,-3.964723863015386374e-01,1.847846485389158799e-01,2.188541426112525778e-01,-4.229128894646627668e-02,-4.199890311291411549e-01,2.588480344138156808e-02,-4.510809717924977869e-01,3.285817400672155775e-01,-6.887138467346481940e-02,-1.364758279688784992e-01,2.067848591099320787e-01,-4.968564311815668599e-01,-4.994725476391489449e-01,-2.601355742432550078e-01,2.653533272987591562e-01,3.160587981073982311e-01,9.117152266447879627e-02,-4.722424581298975133e-01,-2.965876709034442338e-01,1.245726909977773689e+00,3.829329308405771126e-01,8.524385004725625482e-04,1.119008772240012162e+00,-5.885432460095343377e-01,-4.146080325759510798e-01,7.642970944494689167e-01,-6.834388682177983121e-01,-3.009881460443222800e-01,5.278067088918599048e-02,-7.073417811365683150e-01,1.042806806614990478e+00,6.674901466602565191e-03,-8.880777413145676813e-02,-2.279363067023573441e-01,-4.919154676152828753e-01,-1.357389383723100196e-01,-4.515557733515812577e-01,-4.727840561103708872e-01,1.153368056552772081e-01,-1.078658592932770499e-01,2.464853645168607332e-01,2.208781075162537938e-02,-4.926293935049326222e-01,1.748364183776265346e-01,4.386077575014007968e-02,-4.338515634237208873e-01,-2.986377637496873128e-02,-5.312889068040481666e-01,1.759346416293243454e-01,1.024908639345598893e-01,2.314135113887477446e-01,1.156373717446740113e+00,-4.634081240848101357e-01,9.333804931153321105e-01,-6.528989771812904186e-01,-3.394408987535421085e-01,-6.212751411550199165e-01,-1.745915826108548896e-01,6.812564651152057671e-01,-3.486154301659346449e-02,-3.146183532809206373e-01,1.743501832956851350e-01,2.081446233176245941e-01,4.342897407767396523e-01,6.103862140174971529e-01,1.703450497349290549e+00,-8.570421346994905321e-02,-8.939353608241085158e-01,2.446735362710800166e-01,-2.182402266770381294e-01,3.288960252778880822e-01,-8.628191898654441472e-01,6.725115016705698334e-01,2.807588577807444002e-02,3.436842599590642089e-01,-8.278188724565277434e-01,-7.623671217845521264e-01,7.358746205139092555e-02,-1.498786684357027998e-01,1.497288251421975191e+00,8.682757543475193296e-02,-1.851224882450502873e-01,-3.244435246074123813e-01,-1.991543271082448496e-01,-2.731399660199103074e-01,3.070566702287496064e-01,7.564066894857444101e-01,4.810681800990114221e-01,4.910864906992228884e-01,-2.373019965655709107e-01,-6.176033913278570209e-01,1.533193328610425454e-01,-2.051533157822723052e-01,-2.709264161335629417e-01,9.469641869646655552e-01,6.945151380266106900e-01,-4.323991395174191510e-01,6.272384083865482074e-01,7.180287090962488294e-01,-8.546816034187040279e-01,-7.405808487731375678e-01,-3.649702313471380188e-01,-8.805983456525787179e-02,4.731437984231770533e-02,4.033516324993753899e-01,1.558991318786049629e-01,-6.376094929040511117e-01,-5.903583172366738685e-01,-2.262243413612529674e-01,-5.989990770650900631e-02,-7.738354228062026552e-01,-5.951328817277731220e-01,7.168291573531195005e-02,2.010511920113096984e+00,-1.954957077666290288e-01,-2.429246777139172364e-01,2.133059383829719047e-01,1.665688637185931131e-01,3.675079286908219944e-01,1.635250299667012908e-01,4.576225965119394834e-01,9.579467166570905523e-02,-2.454705655362234562e-01,4.202138388376196465e-01,9.115251563577737581e-01,1.697155538001496045e-01,-1.877581064109873632e-01,7.201252149363001065e-01,3.066607211002790323e-01,-4.789047882483578600e-01,3.451252399035607543e-01,1.837612111595577080e-01,6.230136027644026658e-03,1.876517352305824837e-01,-3.134974197109327010e-01,-3.922548064776485988e-01,2.535698503220888966e-01,-5.700497739566660060e-01,-5.990045193288285885e-01,-8.659505381640022481e-01,-7.095294887531132799e-01,-7.567295019326655270e-01,-7.218781187372595720e-02,-4.449927123501787318e-01,-1.365322785201714961e-01,-3.292171639999063593e-01,-4.402934535905545510e-01,-3.913703250677350726e-02,6.985142766984414608e-01,-4.326414503152252733e-01,3.436954311419461172e-01,-5.713384262914127099e-02,-8.807175333945508333e-01,6.189394821942187930e-01,-7.524120444185682377e-01,-9.137181173815311919e-01,1.222719605710819307e-01,-1.926372241007268948e-01,-4.862267586762603622e-01,